tree
version=v4
num_class=1
num_tree_per_iteration=1
label_index=0
max_feature_idx=499
objective=regression
feature_names=ID00187733_Price_MA20 ID01037437_BB_pos ID00186098_STD7 ID00186580_lag_30 ID02017568_MOM20 ID02017581_STD14 ID00186597_lag_1 ID00186318_mom_30 ID00186099_mom_90 ID01203688_lag_1 ID00186318_Spread_30d ID01602675_lag_30 ID00186116_STD14 ID02017509_wow_14 ID00186576_lag_30 ID00186581_lag_30 ID02017503_STD7 ID00186116_STD7 ID00186111_wow_14 ID00183109_wow_14 ID01135139_diff_1 ID00186575_lag_30 ID01562398_Ratio_MA30 ID00186103_Ratio_MA7 ID00185931_STD14 ID00186132_MA7_MA30 ID00186408_Ratio_MA30 ID02017594_mom_90 ID00186278_STD30 ID00186318_STD14 ID00186568_wow_14 ID00183114_STD14 ID01205052_lag_14 ID00186130_MA90 ID00186100_mom_30 ID02017521_diff_1 ID00185759_lag_7 ID01205346_P10_90d ID01516175_STD14 ID00186278_STD7 ID00414945_STD7 ID00186116_MOM10 biz_arrival_change_7d ID00183109_STD60 ID00185861_diff_7 ID00186491_MOM10 ID00187002_MA90 ID00414945_MOM20 ID02017521_STD60 ID00186100_MOM20 ID00185766_lag_30 ID02017568_MA7_MA30 ID00186138_Ratio_MA7 ID00185861_pct_1 ID00186112_wow_14 ID00183109_MA7_MA30 ID00183109_mom_30 ID01602638_lag_14 ID00187733_Vol14 ID00183109_STD14 ID00185861_STD30 ID02017485_STD7 ID00185761_lag_30 ID02017513_STD7 ID02017581_STD7 ID02017483_STD7 ID01205064_MOM20 ID00414945_STD14 ID01135139_STD7 ID01203829_Ratio_MA30 ID02017509_STD14 ID00186119_MA7_MA30 ID00186117_Spread_60d ID00186112_STD30 ID01205023_lag_7 ID01517134_STD7 ID02017488_STD7 ID01205061_diff_7 ID00185922_lag_1 ID00186112_yoy_365 ID00186116_MA7_MA30 ID02017521_mom_90 ID00185861_lag_30 ID02017485_diff_1 day ID01204815_mom_30 ID00183114_mom_90 ID02017530_wow_14 92346_lag_7 ID02017503_mom_90 ID01155775_lag_7 G0002323_yoy_365 RE00024786_Price_MA5 ID00186103_pct_1 ID00186103_diff_7 ID00186112_MA7_MA30 ID00186112_MOM10 ID00183114_STD7 ID00186111_STD7 ID00186053_lag_1 ID00186103_mom_90 ID00186052_STD60 ID01207883_lag_1 ID00185755_lag_1 ID02017574_yoy_365 ID02017568_wow_14 ID02017521_Ratio_MA7 ID00186100_lag_30 ID00186565_wow_14 ID00186100_MOM10 ID01037437_MACD ID01204829_mom_30 ID01204815_wow_14 ID02017485_wow_14 ID00313194_lag_30 ID00186578_lag_7 ID02017483_Spread_30d ID02017485_Ratio_MA7 ID01602638_STD7 ID02017509_MOM20 ID00186491_STD7 ID01135139_Ratio_MA7 ID00183109_lag_7 ID01205035_MOM5 ID00187017_MA7_MA30 ID02017501_Ratio_MA30 ID01205049_Ratio_MA30 ID00186117_MOM10 ID02017548_STD14 ID00186565_month_MOM10 ID02017513_STD30 ID00186568_MA30 ID00275210_MACD_sig ID00186318_pct_7 ID00186138_MA7_MA30 ID00414945_mom_30 RE00035616_lag_7 ID00186577_lag_1 ID00186280_lag_14 ID01529863_lag_1 ID00186116_wow_14 ID00186111_STD60 ID00186111_Ratio_MA30 ID00186103_lag_30 ID00186103_diff_1 ID00185861_Spread_60d ID00186669_mom_30 ID00185931_STD7 ID00185861_Ratio_MA7 ID00186099_STD7 ID00186100_STD7 ID01204812_lag_7 ID01529896_lag_30 ID00186111_diff_1 ID01516569_lag_1 ID00185764_lag_7 ID01517108_mom_30 ID00185927_lag_7 ID00185762_lag_1 S5700062_lag_30 ID01529851_lag_7 ID01529897_lag_1 ID00186572_lag_7 ID01135139_mom_90 RE00034103_lag_30 ID01205061_lag_14 ID01205069_wow_7 ID00186114_MOM10 ID00186114_Spread_90d ID00183114_wow_14 ID00186112_STD14 ID00186116_wow_7 ID00186565_month_Ratio_MA7 ID00186565_month_STD7 ID01205052_lag_1 ID00186318_Ratio_MA30 ID00186285_MA90 ID02017581_Spread_90d ID00186318_MOM20 ID00186491_Spread_30d ID02017522_STD14 ID00186568_MA14 ID02017530_STD14 ID00187733_RSI7 ID00186318_pct_1 ID02017594_Spread_90d ID01205076_lag_1 ID00275210_Price_MA60 ID00186117_STD7 ID00187733_MACD ID00274662_Price_MA5 ID01562398_diff_1 ID00186318_diff_1 ID00186132_Spread_30d ID00186132_Spread_60d ID00185753_lag_14 ID00186138_STD60 ID02017522_MOM20 ID00186193_STD60 ID00186568_diff_1 ID00186099_diff_1 ID00186565_month_Ratio_MA30 ID01205020_STD7 ID01204815_MOM20 ID01155775_month_P90_60d ID01203829_MOM10 ID01205049_STD60 ID02017503_STD14 ID01205029_diff_7 ID02017501_Ratio_MA7 ID02017513_Spread_90d ID00392622_MA60 ID00186100_diff_7 ID02017501_STD7 ID01204815_MA7 ID01205061_MA14 ID01205055_MA30 ID01205336_MA7_MA30 ID01205064_P90_60d ID02017483_STD14 ID01205346_MA14 ID02017485_MA7_MA30 ID00185769_lag_1 ID02017548_mom_90 ID00185756_lag_7 ID00186579_lag_1 ID02017548_wow_14 target_lag_1 target_lag_2 ID02017594_mom_30 RE00035609_yoy_365 ID00186567_lag_1 IO_SHIP_RATE_BRA_CN_029_mom_90 ID02017594_yoy_365 ID02017587_mom_90 ID02017581_wow_14 ID02017568_mom_30 ID02017554_yoy_365 ID02017551_mom_90 ID01529869_lag_1 ID00185756_lag_30 ID02017485_lag_14 ID02017485_diff_7 ID02017521_wow_14 ID02017530_mom_90 ID00185764_lag_30 ID01529974_lag_7 ID01203612_lag_7 S0029670_lag_30 RE00024793_lag_30 ID01203696_lag_7 ID00186576_lag_7 ID01037437_lag_30 ID01205343_mom_90 ID01205344_mom_90 ID01516175_mom_30 ID01516886_mom_30 ID02017488_STD14 ID02017488_STD30 ID02017488_Spread_30d ID01205062_MA3 ID01205064_Spread_90d ID01205069_MA3 ID01205069_Ratio_MA7 ID01205075_Ratio_MA30 ID01205076_MA5 ID01205076_STD14 ID01205336_STD14 ID01205343_MA7_MA30 ID01203829_diff_1 ID02017530_lag_30 ID01205344_P90_30d ID01205387_P10_60d ID01205023_Ratio_MA30 ID01205029_Ratio_MA30 ID01205035_Spread_30d ID01205052_MA14 ID01205052_STD14 ID01205052_STD30 ID01205055_Ratio_MA7 ID01205057_STD60 ID02017594_lag_7 ID01204797_lag_7 ID01205061_P10_30d ID02017483_Ratio_MA7 ID02017485_STD14 ID02017485_Spread_30d ID02017568_diff_1 ID02017485_MOM10 ID02017501_MOM10 ID02017503_P10_60d ID02017503_Ratio_MA7 ID00183109_lag_1 ID00183109_lag_14 ID02017509_STD7 ID01155775_MA7 ID01155775_Ratio_MA30 ID01203829_P90_60d ID01204815_MA5 ID01204829_MA7 ID01204829_MOM10 ID01205064_pct_1 ID00185747_lag_3 ID01205015_Spread_30d ID01205023_MA30 ID02017509_Ratio_MA7 ID02017509_Ratio_MA30 ID00186568_lag_7 ID01205043_diff_7 ID02017574_diff_7 ID02017513_STD14 ID02017521_MA14 ID00187017_MA90 ID00414945_STD30 ID02017501_lag_7 ID00186100_lag_14 ID01135139_P90_90d ID01135139_MOM5 ID01135139_MOM20 ID02017501_P10_30d ID02017501_MOM5 ID00186568_STD7 ID00186568_STD14 ID00186568_Spread_60d ID00186568_MA7_MA30 ID00186568_MOM10 ID00186669_MA7_MA30 ID00186671_STD60 ID00186684_MA90 ID00186684_STD60 ID00186099_diff_7 ID00186138_diff_1 ID00186114_lag_7 ID00186990_Spread_90d ID00187001_MA90 ID00187001_STD60 ID02017509_P90_30d ID02017522_STD7 ID02017522_MOM10 ID02017548_MA14 ID02017548_MA60 ID02017551_diff_1 ID02017551_diff_7 ID02017548_STD30 ID02017548_MOM5 ID00186491_Spread_60d ID00186565_STD14 ID00186565_month_STD14 ID00186565_month_STD60 ID00186565_month_P10_30d ID02017581_diff_1 ID02017581_diff_7 ID00186568_MA60 ID02017574_STD30 ID02017574_Ratio_MA30 ID02017581_MA14 ID02017488_diff_7 ID02017581_STD60 ID02017581_P90_90d ID00186278_Spread_60d ID00186278_MA7_MA30 ID00186278_MOM10 ID00186278_MOM20 ID00186280_MA7_MA30 ID01562379_lag_14 ID00186491_STD30 ID00186491_STD60 ID02017521_MA7_MA30 ID02017521_MOM10 ID00186119_diff_7 ID00186130_MA14 ID00186130_MA30 ID00186132_MA7 ID00186132_STD7 ID00186132_STD30 ID00186132_STD60 ID00186138_STD14 ID00186138_STD30 ID00186138_MOM10 ID00186278_STD14 ID02017568_STD14 ID02017568_STD60 ID02017568_Spread_60d ID02017568_Ratio_MA7 ID02017568_MOM10 ID02017587_Ratio_MA7 ID02017594_STD7 ID02017594_STD14 ID02017594_Spread_30d ID02017594_MOM10 IO_SHIP_VOL_GLOB_016_P90_60d IO_SHIP_VOL_GLOB_016_month_P90_60d ID01205076_lag_7 RE00034097_MOM10 biz_ore_daily_return ID00186117_MA7_MA30 ID00186117_MOM20 ID00186119_STD7 ID00186119_Ratio_MA7 ID00186117_lag_30 ID00186117_diff_7 ID00183114_yoy_365 ID01205049_lag_1 ID00186098_wow_14 ID00186111_MA7_MA30 ID00186112_Ratio_MA30 ID00186114_STD14 ID00186116_STD30 ID00186116_Spread_30d ID00187733_RSI14 ID00187733_MACD_hist ID00274662_BB_pos ID00275210_MACD_hist ID01037437_RSI7 ID01037437_Price_MA5 ID02017581_Ratio_MA30 ID02017581_MOM20 ID00186114_mom_90 ID00186100_STD14 ID00186103_STD7 ID00186103_STD14 ID00186103_STD60 ID00186103_Spread_30d ID00186103_MOM5 ID00186103_MOM10 ID00186103_MOM20 ID00183114_lag_7 ID00186111_STD14 ID01037437_Vol14 RE00024786_MA5_MA20 RE00024786_Vol14 ID00186052_yoy_365 ID00186052_wow_14 ID00186491_wow_14 ID00186565_yoy_365 ID00186670_mom_90 ID00186985_mom_90 ID00186116_lag_7 ID00414945_yoy_365 ID00185861_STD7 ID00185861_Spread_30d ID00185931_STD60 ID00185931_Ratio_MA7 ID00185931_MOM10 ID00186098_STD14 ID00186099_STD60 ID00186099_mom_30 ID00186100_wow_14 ID00186112_mom_90 ID01517146_lag_1 ID00186052_STD14 ID00186052_Spread_90d ID00186052_MA7_MA30 ID00186052_MOM20 ID00183109_MA60 ID00183109_MA90 ID00183109_Ratio_MA30 ID00183114_Ratio_MA7 ID00185747_MA60 ID00185751_P90_90d ID00186117_yoy_365 ID00186117_wow_14 ID00186119_mom_30 ID00186132_yoy_365 ID00186138_mom_90 ID01155775_wow_14 ID01204812_mom_30 ID01204817_yoy_365 ID01204817_wow_14 ID01204829_wow_14 ID01205035_mom_30 ID00186565_lag_7 ID00186565_lag_14 ID00186565_diff_1 ID01205069_mom_90 S0029658_lag_1 ID01516871_lag_1 ID01514919_lag_1 ID00186111_pct_7 ID02017548_lag_1 ID00185891_lag_1 ID01516886_mom_90 ID01517032_mom_30 ID01602638_yoy_365 ID01602638_wow_14 ID00186278_diff_1 ID02017483_mom_90 ID02017485_mom_30 ID02017485_mom_90 ID02017488_mom_30 ID01529897_lag_7 0d3672c8-272f-4c2a-bedf-fe3d44b8a214_lag_1 ID01529831_lag_30 S5700062_lag_7 ID00185861_pct_7 ID01166976_lag_30 ID01135139_mom_30 ID00186580_lag_7 ID00186567_lag_30 ID00185923_lag_1
feature_infos=[0.901976:1.13781] [-0.361174:1.3094779999999999] [0:9.7061279999999996] [29:372.29998799999998] [-0.383745:0.78978999999999999] [0:9.2537520000000004] [12.800000000000001:215] [-0.33333299999999999:0.55482699999999996] [-0.26592300000000002:0.30299100000000001] [0:55.599997999999999] [0.27996799999999999:148.070007] [0:118.400002] [0:3.150242] [-0.23459199999999999:0.40518100000000001] [59.099997999999999:510.5] [39.599997999999999:337.39999399999999] [0:6.6597340000000003] [0:0.99404700000000001] [-0.79259299999999999:1.857143] [-0.26899299999999998:0.31288199999999999] [-285:277] [45:102] [0.14163100000000001:2.400836] [0.69999999999999996:1.358209] [0:292.65414399999997] [0.69265399999999999:1.2443470000000001] [0.90301500000000001:1.1266849999999999] [-0.40384599999999998:1.698925] [8.1325230000000008:154.40373199999999] [0:42.218753999999997] [-0.62592599999999998:1.200369] [0:5.3319989999999997] [0:48.200001] [24.521839:32.453933999999997] [-0.28353899999999999:0.34755200000000003] [-10.27:10.15] [538.40002400000003:1309.900024] [59.599997999999999:125.699997] [0:20.727426999999999] [0:37.112330999999998] [0:65.172416999999996] [-0.88064500000000001:6.1621620000000004] [-20:16] [0.22201099999999999:7.2530080000000003] [-270.25:376.959991] [-0.17965400000000001:0.17908099999999999] [72712:95373] [-0.12815799999999999:0.162107] [1.4148909999999999:8.7885299999999997] [-0.2838:0.27017099999999999] [417.60000600000001:1208] [0.708484:1.32043] [0.80327899999999997:1.220183] [-0.055239000000000003:0.079800999999999997] [-1:1.741935] [0.77656199999999997:1.0586260000000001] [-0.27439000000000002:0.28220400000000001] [0:141.5] [0:0.014478] [0:11.990468999999999] [9.278575:247.646286] [0:3.8816950000000001] [914.5:1983.900024] [0:3.6171199999999999] [0:3.4432559999999999] [0:71.605369999999994] [-1:9.9589040000000004] [0:203.28729200000001] [0:107.719872] [0.44900600000000002:1.661324] [0:3.93933] [0:4.2857139999999996] [1.3:8.7400009999999995] [0:4.149559] [0:81.199996999999996] [0:29.035231] [0:26.49531] [-132.5:147.800003] [2.4199999999999999:11.390000000000001] [-0.47008499999999998:3.5] [0.14034099999999999:1.7341409999999999] [-0.32984599999999997:0.46183200000000002] [2005:5645.3198240000002] [-10.27:10.15] [1:31] [-1:10.34375] [-0.14587900000000001:0.17523900000000001] [-0.23459199999999999:0.40518100000000001] [51.340000000000003:343.70001200000002] [-0.42060700000000001:0.75420699999999996] [340.89999399999999:720.5] [-0.21401500000000001:0.46265099999999998] [-66.388885000000002:64.896904000000006] [-0.33333299999999999:0.44444400000000001] [-22:25] [0.30612200000000001:1.7748919999999999] [-1:1.741935] [0:0.903335] [0:1.2094860000000001] [135:473] [-0.67741899999999999:1.8846149999999999] [60.704070999999999:737.98138400000005] [11.84:20.809999000000001] [0:49.599997999999999] [-0.49743599999999999:1.088889] [-0.349609:0.84684700000000002] [0.80109600000000003:1.20099] [196.69000199999999:343] [-0.472051:0.67976300000000001] [-0.36364800000000003:0.36682100000000001] [-19.898271999999999:28.222173999999999] [-1:15.592592] [-1:13.25] [-0.31679400000000002:0.67150799999999999] [832:1605] [7.7000000000000002:265.89999399999999] [22.5:609.899902] [0.80754599999999999:1.1941729999999999] [7.7031910000000003:42.211727000000003] [-0.23335400000000001:0.40518100000000001] [0:25.777177999999999] [0.97065100000000004:1.031004] [63.889999000000003:92.739998] [-1:5.8846150000000002] [0.63154100000000002:1.2634730000000001] [0.87089300000000003:1.1653199999999999] [0:22] [-0.40000000000000002:0.90012999999999999] [0:9.5573370000000004] [-0.42570000000000002:0.47528100000000001] [0.42016700000000001:13.638878] [359.25170900000001:603.77331500000003] [-13.271013:9.6380960000000009] [-0.130081:0.215113] [0.67749700000000002:1.3192390000000001] [-0.15139900000000001:0.198966] [72.5:222.39999399999999] [58.200001:384.70001200000002] [2331:5823] [0.059999999999999998:1.9099999999999999] [-0.88437500000000002:6.1621620000000004] [0.219469:3.1795040000000001] [0.26588099999999998:1.482742] [10.4:38.700001] [-8.1999999999999993:8.4000000000000004] [62.820067999999999:1143.2998050000001] [-0.26453399999999999:0.33881299999999998] [0:76.216537000000002] [0.95227499999999998:1.0676289999999999] [0:9.9782620000000009] [0:10.261736000000001] [0:54.099997999999999] [0:1.6200000000000001] [-3.2000000000000002:3.2000000000000002] [1151.650024:2300.709961] [0:25.5] [-1:9.5] [0.080000000000000002:5.1600000000000001] [67.900002000000001:356] [39.119999:223.94000199999999] [0.050000000000000003:1.75] [0.40999999999999998:8.4700000000000006] [2:25] [-0.28037800000000002:0.25605800000000001] [0:187.39999399999999] [0:181.699997] [-1:11.48] [-0.64941199999999999:1.48421] [2:20.060001] [-0.151287:0.107006] [0:5.0134359999999996] [-0.88064500000000001:8.4459459999999993] none [0:505.191956] [0:48.200001] [0.76967600000000003:1.2455350000000001] [482:1506] [3.5999979999999998:25.809998] [-0.27568900000000002:0.37764700000000001] [1:221.179993] [0:3.9518] [282.45385700000003:740.29998799999998] [0:3.93933] [0.038720999999999998:100] [-0.130081:0.21073900000000001] [0.59999999999999998:8.5999999999999996] [0:89.599997999999999] [0.66435299999999997:1.3614440000000001] [0:1.2850790000000001] [-199.358902:238.80311599999999] [0.90265200000000001:1.0921540000000001] [-208.89999399999999:205.300003] [-40:40.150002000000001] [0:11] [0.90000000000000002:15.199999999999999] [13626:22954] [0.45441999999999999:4.9017350000000004] [-0.50131199999999998:0.514544] [0:1532.8272710000001] [-201.800003:202.89999399999999] [-26.309999000000001:26.399999999999999] [0.61012500000000003:1.3234509999999999] [0:4.6867590000000003] [-1:10.46602] [1537.5:3087.1999510000001] [-0.61280599999999996:1.380352] [5.7516800000000003:28.328603999999999] [0:22.983038000000001] [-16.200001:16.5] [0.94326299999999996:1.0476939999999999] [4.1999969999999998:29.580002] [71703:89458] [-112.400002:92.379997000000003] [0:41.462704000000002] [0:273.70001200000002] [14.164286000000001:141.230774] [2.246667:33.128571000000001] [0.40159299999999998:1.908515] [38.099997999999999:150.300003] [0:271.508759] [69.907143000000005:199.86154199999999] [0.74456999999999995:1.2369840000000001] [730.29998799999998:1679.8000489999999] [-0.242843:0.34064299999999997] [0:22.100000000000001] [26:431.60000600000001] [-0.28451900000000002:0.31675999999999999] [6580.5:12924.440000000001] [6580.5:12924.440000000001] [-0.43292700000000001:0.76344100000000004] [-0.59854499999999999:4.5679999999999996] [137.39999399999999:471.60000600000001] [-0.58949200000000002:1.503868] [-0.38181799999999999:1.311828] [-0.29987200000000003:0.57781000000000005] [-0.28168300000000002:0.319492] [-0.417323:0.59159200000000001] [-0.34931499999999999:1.3410530000000001] [-0.42060700000000001:0.75420699999999996] [76.569999999999993:100] [0:25.5] [36.110000999999997:81.300003000000004] [-19.049999:22.25] [-0.31679400000000002:0.67150799999999999] [-0.29987200000000003:0.57487900000000003] [0:25.5] [6.2199999999999998:47.810001] [0:305.29998799999998] [9635.5361329999996:106128] [-82.510002:97.372497999999993] [16.899999999999999:345.70001200000002] [59.099997999999999:510.5] [-64.459998999999996:85.370002999999997] [-0.84551299999999996:2.9855770000000001] [-0.70913899999999996:1.778742] [-1:14.471429000000001] [-1:302.33334400000001] [0:68.472328000000005] [1.6151329999999999:83.436142000000004] [0.5:191] [0:146.199997] [42.599997999999999:136] [0:33.466667000000001] [0:7] [0:30] [0:89.599997999999999] [0:39.010803000000003] [0:49.403239999999997] [0.299597:1.7304569999999999] [-277.39999399999999:286] [14.58:34.169998] [71.900002000000001:183.10000600000001] [120:302.5] [0:4.90686] [0:16.463415000000001] [0.59999999999999998:46.299999] [0:35.771427000000003] [0:25.171628999999999] [2.5000599999999999:19.334465000000002] [0:7] [3.2485629999999999:17.931387000000001] [7.5999999999999996:25.870000999999998] [0:32.400002000000001] [0:81.099997999999999] [0.95293700000000003:1.046435] [0:12.301059] [0.83999999999999997:30.050003] [-9.6699999999999999:9.4199999999999999] [-0.29858899999999999:0.67150799999999999] [-0.106961:0.20130899999999999] [53.549999:103.300003] [0.79545500000000002:1.214331] [63.889999000000003:92.739998] [63.889999000000003:92.739998] [0:1.515638] [340.89999399999999:710.51428199999998] [0.672732:1.2595510000000001] [370.60000600000001:871.09997599999997] [0:273.70001200000002] [0:103.800003] [-1:16.294117] [-1:6.4500000000000002] [31094:41158] [0:19.399999999999999] [4.8966669999999999:37.457141999999997] [0.84848500000000004:1.162866] [0.79373000000000005:1.2776449999999999] [190.699997:740.29998799999998] [-3.2000000000000002:3.2000000000000002] [-41.159999999999997:45.5] [0:11.846835] [39.017142999999997:78.869286000000002] [45.900002000000001:83.5] [11.923867:281.890533] [1414.660034:2607.5500489999999] [196.69000199999999:343] [6928.75:12879.070312] [-0.034072999999999999:0.036359000000000002] [-0.097167000000000003:0.086557999999999996] [1414.660034:2534.5] [-0.065573000000000006:0.056089] [0:76.688995000000006] [0:202.46972700000001] [54.299987999999999:498.19998199999998] [0.475273:1.4176169999999999] [-0.58326:1.7743709999999999] [0.80916200000000005:1.2114320000000001] [0:4611.2226559999999] [62534.382812000003:78415] [0:4924.0395509999998] [-74.610000999999997:54.32] [-4:4] [11.5:40] [0:36295] [69150:89968] [0:9159.3535159999992] [15.58:34.169998] [0:1.38713] [-0.29868800000000001:0.85263199999999995] [69.947693000000001:97.622146999999998] [71.723999000000006:94.536002999999994] [-17.620000999999998:17.049999] [-41.700001:45] [0.45950000000000002:11.965178] [-0.103391:0.121951] [27.459961:298.85003699999999] [0:125.022575] [0:469.96011399999998] [1.7143459999999999:484.84906000000001] [1159.8000489999999:2601.6000979999999] [-9.1099999999999994:8.8000000000000007] [-18.5:13] [399.28619400000002:596.13726799999995] [0.489954:17.820969000000002] [0.62939599999999996:1.3695360000000001] [69.647689999999997:96.394997000000004] [-119.400002:111.199997] [1.248696:9.7049310000000002] [75.610000999999997:96.300003000000004] [44:580] [0.91952800000000001:1.1293770000000001] [-0.114646:0.19378899999999999] [-0.13838600000000001:0.22733100000000001] [0.82734799999999997:1.424587] [33.900002000000001:196.199997] [6.1177149999999996:86.837646000000007] [10.219773999999999:113.825676] [0.74456999999999995:1.2369840000000001] [-0.29858899999999999:0.67150799999999999] [-1.6000000000000001:1.4199999999999999] [21.549999:33.928570000000001] [22.668966000000001:33.400002000000001] [14.857142:33.714286999999999] [0:1.5118579999999999] [0:4.5661529999999999] [0.35983399999999999:4.9318559999999998] [0:8.4935270000000003] [0.18257399999999999:6.6772419999999997] [-0.31578899999999999:1.574468] [0:123.063301] [0:11.709612] [1.1700109999999999:8.0333579999999998] [3.6900019999999998:23.099997999999999] [0.75563199999999997:1.2511779999999999] [-0.34189700000000001:0.84684700000000002] [0.84506099999999995:1.1508149999999999] [0:1.3606720000000001] [0:3.9266070000000002] [0:9.4999990000000007] [-0.31383:0.77419400000000005] [271.94781499999999:608.910706] [1012.1475830000001:2379.665039] [0:89.599997999999999] [-1:2] [-0.074032000000000001:0.088225999999999999] [0.67833500000000002:1.3823259999999999] [-0.46575299999999997:0.872892] [0:0.28347299999999997] [0:7] [6.9000000000000004:21.899999999999999] [-9.0999999999999996:7.5999999999999996] [-0.19783600000000001:0.23427400000000001] [0:96.300003000000004] [-0.24522099999999999:0.212842] [0.26657599999999998:1.365777] [0:2.3076919999999999] [0:10.856591] [0.16525300000000001:2.4678960000000001] [0.20000000000000001:6.5599999999999996] [0.73349799999999998:99.150908999999999] [-107.55490899999999:66.715996000000004] [-0.29596499999999998:1.3097049999999999] [-3.6099389999999998:2.5568759999999999] [0:96.076881] [-35.378788:21.653061000000001] [0.81716699999999998:1.1846350000000001] [-0.26877000000000001:0.276779] [-0.65615400000000002:2.3557049999999999] [0:58.698985999999998] [0:3.1749010000000002] [0:12.774673999999999] [0.78516900000000001:8.0570599999999999] [0.39999800000000002:25] [-0.33333299999999999:0.44444400000000001] [-0.62857099999999999:1.7250000000000001] [-0.59999999999999998:1.8] [73.480002999999996:95.160004000000001] [0:5.5878930000000002] [0.048489999999999998:134.429047] [-525.86663799999997:31.692765999999999] [0:179.29869099999999] [-0.26228000000000001:0.44566] [-0.067850999999999995:0.082002000000000005] [-0.17965400000000001:0.30526300000000001] [-0.36603999999999998:2.1814429999999998] [-0.30730400000000002:0.33483600000000002] [-0.109595:0.14479] [0.73999999999999999:11.199999999999999] [-0.315494:0.58655999999999997] [0:60.474316000000002] [11.439940999999999:606.149902] [28.786746999999998:505.09082000000001] [0.97250599999999998:1.043274] [-0.054203000000000001:0.123768] [0:33.188969] [3.313199:31.580321999999999] [-0.22520100000000001:0.28084399999999998] [-0.36364800000000003:0.36682100000000001] [-1:3.25] [1.71:376.14999399999999] [0:460.08724999999998] [229.77929700000001:2907.1992190000001] [0.95222700000000005:1.0553380000000001] [-0.079422000000000006:0.094552999999999998] [69.694999999999993:91.609336999999996] [71.463554000000002:91.307441999999995] [0.77468700000000001:1.076549] [0.97626500000000005:1.024554] [31094:41158] [20827:26604] [-0.60274000000000005:1.0277780000000001] [-0.35372999999999999:0.90012999999999999] [-1:54] [-0.37873800000000002:0.58129200000000003] [-0.5:1.021277] [-0.35933100000000001:0.60164300000000004] [-1:31.555554999999998] [-1:7.79] [-1:9.0454550000000005] [-1:16.294117] [-1:13.294117999999999] [221.199997:621.59997599999997] [221.199997:621.59997599999997] [-153.10000600000001:154.10000600000001] [-1:19.076923000000001] [8474.9501949999994:179433.40625] [0:41.909999999999997] [0:499.69000199999999] [-0.79259299999999999:2.035714] [64.800003000000004:99.760002] [286:1620] [-1:285.66665599999999] [-0.98672499999999996:26.585858999999999] [-1:4.4055669999999996] [-1:6.1228069999999999] [-98.190002000000007:96.180000000000007] [-0.32134600000000002:0.40148400000000001] [-0.36389500000000002:0.45921800000000002] [-0.323544:0.44201800000000002] [-0.198737:0.28358899999999998] [0.40999999999999998:8.4700000000000006] [-467:533] [5.8300000000000001:7.6200000000000001] [39.119999:219.66999799999999] [-0.106835:0.10825799999999999] [26.299999:184.89999399999999] [-0.13833599999999999:0.127225] [29:372.29998799999998] [137.39999399999999:471.60000600000001] [0.14999999999999999:3.1000000000000001]
tree_sizes=623 555 634 556 482 555 558 478 477 480 558 555 561 557 551 478 482 559 557 556 574 572 491 575 492 491 566 575 574 566 488 567 570 573 567 558 481 557 481 559 563 551 559 568 482 556 644 556 556 570 559 559 566 565 554 559 560 558 481 559 563 642 553 483 564 475 568 569 562 558 561 563 639 560 571 568 570 642 559 559 563 559 488 564 553 562 490 651 562 485 561 564 647 569 641 569 560 487 566 483 563 568 559 563 485 566 565 568 564 565 561 562 484 566 567 565 567 644 565 490 485 565 566 566 486 560 564 573 569 568 565 646 570 569 570 489 570 559 566 567 564 562 566 570 568 560 570 570 564 566 566 629 565 561 566 560 564 567 566 493 565 569 646 563 571 571 564 488 565 562 567 488 565 564 567 567 488 568 572 565 571 485 562 569 570 566 574 567 490 569 564 574 569 573 572 564 565 573 568 570 568 570 572 654 567 567 559 568 571 566 565 569 568 566 487 568 568 563 482 571 492 572 566 567 564 569 564 567 570 572 556 570 565 564 482 561 569 564 572 563 570 572 494 571 653 567 567 567 557 557 572 484 555 573 570 563 568 551 558 567 565 571 571 489 563 571 555 562 571 489 559 567 574 569 564 567 492 567 571 567 566 567 559 568 489 574 573 570 571 564 569 573 571 566 564 564 562 568 570 565 576 494 556 562 490 568 570 568 569 566 572 572 575 562 572 567 567 567 567 570 571 574 572 569 651 571 573 568 574 571 571 488 572 574 574 567 568 564 560 566 573 570 555 569 653 566 562 482 573 489 567 577 580 565 568 571 573 565 569 655 571 568 573 572 568 574 565 551 568 566 567 567 564 575 566 656 489 560 568 569 568 568 568 571 562 572 570 568 488 574 651 573 571 567 569 563 569 490 570 570 569 655 564 572 569 567 573 575 571 566 569 489 651 570 569 562 573 549 574 567 562 575 567 564 566 576 568 571 578 571 652 571 573 563 568 568 567 488 572 566 489 556 494 485 572 572 576 649 489 563 575 574 567 494 579 575 572 488 658 574 496 576 570 576 494 573 575 649 571 569 563 572 568 572 568 563 568 492 572 488 567 490 649 571 571 569 573 490 567 567 569 578 574 570 573 570 500 649 571 573 493 571 571 572 631 571 573 649 488 564 569 569 567 571 569 572 576 649 573 561 482 487 652 573 569 573 575 565 567 573 492 571 571 494 497 568 571 490 570 576 493 488 568 652 572 566 573 569 489 570 571 569 571 573 575 571 574 578 573 488 568 572 576 572 573 574 568 655 489 569 576 570 491 572 496 568 567 575 571 575 569 572 576 571 563 571 651 566 554 492 494 574 571 569 568 571 565 566 567 568 571 571 564 649 564 578 489 571 566 575 494 490 567 654 575 571 567 572 575 489 492 568 567 572 484 566 573 569 566 495 570 574 577 491 656 574 571 572 569 571 568 571 490 571 572 488 569 571 573 573 572 495 486 569 569 571 570 652 497 567 569 656 579 571 648 571 568 574 571 571 651 566 489 572 569 491 574 578 562 574 579 573 567 574 568 559 490 569 573 496 577 574 571 579 570 574 565 573 573 489 570 576 569 573 571 583 569 568 573 569 574 568 576 572 492 576 573 571 579 567 567 572 571 568 489 485 494 492 578 577 570 493 572 573 489 568 495 559 578 576 489 570 570 571 571 548 566 569 489 575 574 569 572 576 652 571 573 495 571 573 570 573 572 495 655 568 570 572 656 574 576 496 572 491 493 570 576 656 574 571 494 577 496 567 495 575 571 493 569 572 572 484 572 551 575 573 570 573 554 570 571 492 581 572 493 572 571 491 496 563 572 578 492 576 573 492 570 657 563 571 565 572 574 572 577 499 658 490 491 568 574 570 652 571 579 573 577 572 571 494 655 491 579 572 574 575 574 494 572 496 658 576 571 569 561 579 486 573 571 498 576 493 495 575 576 659 573 569 496 574 576 578 577 572 576 576 496 574 488 571 495 577 573 581 572 656 571 494 572 576 572 575 573 556 577 575 579 573 572 496 573 567 575 576 491 556 572 498 571 576 491 570 575 573 574 568 573 573 578 573 578 491 577 573 570 571 580 576 576 497 573 569 576 661 559 568 574 659 570 495 493 575 493 570 573 569 574 572 493 579 657 573 491 570 563 573 657 578 577 572 571 572 574 567 580 491 574 652 575 572 574 577 579 568 572 573 577 571 568 572 570 575 480 571 580 573 571 653 572 578 570 581 568 493 574 494 573 576 495 564 579 577 572 565 660 576 574 579 576 570 575 576 573 576 573 656 496 568 574 565 575 558 570 569 576 571 655 660 575 492 579 663 566 660 585 576 576 565 578 581 562 571 490 646 656 575 574 577 574 570 574 571 575 578 497 576 572 660 575 658 491 577 576 569 577 579 496 580 575 575 574 581 575 554 488 578 572 578 499 579 580 575 571 577 574 584 575 575 586 573 501 494 577 495 572 640 579 585 572 573 580 569 575 656 573 575 580 576 578 571 571 575 574 496 576 579 578 580 574 574 575 578 583 495 494 577 586 648 577 575 495 579 571 578 578 578 575 573 576 572 575 580 579 575 571 576 585 496 573 578 579 578 576 587 574 582 575 491 575 580 664 575 575 579 575 564 659 577 572 494 582 579 577 582 579 575 574 575 497 582 577 575 567 499 575 574 575 578 574 570 581 582 495 577 496 581 579 578 576 579 579 577 579 579 573 582 577 498 494 579 658 575 497 501 663 578 575 575 659 577 497 579 582 574 582 495 573 574 581 572 580 579 576 576 575 580 565 579 574 657 581 577 579 574 578 495 499 569 580 578 581 582 580 577 578 584 577 496 583 578 582 584 500 497 577 498 575 495 575 579 579 586 578 499 572 577 494 573 579 581 580 579 496 579 578 560 566 581 569 497 579 580 498 577 577 572 578 661 577 579 503 582 576 580 500 576 495 583 578 495 576 497 494 664 578 576 578 574 502 580 576 577 581 563 576 499 575 499 580 561 580 500 574 580 574 497 663 576 578 499 578 582 497 499 576 575 498 577 497 494 586 578 571 496 583 659 499 573 579 581 499 502 580 659 496 499 497 500 498 499 581 498 582 583 661 495 575 575 660 579 499 578 583 582 580 580 579 586 579 580 564 495 495 580 581 578 583 582 579 579 573 659 581 578 574 662 586 500 665 579 573 579 499 575 575 579 577 580 657 579 557 495 581 498 576 575 579 582 579 578 501 569 577 579 579 574 578 495 579 579 494 575 580 583 575 661 496 582 574 499 576 579 576 576 663 585 577 579 665 574 581 568 579 647 579 581 665 578 583 581 500 578 582 579 502 577 582 574 578 501 580 581 576 578 650 577 499 581 580 499 492 580 500 579 581 580 581 663 582 579 586 584 576 495 661 579 580 662 574 502 496 582 583 581 582 575 574 500 584 587 578 577 499 579 575 581 579 577 579 577 584 496 668 583 575 578 578 581 501 497 583 576 496 583 578 579 579 560 577 578 582 580 495 560 577 577 577 579 499 575 501 580 581 576 577 577 578 580 581 561 495 580 581 498 657 580 560 578 571 580 582 556 579 585 580 583 495 567 582 498 582 579 585 580 583 580 579 587 578 579 582 577 581 583 578 583 580 567 578 497 562 583 501 560 580 577 663 588 584 580 577 499 585 498 580 498 664 582 577 498 500 583 503 666 497 580 579 500 494 582 498 570 577 581 581 498 581 584 578 669 498 501 664 579 584 577 496 579 579 582 582 578 581 579 572 579 580 506 586 578 577 582 577 578 581 582 589 582 498 576 558 584 496 581 584 497 580 586 586 581 579 576 581 492 666 582 499 582 579 584 585 573 585 586 583 578 582 589 586 578 583 584 664 578 581 668 663 578 590 578 585 586 579 583 579 577 578 576 499 663 582 576 578 499 583 578 499 560 580 583 584 584 581 581 663 586 578 579 579 583 577 499 498 578 664 667 501 579 587 578 498 583 498 579 579 585 581 580 580 664 582 578 581 579 584 577 571 663 581 579 579 585 500 577 575 579 577 560 554 581 580 663 501 578 499 499 558 585 579 573 581 584 578 501 581 495 584 583 503 585 584 496 583 583 575 589 581 579 664 578 582 580 584 581 580 585 584 496 582 583 580 579 576 663 662 580 501 577 500 586 582 571 582 582 496 585 496 577 580 664 579 584 587 575 580 668 580 578 580 665 561 496 578 667 579

Tree=0
num_leaves=6
num_cat=0
split_feature=21 8 128 409 334
split_gain=469542 217429 169825 164042 118919
threshold=66.500000000000014 0.050010500000000006 1.7561715000000002 40.588837000000005 82970.925781500016
decision_type=2 2 2 2 2
left_child=2 3 -1 -2 -5
right_child=1 -3 -4 4 -6
leaf_value=4.6174104021006048 7.6632202505560016 4.1802766513690539 2.3526313040745128 4.7152461067496638 6.6173151613092527
leaf_weight=69 64 65 69 67 69
leaf_count=69 64 65 69 67 69
internal_value=5.00129 5.79583 3.47843 6.32211 5.68225
internal_weight=403 265 138 200 136
internal_count=403 265 138 200 136
is_linear=0
shrinkage=1


Tree=1
num_leaves=5
num_cat=0
split_feature=33 490 159 107
split_gain=498164 285864 168999 143820
threshold=28.160164000000005 1.7450000000000003 104.95999900000001 279.53500350000007
decision_type=2 2 2 2
left_child=-1 -2 3 -3
right_child=1 2 -4 -5
leaf_value=-1.9055597631531151 -0.9709449954340128 1.5504216078787776 2.4657037741765442 -0.52449502755493993
leaf_weight=105 80 75 79 64
leaf_count=105 80 75 79 64
internal_value=0 0.673672 1.27851 0.596147
internal_weight=403 298 218 139
internal_count=403 298 218 139
is_linear=0
shrinkage=0.0322695


Tree=2
num_leaves=6
num_cat=0
split_feature=21 177 8 409 334
split_gain=428171 221528 200385 149048 111402
threshold=66.500000000000014 9.415001000000002 0.050010500000000006 40.588837000000005 82970.925781500016
decision_type=2 2 2 2 2
left_child=1 -1 3 -2 -5
right_child=2 -3 -4 4 -6
leaf_value=-0.22846164234700775 2.5423754319243081 -2.8161502069060247 -0.79214891515598607 -0.28187696822410513 1.5590489299221195
leaf_weight=73 64 65 65 67 69
leaf_count=73 64 65 65 67 69
internal_value=0 -1.45421 0.758742 1.26399 0.654006
internal_weight=403 138 265 200 136
internal_count=403 138 265 200 136
is_linear=0
shrinkage=0.0322695


Tree=3
num_leaves=5
num_cat=0
split_feature=33 490 189 342
split_gain=456519 262320 197140 101767
threshold=28.160164000000005 1.7450000000000003 20.269628500000003 0.44000000000000006
decision_type=2 2 2 2
left_child=-1 -2 3 -3
right_child=1 2 -4 -5
leaf_value=-1.8241660537454985 -0.93050524730959061 2.6406022293164866 -0.17049482691723877 0.91642674026160065
leaf_weight=105 80 83 71 64
leaf_count=105 80 83 71 64
internal_value=0 0.644904 1.2243 1.89669
internal_weight=403 298 218 147
internal_count=403 298 218 147
is_linear=0
shrinkage=0.0322695


Tree=4
num_leaves=4
num_cat=0
split_feature=21 163 169
split_gain=394621 182145 181422
threshold=65.500000000000014 0.095637000000000014 0.0012440000000000001
decision_type=2 2 2
left_child=-1 2 -2
right_child=1 -3 -4
leaf_value=-1.4848585980027347 1.0648244033448835 1.9768706244295764 -0.8981485663933908
leaf_weight=127 105 80 91
leaf_count=127 105 80 91
internal_value=0 0.684863 0.153051
internal_weight=403 276 196
internal_count=403 276 196
is_linear=0
shrinkage=0.0322695


Tree=5
num_leaves=5
num_cat=0
split_feature=33 490 189 154
split_gain=418770 239792 182777 114516
threshold=28.160164000000005 1.7450000000000003 20.269628500000003 1431.0800175000002
decision_type=2 2 2 2
left_child=-1 -2 3 -3
right_child=1 2 -4 -5
leaf_value=-1.7470709162748153 -0.88850543882600153 2.8276996551673772 -0.17126168424340701 1.0051783340891387
leaf_weight=105 80 65 71 82
leaf_count=105 80 65 71 82
internal_value=0 0.617715 1.17168 1.81912
internal_weight=403 298 218 147
internal_count=403 298 218 147
is_linear=0
shrinkage=0.0322695


Tree=6
num_leaves=5
num_cat=0
split_feature=135 93 88 225
split_gain=365878 239822 224170 152837
threshold=-0.010076499999999999 0.018736000000000006 228.80000300000003 218.30000300000003
decision_type=2 2 2 2
left_child=2 3 -1 -2
right_child=1 -3 -4 -5
leaf_value=-2.4338929160475562 0.64300820290209681 -0.54179819949947949 0.12231320837004651 2.6575669853315387
leaf_weight=80 95 97 64 67
leaf_count=80 95 97 64 67
internal_value=0 0.724712 -1.30105 1.48285
internal_weight=403 259 144 162
internal_count=403 259 144 162
is_linear=0
shrinkage=0.0322695


Tree=7
num_leaves=4
num_cat=0
split_feature=21 27 291
split_gain=353092 193320 146284
threshold=65.500000000000014 0.075149000000000007 1.0023550000000003
decision_type=2 2 2
left_child=-1 2 -2
right_child=1 -3 -4
leaf_value=-1.4044658161232348 2.002804387241075 -0.63972769952214203 0.20889450404747339
leaf_weight=127 107 84 85
leaf_count=127 107 84 85
internal_value=0 0.647914 1.21191
internal_weight=403 276 192
internal_count=403 276 192
is_linear=0
shrinkage=0.0322695


Tree=8
num_leaves=4
num_cat=0
split_feature=33 6 390
split_gain=377324 198704 224397
threshold=28.160164000000005 75.200000500000016 422.70765650000004
decision_type=2 2 2
left_child=-1 -2 -3
right_child=1 2 -4
leaf_value=-1.6582986149251424 1.7634877580971431 -1.0776392662980649 1.0836781297886513
leaf_weight=105 99 100 99
leaf_count=105 99 100 99
internal_value=0 0.586417 -0.0019647
internal_weight=403 298 199
internal_count=403 298 199
is_linear=0
shrinkage=0.0322695


Tree=9
num_leaves=4
num_cat=0
split_feature=91 228 189
split_gain=333006 356835 159359
threshold=-0.068587499999999982 11411.995000000003 20.269628500000003
decision_type=2 8 2
left_child=-1 2 -2
right_child=1 -3 -4
leaf_value=-1.3877222260915663 2.1727543962283602 -1.0091964114435434 0.22690178202899725
leaf_weight=124 115 93 71
leaf_count=124 115 93 71
internal_value=0 0.618436 1.43328
internal_weight=403 279 186
internal_count=403 279 186
is_linear=0
shrinkage=0.0322695


Tree=10
num_leaves=5
num_cat=0
split_feature=33 490 189 154
split_gain=343375 208184 164099 96149.7
threshold=28.160164000000005 1.7450000000000003 20.269628500000003 1431.0800175000002
decision_type=2 2 2 2
left_child=-1 -2 3 -3
right_child=1 2 -4 -5
leaf_value=-1.5819366426844164 -0.84393308288107372 2.6134580739615041 -0.19658593420030648 0.94291161933003531
leaf_weight=105 80 65 71 82
leaf_count=105 80 65 71 82
internal_value=0 0.559417 1.07562 1.68911
internal_weight=403 298 218 147
internal_count=403 298 218 147
is_linear=0
shrinkage=0.0322695


Tree=11
num_leaves=5
num_cat=0
split_feature=33 490 7 29
split_gain=321697 195064 134160 108284
threshold=28.160164000000005 1.7450000000000003 -0.11060799999999998 7.4258125000000001
decision_type=2 2 2 2
left_child=-1 -2 -3 -4
right_child=1 2 3 -5
leaf_value=-1.5311527859734209 -0.81688465548912936 -0.15888999431406675 0.64657251894215428 2.383942187046447
leaf_weight=105 80 67 71 80
leaf_count=105 80 67 71 80
internal_value=0 0.541505 1.04118 1.57287
internal_weight=403 298 218 151
internal_count=403 298 218 151
is_linear=0
shrinkage=0.0322695


Tree=12
num_leaves=5
num_cat=0
split_feature=135 23 88 396
split_gain=302433 223319 187548 139238
threshold=-0.0094974999999999973 1.0160165000000003 228.80000300000003 -0.020583499999999994
decision_type=2 2 2 2
left_child=2 3 -1 -2
right_child=1 -3 -4 -5
leaf_value=-2.1990297533623995 2.5701991628384819 -0.54811222551486494 0.11277631364207454 0.62130896801509938
leaf_weight=81 64 97 66 95
leaf_count=81 64 97 66 95
internal_value=0 0.669645 -1.16393 1.41242
internal_weight=403 256 147 159
internal_count=403 256 147 159
is_linear=0
shrinkage=0.0322695


Tree=13
num_leaves=5
num_cat=0
split_feature=33 490 159 441
split_gain=295629 179736 125859 118613
threshold=28.160164000000005 1.7450000000000003 104.95999900000001 96.986644500000011
decision_type=2 2 2 2
left_child=-1 -2 3 -3
right_child=1 2 -4 -5
leaf_value=-1.4677625040974471 -0.7847576736009525 1.4108344535385642 2.0230935157713255 -0.47115065035059145
leaf_weight=105 80 65 79 74
leaf_count=105 80 65 79 74
internal_value=0 0.519145 0.998794 0.410389
internal_weight=403 298 218 139
internal_count=403 298 218 139
is_linear=0
shrinkage=0.0322695


Tree=14
num_leaves=5
num_cat=0
split_feature=44 163 27 264
split_gain=286226 171874 171095 112010
threshold=-67.120002999999983 0.088604500000000017 0.014798 1.2202230000000001
decision_type=2 2 2 2
left_child=-1 2 3 -2
right_child=1 -3 -4 -5
leaf_value=-1.8672389168358043 -0.28721799241150114 1.6043708067620523 -1.0706350010219412 1.5096884191618976
leaf_weight=70 68 89 100 76
leaf_count=70 68 89 100 76
internal_value=0 0.395167 -0.0481503 0.662688
internal_weight=403 333 244 144
internal_count=403 333 244 144
is_linear=0
shrinkage=0.0322695


Tree=15
num_leaves=4
num_cat=0
split_feature=21 27 291
split_gain=278405 154040 131572
threshold=65.500000000000014 0.075149000000000007 1.0023550000000003
decision_type=2 2 2
left_child=-1 2 -2
right_child=1 -3 -4
leaf_value=-1.2470291980768871 1.828879638380007 -0.5739178751741365 0.12810843868356275
leaf_weight=127 107 84 85
leaf_count=127 107 84 85
internal_value=0 0.575405 1.07887
internal_weight=403 276 192
internal_count=403 276 192
is_linear=0
shrinkage=0.0322695


Tree=16
num_leaves=4
num_cat=0
split_feature=91 228 189
split_gain=267555 289302 131301
threshold=-0.068587499999999982 11411.995000000003 20.269628500000003
decision_type=2 8 2
left_child=-1 2 -2
right_child=1 -3 -4
leaf_value=-1.2438161118054456 1.9593564486798301 -0.91106550286326127 0.19309298233659539
leaf_weight=124 115 93 71
leaf_count=124 115 93 71
internal_value=0 0.554416 1.28813
internal_weight=403 279 186
internal_count=403 279 186
is_linear=0
shrinkage=0.0322695


Tree=17
num_leaves=5
num_cat=0
split_feature=44 156 16 55
split_gain=259984 162655 196661 177339
threshold=-67.120002999999983 -0.38790649999999993 0.29481250000000003 0.99670900000000018
decision_type=2 2 2 2
left_child=-1 -2 -3 -4
right_child=1 2 3 -5
leaf_value=-1.7795980276950687 -1.051489491664064 2.1796089983495457 1.4033684235226258 -0.57800373757368328
leaf_weight=70 66 71 77 119
leaf_count=70 66 71 77 119
internal_value=0 0.376602 0.731356 0.201701
internal_weight=403 333 267 196
internal_count=403 333 267 196
is_linear=0
shrinkage=0.0322695


Tree=18
num_leaves=5
num_cat=0
split_feature=33 3 54 55
split_gain=251707 165613 157838 128199
threshold=28.160164000000005 211.69999700000002 -0.11667449999999999 0.99809850000000011
decision_type=2 2 2 2
left_child=-1 2 -2 -4
right_child=1 -3 3 -5
leaf_value=-1.3543422368993263 1.3683992460962997 1.7848614271334646 0.59595267168826083 -1.2699710366833614
leaf_weight=105 65 75 64 94
leaf_count=105 65 75 64 94
internal_value=0 0.479034 0.0361859 -0.514172
internal_weight=403 298 223 158
internal_count=403 298 223 158
is_linear=0
shrinkage=0.0322695


Tree=19
num_leaves=5
num_cat=0
split_feature=38 99 88 281
split_gain=247060 183831 147313 96255.9
threshold=3.3519530000000004 279.50000000000006 236.06999950000002 16.3850005
decision_type=2 2 2 2
left_child=2 -2 -1 -4
right_child=1 -3 3 -5
leaf_value=-0.19442424578067416 0.16660780907317804 -2.138774497434992 0.49853068096012498 2.239267805540007
leaf_weight=126 67 77 69 64
leaf_count=126 67 77 69 64
internal_value=9.05028e-06 -1.06897 0.595672 1.34255
internal_weight=403 144 259 133
internal_count=403 144 259 133
is_linear=0
shrinkage=0.0322695


Tree=20
num_leaves=5
num_cat=0
split_feature=135 23 434 396
split_gain=233957 195817 177629 125712
threshold=-0.0094974999999999973 1.0160165000000003 -0.072982999999999978 -0.020583499999999994
decision_type=2 2 2 2
left_child=2 3 -1 -2
right_child=1 -3 -4 -5
leaf_value=0.25244463600767125 2.3846195496270264 -0.55105025742829683 -2.003779692654156 0.53337424576419956
leaf_weight=64 64 97 83 95
leaf_count=64 64 97 83 95
internal_value=3.37217e-05 0.589087 -1.02361 1.28468
internal_weight=403 256 147 159
internal_count=403 256 147 159
is_linear=0
shrinkage=0.0322695


Tree=21
num_leaves=5
num_cat=0
split_feature=44 156 16 354
split_gain=228488 145390 180976 164202
threshold=-67.120002999999983 -0.38790649999999993 0.29481250000000003 0.97813000000000005
decision_type=2 2 2 2
left_child=-1 -2 -3 -4
right_child=1 2 3 -5
leaf_value=-1.6682164829398141 -0.99697972995931838 2.0778601009904869 1.4142070987391744 -0.52267472887764344
leaf_weight=70 66 71 71 125
leaf_count=70 66 71 71 125
internal_value=5.95436e-05 0.353161 0.688574 0.180503
internal_weight=403 333 267 196
internal_count=403 333 267 196
is_linear=0
shrinkage=0.0322695


Tree=22
num_leaves=4
num_cat=0
split_feature=91 227 150
split_gain=223837 248238 117399
threshold=-0.068587499999999982 11411.995000000003 3.1465545000000001
decision_type=2 8 2
left_child=-1 2 -2
right_child=1 -3 -4
leaf_value=-1.1375650313390659 0.58700851892947759 -0.85023303747094237 2.2880656311710927
leaf_weight=124 121 93 65
leaf_count=124 121 93 65
internal_value=5.7415e-05 0.507205 1.18688
internal_weight=403 279 186
internal_count=403 279 186
is_linear=0
shrinkage=0.0322695


Tree=23
num_leaves=5
num_cat=0
split_feature=38 169 229 35
split_gain=215781 166961 135517 73674.9
threshold=3.3519530000000004 -0.0028739999999999994 0.043757500000000005 0.33500000000000002
decision_type=2 2 2 2
left_child=2 -2 3 -1
right_child=1 -3 -4 -5
leaf_value=1.7757854142446963 0.22839708469760539 -1.9767162750918157 -0.32854654213943957 0.33985931568844929
leaf_weight=88 64 80 106 65
leaf_count=88 64 80 106 65
internal_value=8.75967e-05 -0.998924 0.556782 1.16968
internal_weight=403 144 259 153
internal_count=403 144 259 153
is_linear=0
shrinkage=0.0322695


Tree=24
num_leaves=4
num_cat=0
split_feature=21 13 23
split_gain=212351 141908 126524
threshold=65.500000000000014 -0.047950499999999993 1.0167365000000002
decision_type=2 2 2
left_child=-1 -2 -3
right_child=1 2 -4
leaf_value=-1.0889538113813615 -0.70196530466427642 1.5701676687744408 -0.093925239749453576
leaf_weight=127 74 126 76
leaf_count=127 74 126 76
internal_value=8.64688e-05 0.50267 0.945093
internal_weight=403 276 202
internal_count=403 276 202
is_linear=0
shrinkage=0.0322695


Tree=25
num_leaves=4
num_cat=0
split_feature=99 61 7
split_gain=207878 251999 119360
threshold=247.21499650000001 0.98837750000000013 -0.11060799999999998
decision_type=2 2 2
left_child=2 -2 -1
right_child=1 -3 -4
leaf_value=-0.2613981520512289 0.44915394778243012 -1.7258980061467082 1.4425409364523269
leaf_weight=68 108 113 114
leaf_count=68 108 113 114
internal_value=4.96616e-05 -0.66411 0.806566
internal_weight=403 221 182
internal_count=403 221 182
is_linear=0
shrinkage=0.0322695


Tree=26
num_leaves=5
num_cat=0
split_feature=8 206 112 231
split_gain=201081 189366 186815 78649
threshold=0.067849500000000021 15.293317000000002 0.28890200000000005 311.85000600000006
decision_type=2 2 2 2
left_child=1 2 -1 -4
right_child=-2 -3 3 -5
leaf_value=-1.4797122442622261 -1.500914683333729 1.5205816468422078 1.2524298816312824 -0.20434683279709182
leaf_weight=75 75 99 72 82
leaf_count=75 75 99 72 82
internal_value=3.71325e-05 0.345426 -0.164654 0.478218
internal_weight=403 328 229 154
internal_count=403 328 229 154
is_linear=0
shrinkage=0.0322695


Tree=27
num_leaves=5
num_cat=0
split_feature=33 40 169 162
split_gain=196909 150871 133318 94855.9
threshold=28.160164000000005 3.1371050000000005 0.00058450000000000006 12.500000000000002
decision_type=2 2 2 2
left_child=-1 -2 3 -3
right_child=1 2 -4 -5
leaf_value=-1.1978170960591068 1.8050018906666598 -0.14094003028615304 -0.81612667309018239 1.5965857853693624
leaf_weight=105 64 65 104 65
leaf_count=105 64 65 104 65
internal_value=4.42071e-06 0.423759 0.0422966 0.730224
internal_weight=403 298 234 130
internal_count=403 298 234 130
is_linear=0
shrinkage=0.0322695


Tree=28
num_leaves=5
num_cat=0
split_feature=44 163 87 137
split_gain=195471 125500 150877 127227
threshold=-67.120002999999983 0.088604500000000017 -0.014374499999999998 191.05000300000003
decision_type=2 2 2 2
left_child=-1 2 -2 -4
right_child=1 -3 3 -5
leaf_value=-1.5429821885553368 -0.98839346540662665 1.3599464033257824 -0.30197390893106663 1.6312209442996664
leaf_weight=70 103 89 73 68
leaf_count=70 103 89 73 68
internal_value=4.52785e-05 0.326656 -0.0520934 0.63245
internal_weight=403 333 244 141
internal_count=403 333 244 141
is_linear=0
shrinkage=0.0322695


Tree=29
num_leaves=5
num_cat=0
split_feature=38 99 16 99
split_gain=189659 144550 120885 120943
threshold=3.3519530000000004 279.50000000000006 0.29481250000000003 218.00000000000003
decision_type=2 2 2 2
left_child=2 -2 -1 -4
right_child=1 -3 3 -5
leaf_value=1.6088848322899729 0.15889661171272082 -1.8852031045386539 1.176155813525926 -0.54275538111975441
leaf_weight=75 67 77 66 118
leaf_count=75 67 77 66 118
internal_value=3.72119e-05 -0.936541 0.521961 0.0750107
internal_weight=403 144 259 184
internal_count=403 144 259 184
is_linear=0
shrinkage=0.0322695


Tree=30
num_leaves=4
num_cat=0
split_feature=3 99 413
split_gain=187070 212556 171450
threshold=211.69999700000002 213.50000000000003 48.848283500000008
decision_type=2 2 2
left_child=1 -1 -3
right_child=-2 2 -4
leaf_value=0.950076687451334 1.3015483678830151 -0.023120973072648047 -1.807554237710207
leaf_weight=90 89 114 110
leaf_count=90 89 114 110
internal_value=5.85577e-05 -0.370188 -0.902048
internal_weight=403 314 224
internal_count=403 314 224
is_linear=0
shrinkage=0.0322695


Tree=31
num_leaves=5
num_cat=0
split_feature=8 218 13 43
split_gain=180930 181715 153957 118363
threshold=0.067849500000000021 95.850002500000016 -0.026020499999999998 1.5272720000000002
decision_type=2 2 2 2
left_child=1 2 -1 -4
right_child=-2 -3 3 -5
leaf_value=-1.1523069696468076 -1.423678156831055 1.6378972186212364 1.2835938511406324 -0.51795457329862837
leaf_weight=92 75 82 88 66
leaf_count=92 75 82 88 66
internal_value=6.83234e-05 0.327704 -0.111348 0.511854
internal_weight=403 328 246 154
internal_count=403 328 246 154
is_linear=0
shrinkage=0.0322695


Tree=32
num_leaves=5
num_cat=0
split_feature=38 183 229 35
split_gain=174233 138011 118584 67836.2
threshold=3.3519530000000004 44.636287500000002 0.043757500000000005 0.33500000000000002
decision_type=2 2 2 2
left_child=2 -2 3 -1
right_child=1 -3 -4 -5
leaf_value=1.655168288665384 0.12925363302629544 -1.8639611696572975 -0.32776207110626421 0.27788122048258762
leaf_weight=88 70 74 106 65
leaf_count=88 70 74 106 65
internal_value=4.50666e-05 -0.897629 0.500303 1.07367
internal_weight=403 144 259 153
internal_count=403 144 259 153
is_linear=0
shrinkage=0.0322695


Tree=33
num_leaves=5
num_cat=0
split_feature=44 16 94 56
split_gain=172899 119967 124664 117590
threshold=-67.120002999999983 0.29481250000000003 -0.57999999999999996 -0.0041344999999999993
decision_type=2 2 2 2
left_child=-1 -2 -3 -4
right_child=1 2 3 -5
leaf_value=-1.4511528715692517 1.3098406109771679 0.81266625753327426 0.35747519336376515 -1.4921093292208516
leaf_weight=70 90 99 64 80
leaf_count=70 90 99 64 80
internal_value=3.79554e-05 0.307225 -0.0658745 -0.671245
internal_weight=403 333 243 144
internal_count=403 333 243 144
is_linear=0
shrinkage=0.0322695


Tree=34
num_leaves=5
num_cat=0
split_feature=390 66 40 29
split_gain=167755 290430 148541 115719
threshold=422.70765650000004 0.13297000000000003 10.186142500000001 7.4080765000000008
decision_type=2 2 2 2
left_child=1 -1 -3 -4
right_child=-2 2 3 -5
leaf_value=-2.0359161059150908 0.96836464039622216 1.490590431903164 -1.3621702477377546 0.57027410741157236
leaf_weight=83 127 65 64 64
leaf_count=83 127 65 64 64
internal_value=1.64873e-05 -0.446292 0.240712 -0.396975
internal_weight=403 276 193 128
internal_count=403 276 193 128
is_linear=0
shrinkage=0.0322695


Tree=35
num_leaves=5
num_cat=0
split_feature=3 99 426 396
split_gain=166902 187591 162773 107168
threshold=211.69999700000002 213.50000000000003 86.514999500000002 0.019678000000000005
decision_type=2 2 2 2
left_child=1 -1 3 -3
right_child=-2 2 -4 -5
leaf_value=0.89058169562256773 1.2293423265691568 0.60922183449808731 -2.0112382874320796 -1.1507200340928643
leaf_weight=90 89 78 80 66
leaf_count=90 89 78 80 66
internal_value=0 -0.349707 -0.849368 -0.198135
internal_weight=403 314 224 144
internal_count=403 314 224 144
is_linear=0
shrinkage=0.0322695


Tree=36
num_leaves=4
num_cat=0
split_feature=1 38 327
split_gain=160942 184629 117743
threshold=0.7959655000000001 3.3101145000000005 223.71479050000002
decision_type=2 2 2
left_child=1 2 -1
right_child=-2 -3 -4
leaf_value=0.056432275355287477 -1.4122668941635612 -0.71040557148717021 1.5761673236246716
leaf_weight=100 69 121 113
leaf_count=100 69 121 113
internal_value=0 0.293816 0.865043
internal_weight=403 334 213
internal_count=403 334 213
is_linear=0
shrinkage=0.0322695


Tree=37
num_leaves=5
num_cat=0
split_feature=8 218 13 43
split_gain=156821 162561 139465 106701
threshold=0.067849500000000021 95.850002500000016 -0.026020499999999998 1.5272720000000002
decision_type=2 2 2 2
left_child=1 2 -1 -4
right_child=-2 -3 3 -5
leaf_value=-1.1010073670162004 -1.3255331051204242 1.5442258930025674 1.2156470332496168 -0.49481013500033894
leaf_weight=92 75 82 88 66
leaf_count=92 75 82 88 66
internal_value=0 0.304995 -0.110247 0.48289
internal_weight=403 328 246 154
internal_count=403 328 246 154
is_linear=0
shrinkage=0.0322695


Tree=38
num_leaves=4
num_cat=0
split_feature=6 390 42
split_gain=154663 224165 137242
threshold=75.200000500000016 422.70765650000004 1.5000000000000002
decision_type=2 2 2
left_child=-1 2 -2
right_child=1 -3 -4
leaf_value=0.94595516873374719 -1.9656590589031808 0.67680674832159171 -0.079166422833334041
leaf_weight=124 96 114 69
leaf_count=124 96 114 69
internal_value=0 -0.421245 -1.18014
internal_weight=403 279 165
internal_count=403 279 165
is_linear=0
shrinkage=0.0322695


Tree=39
num_leaves=5
num_cat=0
split_feature=3 55 138 115
split_gain=150888 176005 255274 99072.1
threshold=214.50000000000003 0.99460500000000007 4837.5000000000009 110.50000000000001
decision_type=2 2 2 2
left_child=1 -1 -3 -4
right_child=-2 2 3 -5
leaf_value=0.85090905950420492 1.1945386689544064 -2.1145277279609149 -0.78514728297314018 0.97559433091259407
leaf_weight=93 86 92 66 66
leaf_count=93 86 92 66 66
internal_value=0 -0.325416 -0.815059 0.0949792
internal_weight=403 317 224 132
internal_count=403 317 224 132
is_linear=0
shrinkage=0.0322695


Tree=40
num_leaves=5
num_cat=0
split_feature=456 40 87 424
split_gain=146007 145687 133012 116765
threshold=1.0177375000000002 4.4769890000000006 -0.063707499999999986 -0.040605999999999996
decision_type=2 2 2 2
left_child=1 -1 -3 -4
right_child=-2 2 3 -5
leaf_value=1.5993336779943219 -1.2486371084713448 -1.286064079006437 1.4216571998382459 -0.23652173526527917
leaf_weight=70 78 67 70 118
leaf_count=70 78 67 70 118
internal_value=0 0.301426 -0.0571912 0.382769
internal_weight=403 325 255 188
internal_count=403 325 255 188
is_linear=0
shrinkage=0.0322695


Tree=41
num_leaves=5
num_cat=0
split_feature=1 54 112 55
split_gain=143879 128889 142489 95716.4
threshold=0.7959655000000001 -0.16889499999999999 -0.1430215 1.0030110000000001
decision_type=2 2 2 2
left_child=1 -1 -3 -4
right_child=-2 2 3 -5
leaf_value=1.4814881728924072 -1.3353600180749137 -1.2385379297282118 1.0302834113099506 -0.44873391998908324
leaf_weight=72 69 75 110 77
leaf_count=72 69 75 110 77
internal_value=0 0.277754 -0.0551172 0.421293
internal_weight=403 334 262 187
internal_count=403 334 262 187
is_linear=0
shrinkage=0.0322695


Tree=42
num_leaves=5
num_cat=0
split_feature=3 390 66 192
split_gain=139811 165362 262582 139363
threshold=211.69999700000002 422.70765650000004 0.13297000000000003 -1.9799999999999998
decision_type=2 2 2 2
left_child=1 2 -1 -4
right_child=-2 -3 3 -5
leaf_value=-2.4443461921748293 1.1250621859255385 0.97397420980775962 -1.0419807618314434 0.80307272924139828
leaf_weight=67 89 77 80 90
leaf_count=67 89 77 80 90
internal_value=0 -0.320166 -0.742254 -0.0652495
internal_weight=403 314 237 170
internal_count=403 314 237 170
is_linear=0
shrinkage=0.0322695


Tree=43
num_leaves=5
num_cat=0
split_feature=16 99 169 425
split_gain=146554 169675 140500 90041.1
threshold=0.33827800000000008 243.50000000000003 0.0012440000000000001 1.0000000180025095e-35
decision_type=2 2 2 2
left_child=-1 3 -3 -2
right_child=1 2 -4 -5
leaf_value=1.0205362475831754 1.3459586108445665 -0.0030782934215637481 -1.8905038604178517 -0.34593587195662984
leaf_weight=107 65 74 92 65
leaf_count=107 65 74 92 65
internal_value=0 -0.370011 -1.0524 0.501458
internal_weight=403 296 166 130
internal_count=403 296 166 130
is_linear=0
shrinkage=0.0322695


Tree=44
num_leaves=4
num_cat=0
split_feature=16 55 138
split_gain=137295 150435 196064
threshold=0.33827800000000008 0.99670900000000018 4916.5000000000009
decision_type=2 2 2
left_child=-1 -2 -3
right_child=1 2 -4
leaf_value=0.98777148640706325 0.58555103378170614 -1.9378188186403149 0.15346533467136042
leaf_weight=107 110 95 91
leaf_count=107 110 95 91
internal_value=0 -0.358134 -0.91676
internal_weight=403 296 186
internal_count=403 296 186
is_linear=0
shrinkage=0.0322695


Tree=45
num_leaves=5
num_cat=0
split_feature=1 28 46 456
split_gain=131531 129517 166949 77323.5
threshold=0.7959655000000001 40.733396500000005 86065.652344000016 1.0011125000000003
decision_type=2 2 2 2
left_child=1 2 -1 -3
right_child=-2 3 -4 -5
leaf_value=-1.5074669552910978 -1.2768246471622859 1.7055337877776133 0.46109389106100995 0.21344417649632774
leaf_weight=72 69 75 117 70
leaf_count=72 69 75 117 70
internal_value=0 0.265517 -0.290573 0.989302
internal_weight=403 334 189 145
internal_count=403 334 189 145
is_linear=0
shrinkage=0.0322695


Tree=46
num_leaves=6
num_cat=0
split_feature=146 298 185 382 437
split_gain=128157 155337 126994 99856 85686.7
threshold=1.0000000180025095e-35 73.429996500000016 3.5999995000000005 9.3850005000000021 6.6350000000000007
decision_type=2 2 2 2 2
left_child=1 2 4 -4 -1
right_child=-2 -3 3 -5 -6
leaf_value=0.91605791777396384 1.1984899543746772 1.0790433172760363 -2.2490495703599036 -0.46385445298682293 -0.74659296004352893
leaf_weight=64 75 69 64 67 64
leaf_count=64 75 69 64 67 64
internal_value=0 -0.275511 -0.638215 -1.34237 0.0844359
internal_weight=403 328 259 131 128
internal_count=403 328 259 131 128
is_linear=0
shrinkage=0.0322695


Tree=47
num_leaves=5
num_cat=0
split_feature=8 218 38 221
split_gain=127927 134997 128472 122567
threshold=0.067849500000000021 95.850002500000016 3.3519530000000004 0.99185350000000005
decision_type=2 2 2 2
left_child=1 2 3 -1
right_child=-2 -3 -4 -5
leaf_value=-0.58011445238279968 -1.1973078918649021 1.4046645321969948 -1.180928899352967 1.1698833143417424
leaf_weight=74 75 82 78 94
leaf_count=74 75 82 78 94
internal_value=0 0.275367 -0.103003 0.399169
internal_weight=403 328 246 168
internal_count=403 328 246 168
is_linear=0
shrinkage=0.0322695


Tree=48
num_leaves=5
num_cat=0
split_feature=3 390 66 192
split_gain=124941 148919 230498 127182
threshold=211.69999700000002 422.70765650000004 0.13297000000000003 -1.9799999999999998
decision_type=2 2 2 2
left_child=1 2 -1 -4
right_child=-2 -3 3 -5
leaf_value=-2.2980226522693119 1.0634791124047775 0.92535880007963256 -1.002008390805861 0.7605629203834583
leaf_weight=67 89 77 80 90
leaf_count=67 89 77 80 90
internal_value=0 -0.30273 -0.703297 -0.0689404
internal_weight=403 314 237 170
internal_count=403 314 237 170
is_linear=0
shrinkage=0.0322695


Tree=49
num_leaves=5
num_cat=0
split_feature=16 99 169 425
split_gain=125135 142037 118008 79519.1
threshold=0.33827800000000008 243.50000000000003 0.0012440000000000001 1.0000000180025095e-35
decision_type=2 2 2 2
left_child=-1 3 -3 -2
right_child=1 2 -4 -5
leaf_value=0.9429527460779189 1.2490218080407181 -0.0045424525954715512 -1.7344232027959159 -0.34084990165270712
leaf_weight=107 65 74 92 65
leaf_count=107 65 74 92 65
internal_value=0 -0.341972 -0.966325 0.455341
internal_weight=403 296 166 130
internal_count=403 296 166 130
is_linear=0
shrinkage=0.0322695


Tree=50
num_leaves=5
num_cat=0
split_feature=6 390 61 114
split_gain=117376 152313 109241 64600.3
threshold=76.524997500000012 422.70765650000004 1.0280635000000002 1044.5000000000002
decision_type=2 2 2 2
left_child=3 2 -2 -1
right_child=1 -3 -4 -5
leaf_value=0.052986222828865358 -0.021329604549975709 0.52586484894809737 -1.7488842839174634 1.4588124814279151
leaf_weight=67 65 110 92 69
leaf_count=67 65 110 92 69
internal_value=0 -0.392899 -1.03675 0.76984
internal_weight=403 267 157 136
internal_count=403 267 157 136
is_linear=0
shrinkage=0.0322695


Tree=51
num_leaves=5
num_cat=0
split_feature=1 128 54 187
split_gain=117556 116467 139149 143652
threshold=0.7959655000000001 0.86671550000000008 -0.11667449999999999 1.0533780000000001
decision_type=2 2 2 2
left_child=1 -1 -3 -4
right_child=-2 2 3 -5
leaf_value=1.4370974394948386 -1.2071384628864381 1.1292346547507297 0.1413531742594509 -1.6983815013203496
leaf_weight=68 69 74 124 68
leaf_count=68 69 74 124 68
internal_value=0 0.250967 -0.0542635 -0.512753
internal_weight=403 334 266 192
internal_count=403 334 266 192
is_linear=0
shrinkage=0.0322695


Tree=52
num_leaves=5
num_cat=0
split_feature=16 99 494 94
split_gain=115232 129111 119457 68970.6
threshold=0.33827800000000008 243.50000000000003 -0.007752499999999999 -0.27999999999999997
decision_type=2 2 2 2
left_child=-1 3 -3 -2
right_child=1 2 -4 -5
leaf_value=0.90488458127249383 1.1599587312752215 -1.8953943219907015 -0.15294472283390401 -0.32085765548462092
leaf_weight=107 66 73 93 64
leaf_count=107 66 73 93 64
internal_value=0 -0.328147 -0.923416 0.432004
internal_weight=403 296 166 130
internal_count=403 296 166 130
is_linear=0
shrinkage=0.0322695


Tree=53
num_leaves=5
num_cat=0
split_feature=8 218 13 127
split_gain=113091 115833 113560 87314.2
threshold=0.067849500000000021 95.850002500000016 -0.026020499999999998 -0.042376499999999991
decision_type=2 2 2 2
left_child=1 2 -1 -4
right_child=-2 -3 3 -5
leaf_value=-0.98567908866094678 -1.1257884394718662 1.3049378203607152 1.3495566489287341 -0.20402818293556577
leaf_weight=92 75 82 64 90
leaf_count=92 75 82 64 90
internal_value=0 0.258861 -0.0916094 0.443561
internal_weight=403 328 246 154
internal_count=403 328 246 154
is_linear=0
shrinkage=0.0322695


Tree=54
num_leaves=5
num_cat=0
split_feature=1 28 46 79
split_gain=108027 111915 137466 82464
threshold=0.7959655000000001 40.416395500000007 86065.652344000016 0.11635350000000001
decision_type=2 2 2 2
left_child=1 2 -1 -3
right_child=-2 3 -4 -5
leaf_value=-1.4096770432039132 -1.1571945584187919 0.07188740751176674 0.39510566508966305 1.5999208112136711
leaf_weight=70 69 68 116 80
leaf_count=70 69 68 116 80
internal_value=0 0.240566 -0.285802 0.901268
internal_weight=403 334 186 148
internal_count=403 334 186 148
is_linear=0
shrinkage=0.0322695


Tree=55
num_leaves=5
num_cat=0
split_feature=3 112 48 406
split_gain=111884 130570 129020 90983.9
threshold=211.69999700000002 -0.30147499999999994 2.8557975000000004 1.0897710000000003
decision_type=2 2 2 2
left_child=1 -1 -3 -4
right_child=-2 2 3 -5
leaf_value=-1.532066252691719 1.0063486756319764 -1.1297404840905783 -0.40789044940091379 1.0889719398057249
leaf_weight=68 89 68 68 110
leaf_count=68 89 68 68 110
internal_value=0 -0.286507 0.0600854 0.517166
internal_weight=403 314 246 178
internal_count=403 314 246 178
is_linear=0
shrinkage=0.0322695


Tree=56
num_leaves=5
num_cat=0
split_feature=146 0 46 21
split_gain=107314 141921 161942 120468
threshold=1.0000000180025095e-35 1.0030170000000003 87846.144531000013 68.500000000000014
decision_type=2 2 2 2
left_child=1 3 -3 -1
right_child=-2 2 -4 -5
leaf_value=-0.64570220122541722 1.0965918001562749 -1.9960046536591216 0.12851990832901525 1.0523177918765052
leaf_weight=73 75 78 71 106
leaf_count=73 75 78 71 106
internal_value=0 -0.252227 -0.986314 0.359501
internal_weight=403 328 149 179
internal_count=403 328 149 179
is_linear=0
shrinkage=0.0322695


Tree=57
num_leaves=5
num_cat=0
split_feature=38 218 39 137
split_gain=102131 85469.6 78407.5 88457.6
threshold=3.3519530000000004 86.950001000000015 8.2074985000000016 191.05000300000003
decision_type=2 2 2 2
left_child=2 -2 -1 -4
right_child=1 -3 3 -5
leaf_value=-0.31222884038547799 -1.4069668549997629 0.16607229653104663 0.079875560438252655 1.6110765973965
leaf_weight=102 78 66 80 77
leaf_count=102 78 66 80 77
internal_value=0 -0.687505 0.38278 0.834367
internal_weight=403 144 259 157
internal_count=403 144 259 157
is_linear=0
shrinkage=0.0322695


Tree=58
num_leaves=4
num_cat=0
split_feature=16 55 138
split_gain=103591 117929 151118
threshold=0.33827800000000008 0.99670900000000018 4916.5000000000009
decision_type=2 2 2
left_child=-1 -2 -3
right_child=1 2 -4
leaf_value=0.85789356856004106 0.52426534891348986 -1.702255429179377 0.1336515460290881
leaf_weight=107 110 95 91
leaf_count=107 110 95 91
internal_value=0 -0.311198 -0.805831
internal_weight=403 296 186
internal_count=403 296 186
is_linear=0
shrinkage=0.0322695


Tree=59
num_leaves=5
num_cat=0
split_feature=3 112 48 63
split_gain=101224 118898 115802 108987
threshold=211.69999700000002 -0.30147499999999994 2.8557975000000004 0.70868350000000013
decision_type=2 2 2 2
left_child=1 -1 -3 -4
right_child=-2 2 3 -5
leaf_value=-1.4611363999778779 0.95716946600600639 -1.0690411752986548 1.4440251954583991 -0.17445615259186195
leaf_weight=68 89 68 73 105
leaf_count=68 89 68 73 105
internal_value=0 -0.27255 0.0581711 0.491219
internal_weight=403 314 246 178
internal_count=403 314 246 178
is_linear=0
shrinkage=0.0322695


Tree=60
num_leaves=5
num_cat=0
split_feature=8 69 11 13
split_gain=98272.9 109536 122943 93082.3
threshold=0.067849500000000021 1.0294490000000003 54.799999500000006 -0.026020499999999998
decision_type=2 2 2 2
left_child=1 2 3 -1
right_child=-2 -3 -4 -5
leaf_value=-0.59391033057430664 -1.0495058998254325 1.3995217222992498 -1.2211420139044789 0.88680944800339245
leaf_weight=68 75 67 69 124
leaf_count=68 75 67 69 124
internal_value=0 0.241247 -0.0580691 0.361752
internal_weight=403 328 261 192
internal_count=403 328 261 192
is_linear=0
shrinkage=0.0322695


Tree=61
num_leaves=6
num_cat=0
split_feature=128 162 16 439 169
split_gain=97980 129241 120145 104633 99757.5
threshold=0.73404100000000005 11.500000000000002 0.52348050000000013 17.093444000000002 0.0012440000000000001
decision_type=2 2 2 2 2
left_child=-1 3 -3 -2 -4
right_child=1 2 4 -5 -6
leaf_value=1.1523830760356981 -0.070184094234738592 1.4413150734677491 0.59561388103520219 -1.8333201185133534 -1.1598335733858864
leaf_weight=64 69 65 70 71 64
leaf_count=64 69 65 70 71 64
internal_value=0 -0.219176 0.308843 -0.9686 -0.243487
internal_weight=403 339 199 140 134
internal_count=403 339 199 140 134
is_linear=0
shrinkage=0.0322695


Tree=62
num_leaves=5
num_cat=0
split_feature=3 54 112 82
split_gain=92891.1 110676 104347 95515.9
threshold=211.69999700000002 -0.12792449999999997 -0.1430215 3345.4450685000006
decision_type=2 2 2 2
left_child=1 -1 -3 -4
right_child=-2 2 3 -5
leaf_value=0.76251001041850597 0.91688594707521331 -1.7222832656749623 -0.85481552767546376 0.69126372244763046
leaf_weight=81 89 64 97 72
leaf_count=81 89 64 97 72
internal_value=0 -0.261133 -0.618305 -0.195528
internal_weight=403 314 233 169
internal_count=403 314 233 169
is_linear=0
shrinkage=0.0322695


Tree=63
num_leaves=4
num_cat=0
split_feature=1 38 327
split_gain=95145.4 111077 88448.3
threshold=0.7959655000000001 3.3101145000000005 223.71479050000002
decision_type=2 2 2
left_child=1 2 -1
right_child=-2 -3 -4
leaf_value=-0.030028670235262036 -1.0860975959924135 -0.55314690013941703 1.2851235082950241
leaf_weight=100 69 121 113
leaf_count=100 69 121 113
internal_value=0 0.225679 0.66879
internal_weight=403 334 213
internal_count=403 334 213
is_linear=0
shrinkage=0.0322695


Tree=64
num_leaves=5
num_cat=0
split_feature=146 0 46 42
split_gain=93189.3 129359 140670 107234
threshold=1.0000000180025095e-35 1.0030170000000003 87846.144531000013 -1.0000000180025095e-35
decision_type=2 2 2 2
left_child=1 3 -3 -1
right_child=-2 2 -4 -5
leaf_value=-0.52709862346772496 1.0218256233268928 -1.8769935448816624 0.10311232935655416 1.0566390556983194
leaf_weight=80 75 78 71 99
leaf_count=80 75 78 71 99
internal_value=0 -0.235099 -0.935961 0.348903
internal_weight=403 328 149 179
internal_count=403 328 149 179
is_linear=0
shrinkage=0.0322695


Tree=65
num_leaves=4
num_cat=0
split_feature=55 101 486
split_gain=92012.6 118391 126550
threshold=0.99460500000000007 180.10741450000003 0.0282565
decision_type=2 2 2
left_child=-1 -2 -3
right_child=1 2 -4
leaf_value=0.74230532973398611 0.46398162983025898 -1.6390353513232823 0.16480005116267049
leaf_weight=121 117 95 70
leaf_count=121 117 95 70
internal_value=0 -0.319487 -0.875245
internal_weight=403 282 165
internal_count=403 282 165
is_linear=0
shrinkage=0.0322695


Tree=66
num_leaves=5
num_cat=0
split_feature=128 162 184 439
split_gain=88627.5 115449 101637 95013.3
threshold=0.73404100000000005 11.500000000000002 -0.0082004999999999977 17.093444000000002
decision_type=2 2 2 2
left_child=-1 3 -3 -2
right_child=1 2 -4 -5
leaf_value=1.0959877370012645 -0.060661603110360354 -0.62405724630335646 0.86872499210613163 -1.740792086813767
leaf_weight=64 69 77 122 71
leaf_count=64 69 77 122 71
internal_value=0 -0.20847 0.290565 -0.916785
internal_weight=403 339 199 140
internal_count=403 339 199 140
is_linear=0
shrinkage=0.0322695


Tree=67
num_leaves=5
num_cat=0
split_feature=16 490 229 424
split_gain=88523.4 104787 93207.3 79978.4
threshold=0.33827800000000008 1.6650000000000003 0.039531000000000004 -0.029857499999999999
decision_type=2 2 2 2
left_child=-1 -2 3 -3
right_child=1 2 -4 -5
leaf_value=0.7929699395715073 -1.2811865521961363 1.3946825057859769 -0.79691744878358706 -0.16036133350452172
leaf_weight=107 80 66 79 71
leaf_count=107 80 66 79 71
internal_value=0 -0.287758 0.0820938 0.590736
internal_weight=403 296 216 137
internal_count=403 296 216 137
is_linear=0
shrinkage=0.0322695


Tree=68
num_leaves=5
num_cat=0
split_feature=456 49 13 225
split_gain=86829.3 89897 135334 95254.6
threshold=1.0177375000000002 0.024290000000000003 -0.047950499999999993 220.50000000000003
decision_type=2 2 2 2
left_child=1 2 -1 -4
right_child=-2 -3 3 -5
leaf_value=-1.2544139868784547 -0.96313538631063866 1.0705140897881407 -0.25023748165405751 1.3506944713214033
leaf_weight=73 78 94 92 66
leaf_count=73 78 94 92 66
internal_value=0 0.232215 -0.110269 0.420325
internal_weight=403 325 231 158
internal_count=403 325 231 158
is_linear=0
shrinkage=0.0322695


Tree=69
num_leaves=5
num_cat=0
split_feature=1 38 39 327
split_gain=86745.8 98766.4 86466.2 70631.3
threshold=0.7959655000000001 3.3101145000000005 8.2074985000000016 223.71479050000002
decision_type=2 2 2 2
left_child=1 2 -1 -4
right_child=-2 -3 3 -5
leaf_value=-0.17119627186726971 -1.0371062553098769 -0.51895586679461825 0.3883239878027836 1.9015758970763408
leaf_weight=84 69 121 64 65
leaf_count=84 69 121 64 65
internal_value=0 0.215429 0.633271 1.15627
internal_weight=403 334 213 129
internal_count=403 334 213 129
is_linear=0
shrinkage=0.0322695


Tree=70
num_leaves=5
num_cat=0
split_feature=298 283 456 28
split_gain=82818 97100.8 91364.4 105957
threshold=73.429996500000016 25.850000000000005 1.0123420000000001 40.733396500000005
decision_type=2 2 2 2
left_child=1 2 3 -1
right_child=-2 -3 -4 -5
leaf_value=-0.21774296147859934 0.8913353539676232 -1.2500401378122299 -0.96688600496893917 1.3686435441918083
leaf_weight=104 85 75 64 75
leaf_count=104 85 75 64 75
internal_value=0 -0.239519 0.0741296 0.448617
internal_weight=403 318 243 179
internal_count=403 318 243 179
is_linear=0
shrinkage=0.0322695


Tree=71
num_leaves=5
num_cat=0
split_feature=8 206 13 23
split_gain=81871.5 99776.9 84971.6 92137.7
threshold=0.067849500000000021 15.293317000000002 -0.026020499999999998 1.0050855000000003
decision_type=2 2 2 2
left_child=1 2 -1 -4
right_child=-2 -3 3 -5
leaf_value=-0.94122325969117782 -0.95800025096542141 1.073211107492102 1.0881020564903567 -0.55541470671921556
leaf_weight=87 75 99 77 65
leaf_count=87 75 99 77 65
internal_value=0 0.220128 -0.149982 0.335951
internal_weight=403 328 229 142
internal_count=403 328 229 142
is_linear=0
shrinkage=0.0322695


Tree=72
num_leaves=6
num_cat=0
split_feature=5 159 107 61 225
split_gain=80975.7 106393 145051 71975.1 71508.8
threshold=0.82217050000000014 105.90000150000002 271.66499350000009 1.1754695000000002 217.39999400000002
decision_type=2 2 2 2 2
left_child=-1 2 -2 -4 -3
right_child=1 4 3 -5 -6
leaf_value=0.97640070487249719 0.56237543543968427 -0.27754166058150043 -0.52225735642511439 -2.0232254372895833 1.2196086644886326
leaf_weight=72 65 64 66 68 68
leaf_count=72 65 64 66 68 68
internal_value=0 -0.213823 -0.684441 -1.2897 0.49493
internal_weight=403 331 199 134 132
internal_count=403 331 199 134 132
is_linear=0
shrinkage=0.0322695


Tree=73
num_leaves=5
num_cat=0
split_feature=1 38 39 327
split_gain=79615.6 89701.1 80443.4 64189.1
threshold=0.7959655000000001 3.3101145000000005 8.2074985000000016 223.71479050000002
decision_type=2 2 2 2
left_child=1 2 -1 -4
right_child=-2 -3 3 -5
leaf_value=-0.17129392852220077 -0.99357742552409811 -0.49347730949565743 0.37681225184031836 1.8195945397016389
leaf_weight=84 69 121 64 65
leaf_count=84 69 121 64 65
internal_value=0 0.206378 0.604589 1.10906
internal_weight=403 334 213 129
internal_count=403 334 213 129
is_linear=0
shrinkage=0.0322695


Tree=74
num_leaves=5
num_cat=0
split_feature=16 490 229 424
split_gain=79708.5 90029.6 81062.2 70458.2
threshold=0.33827800000000008 1.6650000000000003 0.039531000000000004 -0.029857499999999999
decision_type=2 2 2 2
left_child=-1 -2 3 -3
right_child=1 2 -4 -5
leaf_value=0.75245774954363143 -1.1938712082738698 1.2987534978946371 -0.74994506309323117 -0.16070592122936422
leaf_weight=107 80 66 79 71
leaf_count=107 80 66 79 71
internal_value=0 -0.273052 0.0697551 0.544145
internal_weight=403 296 216 137
internal_count=403 296 216 137
is_linear=0
shrinkage=0.0322695


Tree=75
num_leaves=5
num_cat=0
split_feature=146 0 42 479
split_gain=76919.8 116408 95074.2 89791.1
threshold=1.0000000180025095e-35 1.0030170000000003 -1.0000000180025095e-35 85.485000500000012
decision_type=2 2 2 2
left_child=1 2 -1 -3
right_child=-2 3 -4 -5
leaf_value=-0.48450041566950114 0.92832987385315213 -0.11915945688556891 1.0067385409337604 -1.7042196323701524
leaf_weight=80 75 78 99 71
leaf_count=80 75 78 99 71
internal_value=0 -0.213616 0.340347 -0.87849
internal_weight=403 328 179 149
internal_count=403 328 179 149
is_linear=0
shrinkage=0.0322695


Tree=76
num_leaves=5
num_cat=0
split_feature=96 40 91 178
split_gain=75198.3 90555.2 73113.8 106637
threshold=-0.20725749999999998 4.4769890000000006 -0.0063429999999999997 -0.061207999999999992
decision_type=2 2 2 2
left_child=-1 -2 -3 -4
right_child=1 2 3 -5
leaf_value=1.0094986920990929 0.79327763832910581 -1.1215795394938342 -1.024989300006147 0.67614474771362454
leaf_weight=64 75 107 65 92
leaf_count=64 75 107 65 92
internal_value=0 -0.192073 -0.473383 -0.0287232
internal_weight=403 339 264 157
internal_count=403 339 264 157
is_linear=0
shrinkage=0.0322695


Tree=77
num_leaves=6
num_cat=0
split_feature=5 159 107 218 407
split_gain=74497.9 98425.3 130432 63174.9 46359.2
threshold=0.82217050000000014 105.90000150000002 271.66499350000009 93.560001500000013 0.90424900000000008
decision_type=2 2 2 2 2
left_child=-1 2 -2 -3 -4
right_child=1 3 4 -5 -6
leaf_value=0.93655125468975631 0.5245837888717394 -0.20716846592920518 -1.8039476956549954 1.200029680602426 -0.59446553575628391
leaf_weight=72 65 68 70 64 64
leaf_count=72 65 68 70 64 64
internal_value=0 -0.205073 -0.657734 0.476608 -1.23167
internal_weight=403 331 199 132 134
internal_count=403 331 199 132 134
is_linear=0
shrinkage=0.0322695


Tree=78
num_leaves=5
num_cat=0
split_feature=2 68 68 487
split_gain=73959.9 91763.3 105405 61987
threshold=5.2937700000000012 53.531107000000013 14.787860500000003 -0.027548499999999997
decision_type=2 2 2 2
left_child=1 2 -1 -4
right_child=-2 -3 3 -5
leaf_value=0.31586515185882358 0.99205085821117955 0.70074220130364751 -0.3459918466862319 -1.6540784390261178
leaf_weight=98 65 88 72 80
leaf_count=98 65 88 72 80
internal_value=0 -0.192206 -0.507704 -1.03847
internal_weight=403 338 250 152
internal_count=403 338 250 152
is_linear=0
shrinkage=0.0322695


Tree=79
num_leaves=5
num_cat=0
split_feature=3 390 66 224
split_gain=73210.2 100143 145395 92284.7
threshold=211.69999700000002 422.70765650000004 0.13297000000000003 6.1500000000000012
decision_type=2 2 2 2
left_child=1 2 -1 -4
right_child=-2 -3 3 -5
leaf_value=-1.8269682154037443 0.81395506688759323 0.7751120868265835 -0.7471835971519456 0.75668886495072363
leaf_weight=67 89 77 92 78
leaf_count=67 89 77 92 78
internal_value=0 -0.23185 -0.560393 -0.0564627
internal_weight=403 314 237 170
internal_count=403 314 237 170
is_linear=0
shrinkage=0.0322695


Tree=80
num_leaves=5
num_cat=0
split_feature=134 68 377 185
split_gain=72407 88280.2 88269 38860.7
threshold=0.94104950000000009 53.531107000000013 1.0600495000000003 3.7099995000000008
decision_type=2 2 2 2
left_child=-1 2 3 -2
right_child=1 -3 -4 -5
leaf_value=0.91564682485529791 0.60821485664055774 0.64852982516041069 -1.1930846176484748 -0.51144996633263429
leaf_weight=73 64 91 111 64
leaf_count=73 64 91 111 64
internal_value=0 -0.203855 -0.529495 0.0479313
internal_weight=403 330 239 128
internal_count=403 330 239 128
is_linear=0
shrinkage=0.0322695


Tree=81
num_leaves=5
num_cat=0
split_feature=1 28 46 203
split_gain=71469.2 82603.2 100133 52791.7
threshold=0.7959655000000001 40.416395500000007 86065.652344000016 1.1206590000000003
decision_type=2 2 2 2
left_child=1 2 -1 -3
right_child=-2 3 -4 -5
leaf_value=-1.2157560493553199 -0.94131067425900616 0.12516651873618159 0.32454661541108154 1.3455064187989458
leaf_weight=70 69 71 116 77
leaf_count=70 69 71 116 77
internal_value=0 0.195598 -0.256549 0.763257
internal_weight=403 334 186 148
internal_count=403 334 186 148
is_linear=0
shrinkage=0.0322695


Tree=82
num_leaves=4
num_cat=0
split_feature=16 55 108
split_gain=70681.6 79980.9 83951
threshold=0.33827800000000008 0.99670900000000018 -0.037175999999999994
decision_type=2 2 2
left_child=-1 -2 -3
right_child=1 2 -4
leaf_value=0.70860559149764768 0.43086311244956726 0.1500639098302724 -1.2385199800168356
leaf_weight=107 110 77 109
leaf_count=107 110 77 109
internal_value=0 -0.257091 -0.664468
internal_weight=403 296 186
internal_count=403 296 186
is_linear=0
shrinkage=0.0322695


Tree=83
num_leaves=5
num_cat=0
split_feature=146 0 46 226
split_gain=68876 106354 103664 89472.8
threshold=1.0000000180025095e-35 1.0030170000000003 87846.144531000013 -0.011976499999999999
decision_type=2 2 2 2
left_child=1 3 -3 -1
right_child=-2 2 -4 -5
leaf_value=-0.39640546859917353 0.87850952632652879 -1.6454030714712891 0.054452989749254346 1.0421696520969774
leaf_weight=89 75 78 71 90
leaf_count=89 75 78 71 90
internal_value=0 -0.202079 -0.837602 0.327401
internal_weight=403 328 149 179
internal_count=403 328 149 179
is_linear=0
shrinkage=0.0322695


Tree=84
num_leaves=5
num_cat=0
split_feature=298 89 112 221
split_gain=68667.8 79370.4 87969 75901
threshold=73.429996500000016 0.063088000000000019 -0.1430215 0.99185350000000005
decision_type=2 2 2 2
left_child=1 2 -1 -4
right_child=-2 -3 3 -5
leaf_value=-0.91611951075512643 0.81167778740399488 -1.0655546004418661 -0.30640478057897369 1.0699413000415472
leaf_weight=65 85 84 73 96
leaf_count=65 85 84 73 96
internal_value=0 -0.218046 0.087602 0.475856
internal_weight=403 318 234 169
internal_count=403 318 234 169
is_linear=0
shrinkage=0.0322695


Tree=85
num_leaves=5
num_cat=0
split_feature=54 0 28 21
split_gain=66914.9 85213.2 135105 79991.4
threshold=-0.21139449999999996 1.0030170000000003 38.659542000000009 68.500000000000014
decision_type=2 2 2 2
left_child=-1 3 -3 -2
right_child=1 2 -4 -5
leaf_value=0.94365033616194283 -0.53263607837196891 -1.6444980794214472 0.25071730372562701 0.84318174294869797
leaf_weight=65 73 81 75 109
leaf_count=65 73 81 75 109
internal_value=0 -0.182793 -0.735104 0.290938
internal_weight=403 338 156 182
internal_count=403 338 156 182
is_linear=0
shrinkage=0.0322695


Tree=86
num_leaves=4
num_cat=0
split_feature=42 99 140
split_gain=66026.8 104178 91288.5
threshold=-1.0000000180025095e-35 243.50000000000003 0.014191000000000002
decision_type=2 2 2
left_child=1 -1 -2
right_child=2 -3 -4
leaf_value=0.46227310758329965 0.94318598997634262 -1.0721106648374408 -0.40776459940970367
leaf_weight=78 126 111 88
leaf_count=78 126 111 88
internal_value=0 -0.438921 0.387638
internal_weight=403 189 214
internal_count=403 189 214
is_linear=0
shrinkage=0.0322695


Tree=87
num_leaves=6
num_cat=0
split_feature=128 162 16 439 56
split_gain=65405.4 84893.9 89338.9 82553.4 74368.5
threshold=0.73404100000000005 11.500000000000002 0.52348050000000013 17.093444000000002 -0.0017524999999999997
decision_type=2 2 2 2 2
left_child=-1 3 -3 -2 -4
right_child=1 2 4 -5 -6
leaf_value=0.94153454229560007 0.0086105539243383229 1.2254296000708578 0.51890409508648838 -1.5545202534850007 -0.99541779614003179
leaf_weight=64 69 65 68 71 66
leaf_count=64 69 65 68 71 66
internal_value=0 -0.179071 0.248815 -0.786482 -0.227342
internal_weight=403 339 199 140 134
internal_count=403 339 199 140 134
is_linear=0
shrinkage=0.0322695


Tree=88
num_leaves=5
num_cat=0
split_feature=1 49 14 87
split_gain=64778 76296.8 101777 88008.4
threshold=0.7959655000000001 0.024290000000000003 277.30000300000006 -0.014374499999999998
decision_type=2 2 2 2
left_child=1 2 3 -1
right_child=-2 -3 -4 -5
leaf_value=-1.4660325133420191 -0.89614803690648237 0.89927140074489065 0.8945812442633857 0.060245004404693533
leaf_weight=68 69 106 68 92
leaf_count=68 69 106 68 92
internal_value=0 0.186232 -0.146258 -0.59068
internal_weight=403 334 228 160
internal_count=403 334 228 160
is_linear=0
shrinkage=0.0322695


Tree=89
num_leaves=4
num_cat=0
split_feature=35 23 42
split_gain=64648.7 101614 104684
threshold=3.5700000000000003 1.0167365000000002 -1.0000000180025095e-35
decision_type=2 2 2
left_child=1 2 -1
right_child=-2 -3 -4
leaf_value=-0.18201401311710047 -0.79955313777145454 -0.57316462785726885 1.272408496792421
leaf_weight=92 83 112 116
leaf_count=92 83 112 116
internal_value=0 0.208311 0.629911
internal_weight=403 320 208
internal_count=403 320 208
is_linear=0
shrinkage=0.0322695


Tree=90
num_leaves=5
num_cat=0
split_feature=2 68 68 487
split_gain=63948.4 78948.8 93322.3 57594.1
threshold=5.2937700000000012 53.531107000000013 15.186613000000003 -0.027548499999999997
decision_type=2 2 2 2
left_child=1 2 -1 -4
right_child=-2 -3 3 -5
leaf_value=0.2970757293973616 0.92248140807606216 0.64951802476930975 -0.30965222191687181 -1.574011779403053
leaf_weight=99 65 88 72 79
leaf_count=99 65 88 72 79
internal_value=0 -0.17871 -0.471364 -0.974987
internal_weight=403 338 250 151
internal_count=403 338 250 151
is_linear=0
shrinkage=0.0322695


Tree=91
num_leaves=5
num_cat=0
split_feature=3 54 59 456
split_gain=62010.6 77206.7 85894.9 87821.6
threshold=211.69999700000002 -0.12792449999999997 0.28607650000000007 1.0069725000000003
decision_type=2 2 2 2
left_child=1 -1 -3 -4
right_child=-2 2 3 -5
leaf_value=0.64151188877618726 0.7491260434199134 -1.3728597069160005 0.59921306137693264 -0.95216877659749388
leaf_weight=81 89 79 88 66
leaf_count=81 89 79 88 66
internal_value=0 -0.213368 -0.511725 -0.0661347
internal_weight=403 314 233 154
internal_count=403 314 233 154
is_linear=0
shrinkage=0.0322695


Tree=92
num_leaves=6
num_cat=0
split_feature=128 162 16 439 184
split_gain=60495.3 78162.3 80368.2 76713.3 51920.6
threshold=0.73404100000000005 11.500000000000002 0.52348050000000013 17.093444000000002 0.0013180000000000004
decision_type=2 2 2 2 2
left_child=-1 3 -3 -2 -4
right_child=1 2 4 -5 -6
leaf_value=0.9054895244866572 0.011318414133994011 1.164617140022064 -0.81809455389677044 -1.4954454796609016 0.44826916732001582
leaf_weight=64 69 65 70 71 64
leaf_count=64 69 65 70 71 64
internal_value=0 -0.172232 0.238326 -0.75507 -0.213273
internal_weight=403 339 199 140 134
internal_count=403 339 199 140 134
is_linear=0
shrinkage=0.0322695


Tree=93
num_leaves=5
num_cat=0
split_feature=134 34 0 424
split_gain=60362.5 77057.7 80792.8 58305.1
threshold=0.94104950000000009 -0.030205499999999996 1.0040920000000002 0.0049640000000000005
decision_type=2 2 2 2
left_child=-1 -2 3 -3
right_child=1 2 -4 -5
leaf_value=0.83606105395849495 -1.0761431181493544 1.2575061802757692 -0.52891624354509637 -0.081290875051237069
leaf_weight=73 77 71 118 64
leaf_count=73 77 71 118 64
internal_value=0 -0.186097 0.08619 0.624426
internal_weight=403 330 253 135
internal_count=403 330 253 135
is_linear=0
shrinkage=0.0322695


Tree=94
num_leaves=6
num_cat=0
split_feature=18 9 276 49 185
split_gain=59688 80080.7 90994.3 56086.7 55689.8
threshold=0.14107450000000002 17.500000000000004 8.8214280000000027 -0.019143999999999998 3.6200005000000002
decision_type=2 2 2 2 2
left_child=1 2 -1 -4 -5
right_child=-2 -3 3 4 -6
leaf_value=1.1095856171928824 0.83836585739756908 -1.1938790854830734 -1.0244506895180587 0.7541812218909546 -0.56125453060111186
leaf_weight=65 72 65 68 68 65
leaf_count=65 72 65 68 68 65
internal_value=0 -0.183502 0.0650196 -0.27445 0.111001
internal_weight=403 331 266 201 133
internal_count=403 331 266 201 133
is_linear=0
shrinkage=0.0322695


Tree=95
num_leaves=5
num_cat=0
split_feature=146 0 28 42
split_gain=59204.3 86965.1 74938.4 74186.1
threshold=1.0000000180025095e-35 1.0030170000000003 37.152206500000005 -1.0000000180025095e-35
decision_type=2 2 2 2
left_child=1 3 -3 -1
right_child=-2 2 -4 -5
leaf_value=-0.437088331066605 0.81450219660205092 -1.5163448085416888 -0.068576235333139959 0.88012669129329846
leaf_weight=80 75 71 78 99
leaf_count=80 75 71 78 99
internal_value=0 -0.187348 -0.762038 0.291419
internal_weight=403 328 149 179
internal_count=403 328 149 179
is_linear=0
shrinkage=0.0322695


Tree=96
num_leaves=5
num_cat=0
split_feature=2 7 203 7
split_gain=58754 71084.1 96400 68581
threshold=5.2937700000000012 -0.11060799999999998 0.0098965000000000008 0.028057000000000002
decision_type=2 2 2 2
left_child=1 -1 -3 -4
right_child=-2 2 3 -5
leaf_value=-1.0513242805542493 0.88423946250505825 -0.73611768542563805 1.2562799109876031 -0.049960557777800556
leaf_weight=74 65 96 76 92
leaf_count=74 65 96 76 92
internal_value=0 -0.171281 0.0767417 0.542615
internal_weight=403 338 264 168
internal_count=403 338 264 168
is_linear=0
shrinkage=0.0322695


Tree=97
num_leaves=4
num_cat=0
split_feature=35 93 223
split_gain=58458 86158.3 84401.5
threshold=3.5700000000000003 0.020220500000000006 -0.0060389999999999992
decision_type=2 2 2
left_child=1 2 -1
right_child=-2 -3 -4
leaf_value=1.363409816027255 -0.76030504946201738 -0.52643353386810643 0.044831731036409271
leaf_weight=85 83 111 124
leaf_count=85 83 111 124
internal_value=0 0.198089 0.583656
internal_weight=403 320 209
internal_count=403 320 209
is_linear=0
shrinkage=0.0322695


Tree=98
num_leaves=5
num_cat=0
split_feature=54 40 21 310
split_gain=57226.7 71036.4 79623.7 58750.9
threshold=-0.21139449999999996 4.4769890000000006 72.500000000000014 1.6743505000000003
decision_type=2 2 2 2
left_child=-1 -2 3 -3
right_child=1 2 -4 -5
leaf_value=0.87268637985356301 0.69591608282649187 -0.20424277580372197 0.20898013973334481 -1.5064753796330477
leaf_weight=65 76 66 116 80
leaf_count=65 76 66 116 80
internal_value=0 -0.169025 -0.421172 -0.921329
internal_weight=403 338 262 146
internal_count=403 338 262 146
is_linear=0
shrinkage=0.0322695


Tree=99
num_leaves=4
num_cat=0
split_feature=32 91 5
split_gain=56768.6 84956.6 74039.7
threshold=5.9500000000000011 -0.044619999999999993 1.6600965000000001
decision_type=2 2 2
left_child=-1 -2 -3
right_child=1 2 -4
leaf_value=0.70171495692277297 -1.074764206729143 0.68625270754314616 -0.47939838782521227
leaf_weight=92 85 116 110
leaf_count=92 85 116 110
internal_value=0 -0.208501 0.11874
internal_weight=403 311 226
internal_count=403 311 226
is_linear=0
shrinkage=0.0322695


Tree=100
num_leaves=5
num_cat=0
split_feature=69 11 49 13
split_gain=57084.6 85504.8 76480 59748.7
threshold=1.0499680000000002 54.220001500000002 0.024290000000000003 -0.018304999999999998
decision_type=2 2 2 2
left_child=1 2 3 -1
right_child=-2 -3 -4 -5
leaf_value=-0.95394494686650988 0.79978917900640711 -1.0031104952228835 1.0004022671344801 0.29859682734398579
leaf_weight=70 75 94 74 90
leaf_count=70 75 94 74 90
internal_value=0 -0.183963 0.146308 -0.250247
internal_weight=403 328 234 160
internal_count=403 328 234 160
is_linear=0
shrinkage=0.0322695


Tree=101
num_leaves=5
num_cat=0
split_feature=1 68 320 203
split_gain=55761.2 66509.6 70533.6 47753
threshold=0.7959655000000001 57.244610000000009 -0.0017469999999999996 0.91211000000000009
decision_type=2 2 2 2
left_child=1 2 -1 -4
right_child=-2 -3 3 -5
leaf_value=-0.69799428730073054 -0.83142658914136369 1.0012026163615599 -0.24570695949155891 0.91325564466044207
leaf_weight=109 69 77 68 80
leaf_count=109 69 77 68 80
internal_value=0 0.172801 -0.0766682 0.381246
internal_weight=403 334 257 148
internal_count=403 334 257 148
is_linear=0
shrinkage=0.0322695


Tree=102
num_leaves=5
num_cat=0
split_feature=298 89 112 76
split_gain=55939.5 68993.9 70988 63490.6
threshold=73.429996500000016 0.063088000000000019 -0.1430215 9.9026690000000013
decision_type=2 2 2 2
left_child=1 2 -1 -4
right_child=-2 -3 3 -5
leaf_value=-0.81348056682643621 0.73261537700326151 -0.98697048893837747 -0.051636738852875341 1.2334452354544214
leaf_weight=65 85 84 105 64
leaf_count=65 85 84 105 64
internal_value=0 -0.196787 0.0881482 0.436931
internal_weight=403 318 234 169
internal_count=403 318 234 169
is_linear=0
shrinkage=0.0322695


Tree=103
num_leaves=5
num_cat=0
split_feature=22 50 16 75
split_gain=55468.2 75865.7 84547.8 59743.3
threshold=1.0822600000000002 784.60000600000012 0.49702350000000001 8.3549050000000005
decision_type=2 2 2 2
left_child=1 -1 -3 -4
right_child=-2 2 3 -5
leaf_value=0.46497314202943868 0.83644807332601268 0.35550966127749911 -1.6461554939862231 -0.30996752557372442
leaf_weight=123 68 72 72 68
leaf_count=123 68 72 72 68
internal_value=0 -0.170912 -0.54049 -1.00148
internal_weight=403 335 212 140
internal_count=403 335 212 140
is_linear=0
shrinkage=0.0322695


Tree=104
num_leaves=4
num_cat=0
split_feature=32 91 5
split_gain=54538.6 75583.8 67500.3
threshold=5.9500000000000011 -0.044619999999999993 1.6600965000000001
decision_type=2 2 2
left_child=-1 -2 -3
right_child=1 2 -4
leaf_value=0.6877961248712009 -1.0214387433266574 0.64620308146232963 -0.46677793479975155
leaf_weight=92 85 116 110
leaf_count=92 85 116 110
internal_value=0 -0.204363 0.104295
internal_weight=403 311 226
internal_count=403 311 226
is_linear=0
shrinkage=0.0322695


Tree=105
num_leaves=5
num_cat=0
split_feature=218 38 51 130
split_gain=54554.5 75067.8 67027.9 42533.4
threshold=95.850002500000016 3.3101145000000005 1.0278295000000004 2.7330455000000007
decision_type=2 2 2 2
left_child=1 2 3 -1
right_child=-2 -3 -4 -5
leaf_value=0.32693886295114644 0.6429142834515148 -0.91777147310046114 1.0051976833072938 -0.82269091003078199
leaf_weight=65 102 104 64 68
leaf_count=65 102 104 64 68
internal_value=0 -0.218694 0.151454 -0.261171
internal_weight=403 301 197 133
internal_count=403 301 197 133
is_linear=0
shrinkage=0.0322695


Tree=106
num_leaves=5
num_cat=0
split_feature=9 391 49 409
split_gain=54159.1 75275.7 85992.2 47481.9
threshold=17.850000500000004 1439.6650390000002 0.019511500000000005 61.333408000000006
decision_type=2 2 2 2
left_child=1 2 3 -1
right_child=-2 -3 -4 -5
leaf_value=-0.06459390517130463 -0.75462045746273709 0.92394468675229957 0.69646281794380371 -1.2385359469921196
leaf_weight=77 79 99 81 67
leaf_count=77 79 99 81 67
internal_value=0 0.184927 -0.141318 -0.614006
internal_weight=403 324 225 144
internal_count=403 324 225 144
is_linear=0
shrinkage=0.0322695


Tree=107
num_leaves=5
num_cat=0
split_feature=8 69 11 13
split_gain=53042.1 69371.7 78775.2 52800.9
threshold=0.067849500000000021 1.0327115000000002 54.799999500000006 -0.026020499999999998
decision_type=2 2 2 2
left_child=1 2 3 -1
right_child=-2 -3 -4 -5
leaf_value=-0.42881049462846649 -0.77104626719209357 1.1256128783161115 -0.96929657676885117 0.68112510747124422
leaf_weight=69 75 64 71 124
leaf_count=69 75 64 71 124
internal_value=0 0.177234 -0.0542075 0.283782
internal_weight=403 328 264 193
internal_count=403 328 264 193
is_linear=0
shrinkage=0.0322695


Tree=108
num_leaves=5
num_cat=0
split_feature=10 276 62 221
split_gain=53178.6 71927.3 76880.1 75493.1
threshold=17.934997500000005 13.335714500000002 1662.3499755000003 0.99185350000000005
decision_type=2 2 2 2
left_child=-1 2 3 -2
right_child=1 -3 -4 -5
leaf_value=-0.72517508102879513 0.086812718636910771 -0.73810744784178972 -0.42252659565044776 1.4232923814378842
leaf_weight=83 82 68 75 95
leaf_count=83 82 68 75 95
internal_value=0 0.188919 0.440459 0.806782
internal_weight=403 320 252 177
internal_count=403 320 252 177
is_linear=0
shrinkage=0.0322695


Tree=109
num_leaves=5
num_cat=0
split_feature=2 7 203 7
split_gain=52739.7 67218 79317.5 59903.9
threshold=5.2937700000000012 -0.11060799999999998 0.0098965000000000008 0.028057000000000002
decision_type=2 2 2 2
left_child=1 -1 -3 -4
right_child=-2 2 3 -5
leaf_value=-1.0180907030725455 0.83773344523041582 -0.65844681407047634 1.1684540270135713 -0.052281823032287705
leaf_weight=74 65 96 76 92
leaf_count=74 65 96 76 92
internal_value=0 -0.162305 0.0788633 0.501453
internal_weight=403 338 264 168
internal_count=403 338 264 168
is_linear=0
shrinkage=0.0322695


Tree=110
num_leaves=5
num_cat=0
split_feature=35 23 73 41
split_gain=52155.4 82420 79692.5 52615.5
threshold=3.5700000000000003 1.0167365000000002 1.0894475000000001 -0.0070949999999999997
decision_type=2 2 2 2
left_child=1 2 -1 -4
right_child=-2 -3 3 -5
leaf_value=-0.31756004538530463 -0.71817823138393799 -0.51668998521399001 1.661115437139552 0.3969963377287824
leaf_weight=70 83 112 67 71
leaf_count=70 83 112 67 71
internal_value=0 0.187079 0.566798 1.01548
internal_weight=403 320 208 138
internal_count=403 320 208 138
is_linear=0
shrinkage=0.0322695


Tree=111
num_leaves=5
num_cat=0
split_feature=10 451 441 406
split_gain=50869.2 73123.9 74563.1 68793
threshold=17.934997500000005 1106.3447265000002 122.92215750000001 1.1311350000000002
decision_type=2 2 2 2
left_child=-1 2 3 -2
right_child=1 -3 -4 -5
leaf_value=-0.70925039778637089 -0.38795480855348946 1.146180127208182 -0.7091731101023443 1.0112230791543493
leaf_weight=83 64 65 107 84
leaf_count=83 64 65 107 84
internal_value=0 0.184775 -0.0618864 0.406404
internal_weight=403 320 255 148
internal_count=403 320 255 148
is_linear=0
shrinkage=0.0322695


Tree=112
num_leaves=4
num_cat=0
split_feature=48 63 418
split_gain=50473 98802.6 56508.7
threshold=2.8557975000000004 0.5234810000000002 4.6523180000000011
decision_type=2 2 2
left_child=-1 -2 -3
right_child=1 2 -4
leaf_value=-0.62256095201276052 1.0295490249678547 -0.82177609444953581 0.2670814385390074
leaf_weight=101 101 87 114
leaf_count=101 101 87 114
internal_value=0 0.208883 -0.204747
internal_weight=403 302 201
internal_count=403 302 201
is_linear=0
shrinkage=0.0322695


Tree=113
num_leaves=5
num_cat=0
split_feature=156 449 71 165
split_gain=50725.3 77820.4 76967.5 63762.3
threshold=-0.41734049999999995 119.18999850000002 1.1061290000000001 55.350000500000007
decision_type=2 2 2 2
left_child=-1 2 -2 -3
right_child=1 3 -4 -5
leaf_value=-0.72467546403899652 0.24616161302837691 1.4963146021329845 -1.1249794461677147 0.11896079981395535
leaf_weight=80 115 64 67 77
leaf_count=80 115 64 67 77
internal_value=0 0.180333 -0.259994 0.748104
internal_weight=403 323 182 141
internal_count=403 323 182 141
is_linear=0
shrinkage=0.0322695


Tree=114
num_leaves=5
num_cat=0
split_feature=9 156 206 221
split_gain=50584.9 65561.7 92044.4 58133.5
threshold=17.850000500000004 -0.41734049999999995 14.548414000000003 0.99185350000000005
decision_type=2 2 2 2
left_child=1 -1 3 -3
right_child=-2 2 -4 -5
leaf_value=-0.71608929104921815 -0.7293208885787168 -0.60076695075929309 1.4163646835251404 0.54001155120704136
leaf_weight=67 79 82 69 106
leaf_count=67 79 82 69 106
internal_value=0 0.178694 0.413318 0.0416909
internal_weight=403 324 257 188
internal_count=403 324 257 188
is_linear=0
shrinkage=0.0322695


Tree=115
num_leaves=5
num_cat=0
split_feature=456 49 13 29
split_gain=49606.5 62443.5 78803 50799.2
threshold=1.0177375000000002 0.03901050000000001 -0.039625999999999995 7.1283345000000011
decision_type=2 2 2 2
left_child=1 2 -1 -4
right_child=-2 -3 3 -5
leaf_value=-0.86285327588335103 -0.72794424040409922 1.0410051384194967 -0.24932403716079504 0.85539000592719483
leaf_weight=84 78 68 81 92
leaf_count=84 78 68 81 92
internal_value=0 0.175562 -0.0548228 0.338511
internal_weight=403 325 257 173
internal_count=403 325 257 173
is_linear=0
shrinkage=0.0322695


Tree=116
num_leaves=5
num_cat=0
split_feature=1 28 13 79
split_gain=48937.9 57640.4 68345.6 49861.5
threshold=0.7959655000000001 40.416395500000007 -0.024830499999999995 0.11635350000000001
decision_type=2 2 2 2
left_child=1 2 -1 -3
right_child=-2 3 -4 -5
leaf_value=-0.9733761244864384 -0.77892932005214388 -0.0060946973266365716 0.28630924907348532 1.1792910921769404
leaf_weight=74 69 68 112 80
leaf_count=74 69 68 112 80
internal_value=0 0.161852 -0.215787 0.636068
internal_weight=403 334 186 148
internal_count=403 334 186 148
is_linear=0
shrinkage=0.0322695


Tree=117
num_leaves=6
num_cat=0
split_feature=18 9 276 12 176
split_gain=47866.5 63191.8 75894.2 47284.3 50700.5
threshold=0.14107450000000002 17.500000000000004 8.8214280000000027 0.37561950000000005 1251.1166380000002
decision_type=2 2 2 2 2
left_child=1 2 -1 -4 -5
right_child=-2 -3 3 4 -6
leaf_value=1.0103647489792535 0.75073053628853925 -1.0619034953775146 -0.90586758161539016 -0.5193127950087828 0.75955249776864697
leaf_weight=65 72 65 73 64 64
leaf_count=65 72 65 73 64 64
internal_value=0 -0.164366 0.0563681 -0.253623 0.119974
internal_weight=403 331 266 201 128
internal_count=403 331 266 201 128
is_linear=0
shrinkage=0.0322695


Tree=118
num_leaves=5
num_cat=0
split_feature=22 50 16 75
split_gain=47207.9 64883.5 72106.3 52233.6
threshold=1.0822600000000002 784.60000600000012 0.49702350000000001 8.3549050000000005
decision_type=2 2 2 2
left_child=1 -1 -3 -4
right_child=-2 2 3 -5
leaf_value=0.43031542499658765 0.77161242759777382 0.32787327387712606 -1.5280360428598905 -0.27867969328142983
leaf_weight=123 68 72 72 68
leaf_count=123 68 72 72 68
internal_value=0 -0.157718 -0.499516 -0.925251
internal_weight=403 335 212 140
internal_count=403 335 212 140
is_linear=0
shrinkage=0.0322695


Tree=119
num_leaves=4
num_cat=0
split_feature=83 93 42
split_gain=47402.6 70235.2 80601.9
threshold=3.5700000000000003 0.018736000000000006 -1.0000000180025095e-35
decision_type=2 2 2
left_child=1 2 -1
right_child=-2 -3 -4
leaf_value=-0.17583950365616902 -0.6846721688644497 -0.46250370308632754 1.1051474872951224
leaf_weight=92 83 114 114
leaf_count=92 83 114 114
internal_value=0 0.178353 0.533696
internal_weight=403 320 206
internal_count=403 320 206
is_linear=0
shrinkage=0.0322695


Tree=120
num_leaves=4
num_cat=0
split_feature=3 406 131
split_gain=46453.8 61108.8 66784.8
threshold=208.70000450000003 1.0517905000000003 485.47616550000004
decision_type=2 2 2
left_child=1 -1 -3
right_child=-2 2 -4
leaf_value=-0.75068983797277411 0.60912844242749808 0.90552092703923615 -0.34385727935309285
leaf_weight=123 98 76 106
leaf_count=123 98 76 106
internal_value=0 -0.19659 0.178548
internal_weight=403 305 182
internal_count=403 305 182
is_linear=0
shrinkage=0.0322695


Tree=121
num_leaves=5
num_cat=0
split_feature=2 7 61 221
split_gain=46881.4 61237.5 74472.1 66311.4
threshold=5.2937700000000012 -0.11060799999999998 1.4154765000000002 0.99366350000000014
decision_type=2 2 2 2
left_child=1 -1 3 -3
right_child=-2 2 -4 -5
leaf_value=-0.9698511307062917 0.78984626150515302 -0.19676895855125556 -0.58762445962593213 1.1216392239074513
leaf_weight=74 65 73 105 86
leaf_count=74 65 73 105 86
internal_value=0 -0.153016 0.0771575 0.517203
internal_weight=403 338 264 159
internal_count=403 338 264 159
is_linear=0
shrinkage=0.0322695


Tree=122
num_leaves=5
num_cat=0
split_feature=456 40 89 13
split_gain=45449.7 56386 61601.3 56402.7
threshold=1.0177375000000002 4.4769890000000006 0.063088000000000019 -0.026020499999999998
decision_type=2 2 2 2
left_child=1 -1 3 -3
right_child=-2 2 -4 -5
leaf_value=0.97552861626026 -0.69679574652501375 -0.45383541832084906 -0.87476283202444405 0.69601402746786067
leaf_weight=70 78 72 69 114
leaf_count=70 78 72 69 114
internal_value=0 0.168028 -0.0549215 0.250433
internal_weight=403 325 255 186
internal_count=403 325 255 186
is_linear=0
shrinkage=0.0322695


Tree=123
num_leaves=5
num_cat=0
split_feature=32 91 175 12
split_gain=44974.4 65792.9 51976.5 50491.8
threshold=7.1500000000000012 -0.044619999999999993 0.93864150000000013 0.41292200000000007
decision_type=2 2 2 2
left_child=-1 -2 -3 -4
right_child=1 2 3 -5
leaf_value=0.6075091088517004 -0.97668856056181996 -0.68236902036571723 -0.26789567648528106 0.88260154333825303
leaf_weight=96 81 64 68 94
leaf_count=96 81 64 68 94
internal_value=0 -0.190836 0.092123 0.39988
internal_weight=403 307 226 162
internal_count=403 307 226 162
is_linear=0
shrinkage=0.0322695


Tree=124
num_leaves=4
num_cat=0
split_feature=69 6 61
split_gain=44864.5 65385.5 66124.1
