tree
version=v4
num_class=1
num_tree_per_iteration=1
label_index=0
max_feature_idx=227
objective=regression
feature_names=ID01205035_lag_14 ID00186318_diff_1 ID01204813_MA7 ID01205346_STD14 ID01204815_wow_14 ID00186576_lag_7 ID00186138_wow_14 ID01205336_Spread_30d ID01529896_lag_30 RE00034182_lag_1 ID01205062_mom_90 ID01204815_MA7_MA30 ID01205020_diff_7 ID01205075_MA5 ID00274662_Vol14 ID01205343_STD7 ID01205061_lag_14 ID01155775_STD14 ID01204828_diff_7 ID00186111_diff_1 ID01205069_diff_7 ID01204016_lag_1 ID00186572_lag_1 IO_SHIP_VOL_GLOB_016_MA5 ID01205346_P10_30d S0029670_lag_30 ID01562396_Ratio_MA30 ID00186581_lag_30 ID00186112_lag_1 ID01204805_STD14 ID00186112_lag_7 RE00024786_Price_MA5 RE00034182_lag_7 ID01529975_lag_1 ID01205370_Ratio_MA7 ID02017485_diff_1 ID01205057_Ratio_MA30 ID01205049_STD7 ID01205042_MA60 ID01517134_diff_1 ID00186112_lag_2 ID01205064_lag_14 ID00186565_STD14 ID00183114_Spread_30d ID02017483_STD7 ID02017513_lag_7 IO_SHIP_VOL_GLOB_016_MOM20 ID00186114_MOM20 RE00034153_MOM10 ID01205049_lag_1 ID01155776_lag_30 ID01204812_diff_1 ID01205049_MOM10 ID00186130_lag_7 ID01204634_Ratio_MA7 ID01517032_STD7 ID01204817_diff_1 ID01204812_wow_14 ID01205370_MOM20 ID01562396_STD7 ID01204815_diff_1 ID00186103_STD7 ID01204813_STD7 ID01516098_diff_1 ID00183114_STD7 ID01205064_STD30 ID01602693_lag_7 ID00185760_lag_1 ID01204828_P90_90d ID00186099_STD14 ID00186001_lag_1 ID00186116_STD7 ID00186052_wow_14 S0029668_lag_30 ID00186318_MA7_MA30 0d3672c8-272f-4c2a-bedf-fe3d44b8a214_lag_1 ID00186117_Ratio_MA30 ID01205035_MA30 ID01205042_STD30 ID00414945_STD7 ID01205049_MA3 ID01205052_MOM5 ID01205055_MA5 ID01205064_Spread_90d ID01205069_MOM5 ID01204813_lag_2 ID01205076_STD7 ID01205336_Spread_60d ID01205346_Spread_30d ID01204815_lag_1 ID01205346_MOM10 ID01205370_MOM5 ID01205387_MOM10 ID02017530_lag_30 ID01602638_P90_30d ID02017530_diff_7 RE00034097_STD14 ID00186117_yoy_365 ID01135139_wow_14 ID01203829_mom_30 ID02017574_wow_14 ID01204828_lag_14 ID00185861_STD14 G0002323_Spread_60d ID01204008_lag_30 ID00186111_pct_7 RE00034153_lag_3 ID00186132_STD14 ID01529897_lag_1 ID01529897_lag_7 ID00313197_lag_7 ID01205344_diff_1 ID00186052_MA7_MA30 ID02017513_lag_1 ID01529909_lag_1 ID02017513_diff_1 ID02017513_diff_7 ID00313190_lag_30 ID01529975_lag_7 ID01205076_diff_7 ID00186117_MOM10 ID01516081_lag_1 ID00186318_pct_1 target_lag_14 ID01204815_MA7 ID00186053_lag_1 ID00186579_lag_1 ID01203829_pct_1 ID00185986_lag_1 ID00185996_lag_7 ID00414945_STD60 S0063588_lag_7 ID01205055_diff_1 ID00186103_MA7_MA30 ID01204812_pct_1 ID01204817_pct_1 ID00186318_Ratio_MA7 ID01205055_STD7 ID01204815_Ratio_MA7 ID01205063_Ratio_MA30 ID01205064_STD7 ID01205023_STD7 ID01205029_STD7 ID01205064_Ratio_MA30 ID01205069_Ratio_MA7 ID01205029_P90_30d ID01205073_P90_60d ID00183109_lag_3 ID01205075_STD14 ID00186103_diff_7 ID01205076_MOM5 ID01205336_STD30 ID00183109_lag_1 ID01205035_P10_30d ID00186111_Ratio_MA7 ID01205346_MA60 ID01602667_lag_7 ID01602667_lag_1 ID01205042_MA5 ID01205346_Ratio_MA30 ID01516155_lag_1 ID01205370_MA30 ID01204815_P90_90d ID00186597_lag_1 ID02017521_diff_1 ID01205042_P90_60d ID01516886_STD14 ID00186576_lag_30 ID01517108_Spread_60d ID01517108_Spread_90d ID01517134_STD7 RE00034153_pct_1 ID01562396_STD14 RE00035620_lag_7 ID01562398_MOM10 ID01205043_STD14 ID01602638_Spread_30d ID01602675_MA14 ID00186132_STD7 ID02017483_MOM10 ID02017485_STD7 ID02017488_STD7 ID02017488_MOM10 ID02017501_MOM20 ID02017503_STD7 ID02017574_MOM10 ID02017594_STD30 ID02017594_Spread_60d IO_SHIP_RATE_BRA_CN_029_Ratio_MA7 ID00186580_lag_1 ID00414945_Spread_60d M0017126_STD30 ID01205048_STD60 ID02017551_diff_1 biz_ore_daily_return ID02017551_lag_30 ID01037437_RSI7 ID01037437_Price_MA40 ID01562398_pct_1 ID01204815_MA14 ID00185931_wow_14 ID00186100_mom_90 ID00186103_wow_14 ID00186114_wow_14 S5700062_lag_30 ID00186138_yoy_365 ID00185997_lag_7 ID00186491_yoy_365 ID01205023_Spread_60d ID01155775_mom_30 ID01155775_mom_90 ID01205049_Ratio_MA30 ID00186114_MA90 ID01517032_diff_1 ID01205042_mom_30 ID01205055_mom_30 ID01205055_wow_7 ID01205062_mom_30 ID01517134_pct_1 ID01205343_mom_90 ID01205344_mom_30 ID01205387_mom_90 ID01205387_wow_14 ID01516175_mom_30 ID01516886_wow_7 ID01517032_wow_7 ID01205061_diff_7 RE00034153_yoy_365
feature_infos=[0:46.299999] [-37.049999:37.189999] [0:90.400002000000001] [2.1613609999999999:60.892364999999998] [-1:13.25] [100.300003:510.5] [-0.28571400000000002:0.41666700000000001] [16.099997999999999:125.099998] [0.02:1.6200000000000001] [133.800003:454] [-1:8.3333329999999997] [0:2.8945150000000002] [-16.5:16.299999] [0:8.5999999999999996] [0.0053439999999999998:0.041214000000000001] [0:29.027671999999999] [0:163.800003] [1.424607:130.66815199999999] [-194.10000600000001:156.800003] [-3.2000000000000002:3.2000000000000002] [-23.799999:22.799999] [0:111.900002] [4:22] [107.61129800000001:608.910706] [51.200001:154.5] [10394.664062:101411.9375] [0.49535099999999999:1.585726] [60.599997999999999:329.10000600000001] [10:21] [0.099724999999999994:20.456295000000001] [10:21] [-13.181818:64.896904000000006] [138.89999399999999:454] [64.150002000000001:94.540001000000004] [0.53362100000000001:1.753223] [-9.6300000000000008:10.15] [0:11.532258000000001] [0:16.857216000000001] [5.7400000000000002:32.361668000000002] [-74.019997000000004:75.190002000000007] [10:21] [0:171.5] [1.8236540000000001:105.908844] [0.159996:6.4099959999999996] [0:71.605369999999994] [74.569999999999993:108.260002] [-0.796099:1.1614260000000001] [-0.472333:1.226415] [-0.68799999999999994:2.1428569999999998] [0:96.300003000000004] [156.5:466.89999399999999] [-31:31.299999] [-1:10.151515] none [0:7] [0:10.976089] [-83.099997999999999:81.5] [-1:42.666668000000001] [-0.51025500000000001:1.5911949999999999] [0:27.667000000000002] [-121.599998:121.900002] [0:2.4945650000000001] [0:19.691949999999999] [-20.18:25.329999999999998] [0:0.83908099999999997] [11.296449000000001:50.235087999999998] [0:139.64999399999999] [85.199996999999996:465.10000600000001] [38.5:156.800003] [0:34.914436000000002] [15:39] [0:0.94491099999999995] [-0.046890000000000001:0.056651] [666901.625:975386.5] [0.910381:1.1415249999999999] [-467:269] [0.65349199999999996:1.293598] [3.1333329999999999:21.989286] [2.0512649999999999:16.644817] [0:63.687016] [1.266667:96.300003000000004] [-1:3.6341459999999999] [0:40.799999] [44.099997999999999:105.200005] [-1:10.777778] [0:90.400002000000001] [0:17.23518] [43.799999:107.699997] [11.099997999999999:116.599991] [0:253.60000600000001] [-0.48737999999999998:1.1699219999999999] [-0.50486600000000004:1.0049140000000001] [-0.50756500000000004:1.0468280000000001] [19.360001:32.009998000000003] [70.679001:112.87799800000001] [-6.2800000000000002:5.7999999999999998] [0.051887000000000003:8.430142] [-0.43308799999999997:0.75922299999999998] [-0.058631999999999997:0.055121999999999997] [-0.61472599999999999:1.168534] [-0.41666700000000001:0.55113100000000004] [0:230] [0:115.14083100000001] [0:3.5] [0:24.5] [-0.45000000000000001:2.035714] [3.8999999999999999:31.700001] [0.051887000000000003:4.0856219999999999] [0.40999999999999998:6.2000000000000002] [0.40999999999999998:6.2000000000000002] [2145:2659] [-57.400002000000001:61.5] [0.95936399999999999:1.03569] [74.279999000000004:108.260002] [0:1.8100000000000001] [-8.3900000000000006:9.4900000000000002] [-23:12.56] [78388:98227] [64.150002000000001:94.540001000000004] [-79.5:74.699996999999996] [-0.35372999999999999:0.90012999999999999] [1.21:99.589995999999999] [-0.079038999999999998:0.090582999999999997] [408.01999999999998:803.20000000000005] [0:253.60000600000001] [150:473] [43.099997999999999:431.60000600000001] [-0.49894100000000002:1.0665210000000001] [93.699996999999996:384.27999899999998] [2.4100000000000001:5.7199999999999998] [50.959739999999996:397.54083300000002] [101.31999999999999:132.08999600000001] [-29.100000000000001:29.100000000000001] [0.640648:1.326716] [-1:34.777779000000002] [-1:4.9793820000000002] [0.93147899999999995:1.076651] [0:10.998766] [0:7] [0:30] [0:29.632414000000001] [0:13.531128000000001] [0:4.3465910000000001] [0:7.7774590000000003] [0:7] [0:17.5] [31:82.5] [67.870002999999997:84.739998] [0.051354999999999998:4.4912029999999996] [-8.9399999999999995:10.23] [-1:12.708333] [10.005333:46.227791000000003] [67.870002999999997:84.739998] [0:16.100000000000001] [0.83591599999999999:1.2024539999999999] [92.669494999999998:173.85862700000001] [0:84.629997000000003] [0:91.099997999999999] [0:46.200001] [0.54819600000000002:1.5425869999999999] [4.0700000000000003:95.129997000000003] [106.823334:176.15171799999999] [60.599997999999999:213.39999399999999] [12.800000000000001:130.199997] [-9.6300000000000008:10.15] [17.100000000000001:44.040000999999997] [0:12.021435] [89.400002000000001:510.5] [12.27:83.650002000000001] [8.9199979999999996:75.779999000000004] [0:28.419149000000001] [-0.57391300000000001:1.268041] [1.297186:59.033378999999996] [130.800003:375.20001200000002] [-0.868641:2.7418650000000002] [0:1.6054850000000001] [31.73:92.476996999999997] [35.137855999999999:83.045715000000001] [0:1.5118579999999999] [-0.124138:0.080553] [0:3.8363390000000002] [0:26.249631999999998] [-0.115698:0.158553] [-0.18174999999999999:0.23520199999999999] [0:6.6937509999999998] [-0.20510600000000001:0.55113100000000004] [0.33113100000000001:2.4749240000000001] [1.9400010000000001:7.0600009999999997] [0.61736100000000005:1.207989] [47.700001:364.79998799999998] [122.79980500000001:1127.800293] [0:1.5538130000000001] [2.3568769999999999:7.0348920000000001] [-16.870000999999998:17.709999] [-0.069205000000000003:0.062797000000000006] [55.799999:109.779999] [9.1982940000000006:91.264747999999997] [-836.36364700000001:125.103668] [-0.84710600000000003:4.370933] [11.807143:179.97143600000001] [-0.054203000000000001:0.101956] [-0.158694:0.29618100000000003] [-0.484848:0.59999999999999998] [-0.43333300000000002:1.48421] [88.680000000000007:160.070007] [-0.34615400000000002:0.56000000000000005] [4.9800000000000004:19.950001] [-0.195185:0.50126300000000001] [9.9000000000000004:65.239998] [-0.34252700000000003:0.63097700000000001] [-0.42667300000000002:0.38426700000000003] [0:3.4972829999999999] [21.440000999999999:33.870224] [-23.059999000000001:29.040001] [-1:3.4352939999999998] [-1:3.53125] [-1:7.4857139999999998] [-1:10.897436000000001] [-0.20321:0.25317899999999999] [-0.68746399999999996:1.8815170000000001] [-0.62084799999999996:2.0211480000000002] [-0.51327400000000001:1.1958009999999999] [-0.41988799999999998:0.98058699999999999] [-0.74322100000000002:3.906739] [-1:530.33331299999998] [-0.91976000000000002:17.429293000000001] [-132.5:111.599998] [-0.83529399999999998:3.4489800000000002]
tree_sizes=316 324 326 325 325 325 325 326 326 324 325 328 329 326 324 329 328 329 315 327 331 327 327 317 326 327 327 326 331 326 327 326 328 328 328 331 317 327 326 329 328 327 327 326 323 328 326 327 326 328 328 317 328 329 329 327 331 317 327 328 332 327 318 326 327 328 327 317 330 318 327 328 331 326 327 332 326 328 327 328 327 326 318 328 328 328 326 327 327 327 328 326 331 325 331 328 327 327 328 326 329 327 327 325 329 328 328 331 327 326 330 327 329 328 323 326 319 328 320 329 328 328 328 329 323 318 327 317 331 328 322 330 322 319 331 329 331 330 328 318 326 327 330 330 327 328 332 328 332 329 328 329 327 327 329 329 329 328 328 328 327 321 318 316 322 331 316 318 318 319 323 323 319 321 329 328 326 328 327 327 328 326 328 327 329 327 333 329 328 330 322 321 327 329 332 332 328 318 327 329 328 328 328 318 330 328 318 330 319 328 321 320 332 328 331 327 328 328 329 326 330 327 327 331 333 322 318 322 330 317 330 331 318 329 319 331 331 333 320 320 328 320 319 320 329 334 320 327 320 320 330 324 328 330 328 330 332 320 329 318 333 324 323 321 318 330 319 334 335 332 320 330 331 319 331 320 323 320 329 322 322 320 318 329 321 321 329 332 332 331 329 329 333 329 321 331 332 321 324 321 323 325 318 320 329 332 331 321 320 324 320 319 320 320 320 320 320 321 331 332 321 320 322 322 324 335 319 331 325 321 331 317 323 330 333 329 324 320 319 323 323 324 325 319 320 321 321 322 329 325 323 321 321 323 308 322 320 320 321 334 332 325 321 322 320 323 319 329 330 331 329 331 332 330 330 322 325 321 320 321 321 319 323 324 323 323 320 323 319 321 319 321 321 320 325 321 320 322 320 321 324 322 320 334 331 320 320 322 332 334 321 323 321 320 322 330 334 324 323 320 320 320 335 320 321 329 330 331 330 324 328 329 320 321 320 322 319 320 323 323 324 316 323 320 323 319 323 320 321 321 321 322 320 322 322 325 321 324 320 323 321 319 321 321 321 321 319 321 319 322 319 321 321 321 321 320 323 325 319 321 320 320 321 320 319 329 320 319 322 321 320 322 321 331 322 319 331 322 320 321 321 321 320 321 332 331 332 320 329 320 320 321 323 319 321 319 331 319 320 321 321 322 320 320 321 318 322 322 320 324 321 321 321 325 320 321 321 321 325 319 321 332 321 320 323 321 323 319 321 322 332 324 324 320 320 322 319 324 321 331 331 330 330 328 325 321 322 321 321 321 322 321 320 320 324 320 321 321 321 320 321 320 319 320 321 321 319 318 324 320 320 320 323 323 320 321 319 324 323 331 320 320 320 322 319 321 320 321 320 320 323 316 321 323 319 321 320 321 323 321 323 320 321 320 321 321 321 322 323 321 321 321 318 320 322 321 320 320 324 323 320 325 321 323 320 319 322 320 320 321 321 319 322 322 321 320 323 321 322 320 320 319 319 321 325 321 322 324 319 319 322 320 320 321 320 323 319 318 320 320 321 324 319 321 320 323 320 324 320 322 324 319 320 321 320 320 319 321 320 322 321 322 319 322 321 322 323 320 322 321 321 322 320 319 319 320 319 319 322 320 321 321 321 325 322 320 324 321 321 321 320 320 321 321 322 319 322 320 317 323 321 319 321 322 320 320 321 321 323 321 319 320 322 320 320 323 319 321 322 324 321 320 323 319 321 320 323 320 321 320 318 320 320 321 321 319 319 321 323 320 320 321 320 319 321 320 321 322 320 320 321 321 322 318 321 321 321 325 320 322 321 319 320 323 324 321 320 322 319 319 320 320 322 320 323 323 325 319 321 322 321 325 321 321 319 322 321 321 320 320 319 320 323 322 318 321 321 320 321 322 321 320 318 321 319 320 320 321 323 323 320 321 320 323 320 321 322 321 320 324 322 323 320 320 321 320 320 320 324 319 319 321 323 320 322 320 324 321 319 321 320 320 322 318 319 321 320 319 320 320 321 323 319 321 321 322 320 321 319 320 321 321 323 321 322 319 320 321 321 321 324 317 321 319 321 321 319 321 321 319 325 325 320 313 319 321 319 321 322 320 320 323 320 320 322 322 320 320 321 321 320 324 319 320 323 320 321 321 323 321 320 321 320 320 318 321 321 320 323 321 323 319 318 319 320 321 322 323 320 319 312 318 319 322 322 322 322 319 321 323 319 321 320 321 320 321 320 320 320 320 319 321 324 316 320 323 323 318 323 321 324 322 322 322 322 322 324 322 321 320 324 314 321 324 322 321 325 321 324 321 322 323 318 321 321 324 321 320 325 323 322 323 321 321 323 322 322 322 325 324 322 323 321 322 323 321 322 321 322 322 323 314 322 322 321 321 321 321 319 321 324 320 321 322 321 321 320 322 325 321 325 322 323 322 320 321 324 324 323 321 321 321 322 322 324 324 322 324 314 321 321 320 321 321 321 322 323 321 322 319 323 320 323 321 320 320 321 322 324 323 320 321 322 322 322 321 324 320 322 322 324 322 322 313 326 321 325 322 321 324 323 322 321 325 324 321 321 321 322 322 323 319 321 322 321 321 321 321 322 321 320 322 323 322 320 322 326 321 325 322 322 324 322 323 322 325 326 323 321 322 323 323 322 322 320 326 321 322 324 323 323 321 324 325 322 322 323 323 323 323 321 323 322 321 322 323 323 322 325 327 325 323 325 321 323 324 315 324 322 324 321 325 323 323 325 326 322 321 322 322 323 323 322 322 324 326 322 323 322 321 325 314 326 322 322 322 328 321 321 323 321 322 324 323 323 323 323 325 324 324 324 322 325 323 322 323 322 325 323 322 324 325 322 323 322 325 326 323 323 323 323 323 322 324 324 323 322 325 325 323 321 327 326 321 323 322 322 322 327 323 322 323 323 316 325 326 322 323 322 322 325 323 323 322 326 322 325 322 323 323 325 323 323 322 323 323 323 323 326 323 326 328 324 321 324 324 324 323 323 321 325 322 326 326 322 315 322 323 322 324 324 326 322 325 323 324 321 322 322 324 326 328 324 323 323 323 324 324 327 324 321 321 326 324 325 323 324 321 323 324 323 324 322 324 322 323 323 326 323 326 323 323 324 324 322 325 324 324 325 327 323 323 325 325 323 324 322 324 326 322 324 327 323 323 323 325 323 324 324 323 324 324 324 324 322 325 327 321 323 326 324 324 322 321 324 324 324 323 316 323 326 326 325 324 324 324 326 324 325 325 327 324 324 324 328 324 324 328 324 326 323 324 327 324 327 325 315 322 326 326 324 324 324 321 324 324 324 322 324 325 324 325 324 326 325 322 324 324 322 323 322 324 324 325 323 325 328 322 323 321 325 325 324 321 323 323 326 324 327 328 328 324 315 325 324 323 322 323 324 325 324 324 325 327 324 324 324 323 323 322 323 325 324 326 322 326 324 323 323 323 325 325 327 327 326 324 323 321 323 325 325 328 325 327 324 325 323 324 316 326 328 329 324 324 325 324 325 325 323 327 316 324 324 322 327 328 324 324 324 324 324 325 326 326 327 324 324 324 324 322 324 323 325 328 325 325 324 324 325 324 329 325 327 325 325 325 323 328 324 325 322 327 327 328 325 323 326 324 325 326 325 327 326 326 325 326 324 325 324 326 325 324 325 324 325 325 325 323 325 324 329 317 325 327 328 325 325 323 325 327 327 325 328 325 324 326 324 324 323 325 326 327 326 326 325 325 325 328 324 324 323 323 324 324 328 323 326 323 326 325 324 323 327 325 324 324 325 317 327 325 327 316 325 325 324 327 325 328 327 322 324 323 326 324 324 328 324 325 325 324 328 329 324 324 326 324 326 325 324 316

Tree=0
num_leaves=2
num_cat=0
split_feature=33
split_gain=7279.62
threshold=87.899997500000012
decision_type=2
left_child=-1
right_child=-2
leaf_value=-0.28059747833492876 -2.5240107071204667
leaf_weight=71 76
leaf_count=71 76
internal_value=-1.43986
internal_weight=147
internal_count=147
is_linear=0
shrinkage=1


Tree=1
num_leaves=2
num_cat=0
split_feature=73
split_gain=5780.51
threshold=817138.06250000012
decision_type=2
left_child=-1
right_child=-2
leaf_value=-0.94040219148787307 1.0612330255603566
leaf_weight=78 69
leaf_count=78 69
internal_value=5.7717e-05
internal_weight=147
internal_count=147
is_linear=0
shrinkage=0.160562


Tree=2
num_leaves=2
num_cat=0
split_feature=147
split_gain=4346.77
threshold=81.560001500000013
decision_type=2
left_child=-1
right_child=-2
leaf_value=0.73181135602013325 -1.0255800647103261
leaf_weight=86 61
leaf_count=86 61
internal_value=0.000194527
internal_weight=147
internal_count=147
is_linear=0
shrinkage=0.160562


Tree=3
num_leaves=2
num_cat=0
split_feature=24
split_gain=4727.27
threshold=94.899997500000012
decision_type=2
left_child=-1
right_child=-2
leaf_value=1.054983351519599 -0.77366606741268706
leaf_weight=62 85
leaf_count=62 85
internal_value=-0.000138596
internal_weight=147
internal_count=147
is_linear=0
shrinkage=0.160562


Tree=4
num_leaves=2
num_cat=0
split_feature=73
split_gain=3615.3
threshold=817138.06250000012
decision_type=2
left_child=-1
right_child=-2
leaf_value=-0.74357758335005253 0.83939737576996198
leaf_weight=78 69
leaf_count=78 69
internal_value=0.000169878
internal_weight=147
internal_count=147
is_linear=0
shrinkage=0.160562


Tree=5
num_leaves=2
num_cat=0
split_feature=0
split_gain=2851.91
threshold=10.950000000000001
decision_type=2
left_child=-1
right_child=-2
leaf_value=-0.60877449662415828 0.80870607131863659
leaf_weight=84 63
leaf_count=84 63
internal_value=0.000257265
internal_weight=147
internal_count=147
is_linear=0
shrinkage=0.160562


Tree=6
num_leaves=2
num_cat=0
split_feature=24
split_gain=3159.07
threshold=94.899997500000012
decision_type=2
left_child=-1
right_child=-2
leaf_value=0.86305875392113551 -0.6318152970749048
leaf_weight=62 85
leaf_count=62 85
internal_value=0.000461608
internal_weight=147
internal_count=147
is_linear=0
shrinkage=0.160562


Tree=7
num_leaves=2
num_cat=0
split_feature=106
split_gain=2878.6
threshold=12.300000000000002
decision_type=2
left_child=-1
right_child=-2
leaf_value=0.58788377925777091 -0.84569040474511414
leaf_weight=87 60
leaf_count=87 60
internal_value=0.000672583
internal_weight=147
internal_count=147
is_linear=0
shrinkage=0.160562


Tree=8
num_leaves=2
num_cat=0
split_feature=11
split_gain=2563.8
threshold=0.84703750000000011
decision_type=2
left_child=-1
right_child=-2
leaf_value=0.77732847654352111 -0.56936092796390125
leaf_weight=62 85
leaf_count=62 85
internal_value=0.000234269
internal_weight=147
internal_count=147
is_linear=0
shrinkage=0.160562


Tree=9
num_leaves=2
num_cat=0
split_feature=7
split_gain=2476.3
threshold=50.500004000000004
decision_type=2
left_child=-1
right_child=-2
leaf_value=-0.69404371034960122 0.61605217360987363
leaf_weight=69 78
leaf_count=69 78
internal_value=0.000452434
internal_weight=147
internal_count=147
is_linear=0
shrinkage=0.160562


Tree=10
num_leaves=2
num_cat=0
split_feature=9
split_gain=2315.66
threshold=316.75000000000006
decision_type=2
left_child=-1
right_child=-2
leaf_value=0.54913534386502261 -0.7281459721109409
leaf_weight=84 63
leaf_count=84 63
internal_value=0.000275736
internal_weight=147
internal_count=147
is_linear=0
shrinkage=0.160562


Tree=11
num_leaves=2
num_cat=0
split_feature=147
split_gain=2130.21
threshold=81.560001500000013
decision_type=2
left_child=-1
right_child=-2
leaf_value=0.51217905329041291 -0.71807893871535222
leaf_weight=86 61
leaf_count=86 61
internal_value=2.79374e-07
internal_weight=147
internal_count=147
is_linear=0
shrinkage=0.160562


Tree=12
num_leaves=2
num_cat=0
split_feature=106
split_gain=1939.12
threshold=12.300000000000002
decision_type=2
left_child=-1
right_child=-2
leaf_value=0.48170238486056677 -0.69490525755246813
leaf_weight=87 60
leaf_count=87 60
internal_value=-0.000191075
internal_weight=147
internal_count=147
is_linear=0
shrinkage=0.160562


Tree=13
num_leaves=2
num_cat=0
split_feature=3
split_gain=1841.87
threshold=17.719358500000002
decision_type=2
left_child=-1
right_child=-2
leaf_value=-0.47014429386962397 0.67657922935112691
leaf_weight=87 60
leaf_count=87 60
internal_value=-0.00042276
internal_weight=147
internal_count=147
is_linear=0
shrinkage=0.160562


Tree=14
num_leaves=2
num_cat=0
split_feature=2
split_gain=1865.71
threshold=16.078572000000005
decision_type=2
left_child=-1
right_child=-2
leaf_value=0.5946833436347575 -0.541663302234629
leaf_weight=70 77
leaf_count=70 77
internal_value=-8.91983e-05
internal_weight=147
internal_count=147
is_linear=0
shrinkage=0.160562


Tree=15
num_leaves=2
num_cat=0
split_feature=4
split_gain=1828.23
threshold=-0.18600799999999998
decision_type=2
left_child=-1
right_child=-2
leaf_value=-0.62143828307257143 0.50791302518259152
leaf_weight=66 81
leaf_count=66 81
internal_value=-2.24289e-06
internal_weight=147
internal_count=147
is_linear=0
shrinkage=0.160562


Tree=16
num_leaves=2
num_cat=0
split_feature=70
split_gain=1779.71
threshold=19.500000000000004
decision_type=2
left_child=-1
right_child=-2
leaf_value=-0.57337043422032929 0.53587904742730741
leaf_weight=71 76
leaf_count=71 76
internal_value=-0.000138813
internal_weight=147
internal_count=147
is_linear=0
shrinkage=0.160562


Tree=17
num_leaves=2
num_cat=0
split_feature=36
split_gain=1706.52
threshold=0.94610550000000015
decision_type=2
left_child=-1
right_child=-2
leaf_value=-0.49094597264280887 0.60016612158583083
leaf_weight=81 66
leaf_count=81 66
internal_value=-0.000157789
internal_weight=147
internal_count=147
is_linear=0
shrinkage=0.160562


Tree=18
num_leaves=2
num_cat=0
split_feature=7
split_gain=1529.08
threshold=57.600000500000007
decision_type=2
left_child=-1
right_child=-2
leaf_value=-0.4339311795562098 0.60838794266169471
leaf_weight=86 61
leaf_count=86 61
internal_value=0
internal_weight=147
internal_count=147
is_linear=0
shrinkage=0.160562


Tree=19
num_leaves=2
num_cat=0
split_feature=11
split_gain=1643.78
threshold=0.84703750000000011
decision_type=2
left_child=-1
right_child=-2
leaf_value=0.62240102931741537 -0.4559162535025626
leaf_weight=62 85
leaf_count=62 85
internal_value=0.000160887
internal_weight=147
internal_count=147
is_linear=0
shrinkage=0.160562


Tree=20
num_leaves=2
num_cat=0
split_feature=19
split_gain=1336.12
threshold=1.0000000180025095e-35
decision_type=2
left_child=-1
right_child=-2
leaf_value=0.42298544407786504 -0.54546776922122231
leaf_weight=83 64
leaf_count=83 64
internal_value=0.000338642
internal_weight=147
internal_count=147
is_linear=0
shrinkage=0.160562


Tree=21
num_leaves=2
num_cat=0
split_feature=102
split_gain=1383.15
threshold=36.13424650000001
decision_type=2
left_child=-1
right_child=-2
leaf_value=-0.47241315998897915 0.50547707247431839
leaf_weight=76 71
leaf_count=76 71
internal_value=0.000124219
internal_weight=147
internal_count=147
is_linear=0
shrinkage=0.160562


Tree=22
num_leaves=2
num_cat=0
split_feature=4
split_gain=1361.12
threshold=-0.18600799999999998
decision_type=2
left_child=-1
right_child=-2
leaf_value=-0.53599697929079393 0.4384599289000608
leaf_weight=66 81
leaf_count=66 81
internal_value=0.000139968
internal_weight=147
internal_count=147
is_linear=0
shrinkage=0.160562


Tree=23
num_leaves=2
num_cat=0
split_feature=36
split_gain=1309.67
threshold=1.0472815000000002
decision_type=2
left_child=-1
right_child=-2
leaf_value=-0.39603447342114123 0.57092878069635322
leaf_weight=87 60
leaf_count=87 60
internal_value=0
internal_weight=147
internal_count=147
is_linear=0
shrinkage=0.160562


Tree=24
num_leaves=2
num_cat=0
split_feature=24
split_gain=1242.1
threshold=94.899997500000012
decision_type=2
left_child=-1
right_child=-2
leaf_value=0.54110771045681605 -0.39624800075990341
leaf_weight=62 85
leaf_count=62 85
internal_value=0.000204796
internal_weight=147
internal_count=147
is_linear=0
shrinkage=0.160562


Tree=25
num_leaves=2
num_cat=0
split_feature=42
split_gain=1283.42
threshold=35.659265500000011
decision_type=2
left_child=-1
right_child=-2
leaf_value=0.44353959500955953 -0.49962182237249114
leaf_weight=78 69
leaf_count=78 69
internal_value=0.000348286
internal_weight=147
internal_count=147
is_linear=0
shrinkage=0.160562


Tree=26
num_leaves=2
num_cat=0
split_feature=90
split_gain=1178.23
threshold=0.021381000000000001
decision_type=2
left_child=-1
right_child=-2
leaf_value=-0.44775856685671378 0.4543010832452069
leaf_weight=74 73
leaf_count=74 73
internal_value=0.00021586
internal_weight=147
internal_count=147
is_linear=0
shrinkage=0.160562


Tree=27
num_leaves=2
num_cat=0
split_feature=0
split_gain=1118.66
threshold=10.950000000000001
decision_type=2
left_child=-1
right_child=-2
leaf_value=-0.38123866379918542 0.50652729162741494
leaf_weight=84 63
leaf_count=84 63
internal_value=0.000183526
internal_weight=147
internal_count=147
is_linear=0
shrinkage=0.160562


Tree=28
num_leaves=2
num_cat=0
split_feature=100
split_gain=1041.54
threshold=-0.017197999999999995
decision_type=2
left_child=-1
right_child=-2
leaf_value=0.51657592014049847 -0.34798828423021538
leaf_weight=59 88
leaf_count=59 88
internal_value=0.000305795
internal_weight=147
internal_count=147
is_linear=0
shrinkage=0.160562


Tree=29
num_leaves=2
num_cat=0
split_feature=2
split_gain=1090.08
threshold=16.078572000000005
decision_type=2
left_child=-1
right_child=-2
leaf_value=0.45515319564315565 -0.41344296562550742
leaf_weight=70 77
leaf_count=70 77
internal_value=0.000462925
internal_weight=147
internal_count=147
is_linear=0
shrinkage=0.160562


Tree=30
num_leaves=2
num_cat=0
split_feature=70
split_gain=1052.38
threshold=19.500000000000004
decision_type=2
left_child=-1
right_child=-2
leaf_value=-0.44030540556370412 0.41268019083295915
leaf_weight=71 76
leaf_count=71 76
internal_value=0.000435158
internal_weight=147
internal_count=147
is_linear=0
shrinkage=0.160562


Tree=31
num_leaves=2
num_cat=0
split_feature=23
split_gain=1021.35
threshold=327.20509350000003
decision_type=2
left_child=-1
right_child=-2
leaf_value=0.42880413675354634 -0.4112102927140166
leaf_weight=72 75
leaf_count=72 75
internal_value=0.000324614
internal_weight=147
internal_count=147
is_linear=0
shrinkage=0.160562


Tree=32
num_leaves=2
num_cat=0
split_feature=173
split_gain=975.077
threshold=254.25000000000003
decision_type=2
left_child=-1
right_child=-2
leaf_value=-0.35097044934455179 0.47953929457398892
leaf_weight=85 62
leaf_count=85 62
internal_value=0.000288717
internal_weight=147
internal_count=147
is_linear=0
shrinkage=0.160562


Tree=33
num_leaves=2
num_cat=0
split_feature=56
split_gain=1033.06
threshold=-1.2499999999999998
decision_type=2
left_child=-1
right_child=-2
leaf_value=-0.45423803017873043 0.39271001927836213
leaf_weight=68 79
leaf_count=68 79
internal_value=0.000398228
internal_weight=147
internal_count=147
is_linear=0
shrinkage=0.160562


Tree=34
num_leaves=2
num_cat=0
split_feature=4
split_gain=1014.51
threshold=-0.18600799999999998
decision_type=2
left_child=-1
right_child=-2
leaf_value=-0.46261111799070587 0.37867210296226539
leaf_weight=66 81
leaf_count=66 81
internal_value=0.000250945
internal_weight=147
internal_count=147
is_linear=0
shrinkage=0.160562


Tree=35
num_leaves=2
num_cat=0
split_feature=19
split_gain=965.473
threshold=1.0000000180025095e-35
decision_type=2
left_child=-1
right_child=-2
leaf_value=0.35937927068871633 -0.46385964221585785
leaf_weight=83 64
leaf_count=83 64
internal_value=9.91108e-05
internal_weight=147
internal_count=147
is_linear=0
shrinkage=0.160562


Tree=36
num_leaves=2
num_cat=0
split_feature=28
split_gain=852.435
threshold=15.350000000000003
decision_type=2
left_child=-1
right_child=-2
leaf_value=-0.35158276176136022 0.41860049782685582
leaf_weight=80 67
leaf_count=80 67
internal_value=0
internal_weight=147
internal_count=147
is_linear=0
shrinkage=0.160562


Tree=37
num_leaves=2
num_cat=0
split_feature=11
split_gain=980.973
threshold=0.84703750000000011
decision_type=2
left_child=-1
right_child=-2
leaf_value=0.48073220705210068 -0.3522847897077413
leaf_weight=62 85
leaf_count=62 85
internal_value=3.29192e-05
internal_weight=147
internal_count=147
is_linear=0
shrinkage=0.160562


Tree=38
num_leaves=2
num_cat=0
split_feature=3
split_gain=876.404
threshold=17.719358500000002
decision_type=2
left_child=-1
right_child=-2
leaf_value=-0.32377233944877332 0.46723723422809327
leaf_weight=87 60
leaf_count=87 60
internal_value=0.000183353
internal_weight=147
internal_count=147
is_linear=0
shrinkage=0.160562


Tree=39
num_leaves=2
num_cat=0
split_feature=18
split_gain=829.97
threshold=1.0000000180025095e-35
decision_type=2
left_child=-1
right_child=-2
leaf_value=-0.38586124313467396 0.3713728982567675
leaf_weight=72 75
leaf_count=72 75
internal_value=0.000328525
internal_weight=147
internal_count=147
is_linear=0
shrinkage=0.160562


Tree=40
num_leaves=2
num_cat=0
split_feature=54
split_gain=837.643
threshold=0.75199000000000005
decision_type=2
left_child=-1
right_child=-2
leaf_value=-0.38771875967093616 0.37300764165892619
leaf_weight=72 75
leaf_count=72 75
internal_value=0.000251622
internal_weight=147
internal_count=147
is_linear=0
shrinkage=0.160562


Tree=41
num_leaves=2
num_cat=0
split_feature=170
split_gain=757.201
threshold=8.241515500000002
decision_type=2
left_child=-1
right_child=-2
leaf_value=0.41677629072191658 -0.31361378518764932
leaf_weight=63 84
leaf_count=63 84
internal_value=0.000186798
internal_weight=147
internal_count=147
is_linear=0
shrinkage=0.160562


Tree=42
num_leaves=2
num_cat=0
split_feature=42
split_gain=761.375
threshold=35.659265500000011
decision_type=2
left_child=-1
right_child=-2
leaf_value=0.34164391078829076 -0.38479808342570393
leaf_weight=78 69
leaf_count=78 69
internal_value=0.000280698
internal_weight=147
internal_count=147
is_linear=0
shrinkage=0.160562


Tree=43
num_leaves=2
num_cat=0
split_feature=102
split_gain=743.547
threshold=36.13424650000001
decision_type=2
left_child=-1
right_child=-2
leaf_value=-0.34627719579195582 0.3707063286360876
leaf_weight=76 71
leaf_count=76 71
internal_value=0.000175407
internal_weight=147
internal_count=147
is_linear=0
shrinkage=0.160562


Tree=44
num_leaves=2
num_cat=0
split_feature=2
split_gain=704.869
threshold=16.078572000000005
decision_type=2
left_child=-1
right_child=-2
leaf_value=0.3658100972927289 -0.332652633955421
leaf_weight=70 77
leaf_count=70 77
internal_value=0.000172077
internal_weight=147
internal_count=147
is_linear=0
shrinkage=0.160562


Tree=45
num_leaves=2
num_cat=0
split_feature=36
split_gain=704.669
threshold=0.94610550000000015
decision_type=2
left_child=-1
right_child=-2
leaf_value=-0.31513971295243215 0.38600302756719379
leaf_weight=81 66
leaf_count=81 66
internal_value=0.000180253
internal_weight=147
internal_count=147
is_linear=0
shrinkage=0.160562


Tree=46
num_leaves=2
num_cat=0
split_feature=44
split_gain=707.13
threshold=22.968901500000005
decision_type=2
left_child=-1
right_child=-2
leaf_value=-0.28674348948361311 0.42563335623058512
leaf_weight=88 59
leaf_count=88 59
internal_value=0.000234568
internal_weight=147
internal_count=147
is_linear=0
shrinkage=0.160562


Tree=47
num_leaves=2
num_cat=0
split_feature=21
split_gain=658.182
threshold=44.000000000000007
decision_type=2
left_child=-1
right_child=-2
leaf_value=0.28117132600451544 -0.40432098350667933
leaf_weight=87 60
leaf_count=87 60
internal_value=0.000365753
internal_weight=147
internal_count=147
is_linear=0
shrinkage=0.160562


Tree=48
num_leaves=2
num_cat=0
split_feature=7
split_gain=743.512
threshold=57.600000500000007
decision_type=2
left_child=-1
right_child=-2
leaf_value=-0.30238677539654213 0.42443699511396155
leaf_weight=86 61
leaf_count=86 61
internal_value=0.000146148
internal_weight=147
internal_count=147
is_linear=0
shrinkage=0.160562


Tree=49
num_leaves=2
num_cat=0
split_feature=175
split_gain=654.538
threshold=0.21907600000000002
decision_type=2
left_child=-1
right_child=-2
leaf_value=0.29209058215885164 -0.38698270544584967
leaf_weight=84 63
leaf_count=84 63
internal_value=0.00027034
internal_weight=147
internal_count=147
is_linear=0
shrinkage=0.160562


Tree=50
num_leaves=2
num_cat=0
split_feature=172
split_gain=674.002
threshold=14.583286000000003
decision_type=2
left_child=-1
right_child=-2
leaf_value=-0.39286635672068015 0.29622983876211717
leaf_weight=63 84
leaf_count=63 84
internal_value=0.000101619
internal_weight=147
internal_count=147
is_linear=0
shrinkage=0.160562


Tree=51
num_leaves=2
num_cat=0
split_feature=69
split_gain=615.034
threshold=5.3569360000000001
decision_type=2
left_child=-1
right_child=-2
leaf_value=-0.26767624099782772 0.39669329200953107
leaf_weight=88 59
leaf_count=88 59
internal_value=0
internal_weight=147
internal_count=147
is_linear=0
shrinkage=0.160562


Tree=52
num_leaves=2
num_cat=0
split_feature=11
split_gain=587.451
threshold=0.84703750000000011
decision_type=2
left_child=-1
right_child=-2
leaf_value=0.37211805005517862 -0.27251283930464443
leaf_weight=62 85
leaf_count=62 85
internal_value=0.000120984
internal_weight=147
internal_count=147
is_linear=0
shrinkage=0.160562


Tree=53
num_leaves=2
num_cat=0
split_feature=92
split_gain=591.401
threshold=0.014788000000000003
decision_type=2
left_child=-1
right_child=-2
leaf_value=-0.28864472876947067 0.35368042811106237
leaf_weight=81 66
leaf_count=81 66
internal_value=0.000220989
internal_weight=147
internal_count=147
is_linear=0
shrinkage=0.160562


Tree=54
num_leaves=2
num_cat=0
split_feature=90
split_gain=587.362
threshold=0.021381000000000001
decision_type=2
left_child=-1
right_child=-2
leaf_value=-0.31602351155891967 0.32088072427149839
leaf_weight=74 73
leaf_count=74 73
internal_value=0.000261425
internal_weight=147
internal_count=147
is_linear=0
shrinkage=0.160562


Tree=55
num_leaves=2
num_cat=0
split_feature=4
split_gain=606.667
threshold=-0.18600799999999998
decision_type=2
left_child=-1
right_child=-2
leaf_value=-0.35770244549552682 0.2928599433961297
leaf_weight=66 81
leaf_count=66 81
internal_value=0.000219638
internal_weight=147
internal_count=147
is_linear=0
shrinkage=0.160562


Tree=56
num_leaves=2
num_cat=0
split_feature=19
split_gain=566.524
threshold=1.0000000180025095e-35
decision_type=2
left_child=-1
right_child=-2
leaf_value=0.27532052167334131 -0.35529575501423222
leaf_weight=83 64
leaf_count=83 64
internal_value=9.68627e-05
internal_weight=147
internal_count=147
is_linear=0
shrinkage=0.160562


Tree=57
num_leaves=2
num_cat=0
split_feature=56
split_gain=541.19
threshold=-1.2499999999999998
decision_type=2
left_child=-1
right_child=-2
leaf_value=-0.32907286488743248 0.28393777729509717
leaf_weight=68 79
leaf_count=68 79
internal_value=0
internal_weight=147
internal_count=147
is_linear=0
shrinkage=0.160562


Tree=58
num_leaves=2
num_cat=0
split_feature=3
split_gain=541.173
threshold=15.454796000000002
decision_type=2
left_child=-1
right_child=-2
leaf_value=-0.31191844911922356 0.29954039747593442
leaf_weight=72 75
leaf_count=72 75
internal_value=-1.02014e-05
internal_weight=147
internal_count=147
is_linear=0
shrinkage=0.160562


Tree=59
num_leaves=2
num_cat=0
split_feature=125
split_gain=565.575
threshold=253.50000000000003
decision_type=2
left_child=-1
right_child=-2
leaf_value=-0.33647119864921393 0.2901976404272642
leaf_weight=68 79
leaf_count=68 79
internal_value=-1.82155e-05
internal_weight=147
internal_count=147
is_linear=0
shrinkage=0.160562


Tree=60
num_leaves=2
num_cat=0
split_feature=116
split_gain=529.99
threshold=1.0000000180025095e-35
decision_type=2
left_child=-1
right_child=-2
leaf_value=0.30037017528382348 -0.30462910290884415
leaf_weight=74 73
leaf_count=74 73
internal_value=-6.76081e-05
internal_weight=147
internal_count=147
is_linear=0
shrinkage=0.160562


Tree=61
num_leaves=2
num_cat=0
split_feature=22
split_gain=472.104
threshold=11.500000000000002
decision_type=2
left_child=-1
right_child=-2
leaf_value=0.30727046882468051 -0.2652776780600215
leaf_weight=68 79
leaf_count=68 79
internal_value=-5.61858e-05
internal_weight=147
internal_count=147
is_linear=0
shrinkage=0.160562


Tree=62
num_leaves=2
num_cat=0
split_feature=142
split_gain=497.445
threshold=1.4929595000000002
decision_type=2
left_child=-1
right_child=-2
leaf_value=-0.25439703157790133 0.33760305423974263
leaf_weight=84 63
leaf_count=84 63
internal_value=0
internal_weight=147
internal_count=147
is_linear=0
shrinkage=0.160562


Tree=63
num_leaves=2
num_cat=0
split_feature=62
split_gain=495.39
threshold=6.2175155000000002
decision_type=2
left_child=-1
right_child=-2
leaf_value=-0.29830511889497985 0.28671726912467466
leaf_weight=72 75
leaf_count=72 75
internal_value=4.66478e-05
internal_weight=147
internal_count=147
is_linear=0
shrinkage=0.160562


Tree=64
num_leaves=2
num_cat=0
split_feature=36
split_gain=498.022
threshold=1.0472815000000002
decision_type=2
left_child=-1
right_child=-2
leaf_value=-0.24417827803207981 0.35210686470279212
leaf_weight=87 60
leaf_count=87 60
internal_value=1.86537e-05
internal_weight=147
internal_count=147
is_linear=0
shrinkage=0.160562


Tree=65
num_leaves=2
num_cat=0
split_feature=4
split_gain=478.548
threshold=-0.18600799999999998
decision_type=2
left_child=-1
right_child=-2
leaf_value=-0.31773941378065346 0.26005929338586992
leaf_weight=66 81
leaf_count=66 81
internal_value=0.000145557
internal_weight=147
internal_count=147
is_linear=0
shrinkage=0.160562


Tree=66
num_leaves=2
num_cat=0
split_feature=23
split_gain=459.487
threshold=335.75325000000004
decision_type=2
left_child=-1
right_child=-2
leaf_value=0.26524127141936116 -0.29909530852007132
leaf_weight=78 69
leaf_count=78 69
internal_value=4.36897e-05
internal_weight=147
internal_count=147
is_linear=0
shrinkage=0.160562


Tree=67
num_leaves=2
num_cat=0
split_feature=21
split_gain=458.708
threshold=44.000000000000007
decision_type=2
left_child=-1
right_child=-2
leaf_value=0.23442015866333576 -0.33784592020866588
leaf_weight=87 60
leaf_count=87 60
internal_value=0
internal_weight=147
internal_count=147
is_linear=0
shrinkage=0.160562


Tree=68
num_leaves=2
num_cat=0
split_feature=72
split_gain=455.958
threshold=0.0037675000000000004
decision_type=2
left_child=-1
right_child=-2
leaf_value=-0.23705027537361112 0.3321270962381106
leaf_weight=86 61
leaf_count=86 61
internal_value=-7.22984e-05
internal_weight=147
internal_count=147
is_linear=0
shrinkage=0.160562


Tree=69
num_leaves=2
num_cat=0
split_feature=173
split_gain=435.646
threshold=254.25000000000003
decision_type=2
left_child=-1
right_child=-2
leaf_value=-0.23478270532811729 0.32034401827803871
leaf_weight=85 62
leaf_count=85 62
internal_value=0
internal_weight=147
internal_count=147
is_linear=0
shrinkage=0.160562


Tree=70
num_leaves=2
num_cat=0
split_feature=44
split_gain=436.217
threshold=22.968901500000005
decision_type=2
left_child=-1
right_child=-2
leaf_value=-0.22529540662156733 0.33421956085646537
leaf_weight=88 59
leaf_count=88 59
internal_value=9.43322e-05
internal_weight=147
internal_count=147
is_linear=0
shrinkage=0.160562


Tree=71
num_leaves=2
num_cat=0
split_feature=206
split_gain=430.412
threshold=16.835000000000004
decision_type=2
left_child=-1
right_child=-2
leaf_value=-0.23961719113796731 0.31004792883562277
leaf_weight=83 64
leaf_count=83 64
internal_value=0.000210323
internal_weight=147
internal_count=147
is_linear=0
shrinkage=0.160562


Tree=72
num_leaves=2
num_cat=0
split_feature=100
split_gain=427.619
threshold=-0.017197999999999995
decision_type=2
left_child=-1
right_child=-2
leaf_value=0.33107403323802537 -0.22289889624081902
leaf_weight=59 88
leaf_count=59 88
internal_value=0.000259268
internal_weight=147
internal_count=147
is_linear=0
shrinkage=0.160562


Tree=73
num_leaves=2
num_cat=0
split_feature=7
split_gain=415.332
threshold=57.600000500000007
decision_type=2
left_child=-1
right_child=-2
leaf_value=-0.22575814696172022 0.31747058331566397
leaf_weight=86 61
leaf_count=86 61
internal_value=0.000347848
internal_weight=147
internal_count=147
is_linear=0
shrinkage=0.160562


Tree=74
num_leaves=2
num_cat=0
split_feature=42
split_gain=417.386
threshold=35.659265500000011
decision_type=2
left_child=-1
right_child=-2
leaf_value=0.25315661734246475 -0.28470491420836558
leaf_weight=78 69
leaf_count=78 69
internal_value=0.000401486
internal_weight=147
internal_count=147
is_linear=0
shrinkage=0.160562


Tree=75
num_leaves=2
num_cat=0
split_feature=198
split_gain=393.214
threshold=1.0000000180025095e-35
decision_type=2
left_child=-1
right_child=-2
leaf_value=0.24562030889920186 -0.27643434218456164
leaf_weight=78 69
leaf_count=78 69
internal_value=0.000291403
internal_weight=147
internal_count=147
is_linear=0
shrinkage=0.160562


Tree=76
num_leaves=2
num_cat=0
split_feature=2
split_gain=399.551
threshold=16.078572000000005
decision_type=2
left_child=-1
right_child=-2
leaf_value=0.27549376137461185 -0.25037211463056941
leaf_weight=70 77
leaf_count=70 77
internal_value=0.000199922
internal_weight=147
internal_count=147
is_linear=0
shrinkage=0.160562


Tree=77
num_leaves=2
num_cat=0
split_feature=11
split_gain=380.596
threshold=0.84703750000000011
decision_type=2
left_child=-1
right_child=-2
leaf_value=0.29962344450402351 -0.21924533625724221
leaf_weight=62 85
leaf_count=62 85
internal_value=0.000193516
internal_weight=147
internal_count=147
is_linear=0
shrinkage=0.160562


Tree=78
num_leaves=2
num_cat=0
split_feature=28
split_gain=371.993
threshold=15.350000000000003
decision_type=2
left_child=-1
right_child=-2
leaf_value=-0.23195097990455679 0.27682991146418506
leaf_weight=80 67
leaf_count=80 67
internal_value=0.000257674
internal_weight=147
internal_count=147
is_linear=0
shrinkage=0.160562


Tree=79
num_leaves=2
num_cat=0
split_feature=148
split_gain=367.794
threshold=0.44266250000000007
decision_type=2
left_child=-1
right_child=-2
leaf_value=0.26087532912277567 -0.2433875841796154
leaf_weight=71 76
leaf_count=71 76
internal_value=0.000266858
internal_weight=147
internal_count=147
is_linear=0
shrinkage=0.160562


Tree=80
num_leaves=2
num_cat=0
split_feature=107
split_gain=382.886
threshold=0.96339200000000014
decision_type=2
left_child=-1
right_child=-2
leaf_value=-0.29192339731412265 0.22650710096312007
leaf_weight=64 83
leaf_count=64 83
internal_value=0.0002401
internal_weight=147
internal_count=147
is_linear=0
shrinkage=0.160562


Tree=81
num_leaves=2
num_cat=0
split_feature=21
split_gain=361.272
threshold=44.000000000000007
decision_type=2
left_child=-1
right_child=-2
leaf_value=0.2081653891970062 -0.29969761826682867
leaf_weight=87 60
leaf_count=87 60
internal_value=0.000113313
internal_weight=147
internal_count=147
is_linear=0
shrinkage=0.160562


Tree=82
num_leaves=2
num_cat=0
split_feature=206
split_gain=347.998
threshold=16.835000000000004
decision_type=2
left_child=-1
right_child=-2
leaf_value=-0.21566840299961057 0.27857874697398521
leaf_weight=83 64
leaf_count=83 64
internal_value=0
internal_weight=147
internal_count=147
is_linear=0
shrinkage=0.160562


Tree=83
num_leaves=2
num_cat=0
split_feature=217
split_gain=347.963
threshold=0.13728100000000001
decision_type=2
left_child=-1
right_child=-2
leaf_value=-0.21265933749434868 0.28246681005100344
leaf_weight=84 63
leaf_count=84 63
internal_value=5.1445e-05
internal_weight=147
internal_count=147
is_linear=0
shrinkage=0.160562


Tree=84
num_leaves=2
num_cat=0
split_feature=54
split_gain=353.147
threshold=0.75199000000000005
decision_type=2
left_child=-1
right_child=-2
leaf_value=-0.25177247791129231 0.24217019127961326
leaf_weight=72 75
leaf_count=72 75
internal_value=0.000125109
internal_weight=147
internal_count=147
is_linear=0
shrinkage=0.160562


Tree=85
num_leaves=2
num_cat=0
split_feature=126
split_gain=336.555
threshold=205.50000000000003
decision_type=2
left_child=-1
right_child=-2
leaf_value=0.23637893968128218 -0.24582090012739602
leaf_weight=75 72
leaf_count=75 72
internal_value=8.70143e-05
internal_weight=147
internal_count=147
is_linear=0
shrinkage=0.160562


Tree=86
num_leaves=2
num_cat=0
split_feature=0
split_gain=342.977
threshold=10.950000000000001
decision_type=2
left_child=-1
right_child=-2
leaf_value=-0.21112586096188168 0.28044020444930923
leaf_weight=84 63
leaf_count=84 63
internal_value=5.52468e-05
internal_weight=147
internal_count=147
is_linear=0
shrinkage=0.160562


Tree=87
num_leaves=2
num_cat=0
split_feature=55
split_gain=341.125
threshold=2.2961340000000003
decision_type=2
left_child=-1
right_child=-2
leaf_value=-0.28328186491964341 0.20794507719374811
leaf_weight=62 85
leaf_count=62 85
internal_value=0.000127687
internal_weight=147
internal_count=147
is_linear=0
shrinkage=0.160562


Tree=88
num_leaves=2
num_cat=0
split_feature=169
split_gain=313.92
threshold=26.409996000000003
decision_type=2
left_child=-1
right_child=-2
leaf_value=0.27195095206214687 -0.19928143718251595
leaf_weight=62 85
leaf_count=62 85
internal_value=6.46337e-06
internal_weight=147
internal_count=147
is_linear=0
shrinkage=0.160562


Tree=89
num_leaves=2
num_cat=0
split_feature=8
split_gain=324.328
threshold=0.26000000000000006
decision_type=2
left_child=-1
right_child=-2
leaf_value=0.23834881251882131 -0.23492571280445104
leaf_weight=73 74
leaf_count=73 74
internal_value=9.09509e-05
internal_weight=147
internal_count=147
is_linear=0
shrinkage=0.160562


Tree=90
num_leaves=2
num_cat=0
split_feature=6
split_gain=308.717
threshold=0.042572500000000006
decision_type=2
left_child=-1
right_child=-2
leaf_value=-0.18953014483971731 0.28116581279373354
leaf_weight=88 59
leaf_count=88 59
internal_value=7.47405e-05
internal_weight=147
internal_count=147
is_linear=0
shrinkage=0.160562


Tree=91
num_leaves=2
num_cat=0
split_feature=5
split_gain=306.075
threshold=225.85000600000004
decision_type=2
left_child=-1
right_child=-2
leaf_value=0.27619898650922786 -0.19125981661494179
leaf_weight=60 87
leaf_count=60 87
internal_value=0.000172129
internal_weight=147
internal_count=147
is_linear=0
shrinkage=0.160562


Tree=92
num_leaves=2
num_cat=0
split_feature=95
split_gain=306.556
threshold=1.0000000180025095e-35
decision_type=2
left_child=-1
right_child=-2
leaf_value=0.22880195526612956 -0.23132313987239642
leaf_weight=74 73
leaf_count=74 73
internal_value=0.000245463
internal_weight=147
internal_count=147
is_linear=0
shrinkage=0.160562


Tree=93
num_leaves=2
num_cat=0
split_feature=20
split_gain=309.586
threshold=1.7000000000000004
decision_type=2
left_child=-1
right_child=-2
leaf_value=0.1981754981172433 -0.26979221643338197
leaf_weight=85 62
leaf_count=85 62
internal_value=0.00019696
internal_weight=147
internal_count=147
is_linear=0
shrinkage=0.160562


Tree=94
num_leaves=2
num_cat=0
split_feature=198
split_gain=288.19
threshold=1.0000000180025095e-35
decision_type=2
left_child=-1
right_child=-2
leaf_value=0.21010243062210968 -0.23682938719431029
leaf_weight=78 69
leaf_count=78 69
internal_value=6.93013e-05
internal_weight=147
internal_count=147
is_linear=0
shrinkage=0.160562


Tree=95
num_leaves=2
num_cat=0
split_feature=102
split_gain=284.233
threshold=37.255523500000002
decision_type=2
left_child=-1
right_child=-2
leaf_value=-0.20570838592379259 0.23854488758116685
leaf_weight=79 68
leaf_count=79 68
internal_value=1.86166e-05
internal_weight=147
internal_count=147
is_linear=0
shrinkage=0.160562


Tree=96
num_leaves=2
num_cat=0
split_feature=36
split_gain=286.658
threshold=1.0472815000000002
decision_type=2
left_child=-1
right_child=-2
leaf_value=-0.18520740325476961 0.26718135247421032
leaf_weight=87 60
leaf_count=87 60
internal_value=5.10371e-05
internal_weight=147
internal_count=147
is_linear=0
shrinkage=0.160562


Tree=97
num_leaves=2
num_cat=0
split_feature=49
split_gain=289.222
threshold=23.550000500000003
decision_type=2
left_child=-1
right_child=-2
leaf_value=-0.19378454609516146 0.25761895083753683
leaf_weight=84 63
leaf_count=84 63
internal_value=0.000140076
internal_weight=147
internal_count=147
is_linear=0
shrinkage=0.160562


Tree=98
num_leaves=2
num_cat=0
split_feature=217
split_gain=286.386
threshold=0.15771950000000004
decision_type=2
left_child=-1
right_child=-2
leaf_value=-0.18497955125071081 0.2671943819606008
leaf_weight=87 60
leaf_count=87 60
internal_value=0.000191996
internal_weight=147
internal_count=147
is_linear=0
shrinkage=0.160562


Tree=99
num_leaves=2
num_cat=0
split_feature=59
split_gain=287.823
threshold=9.1845370000000006
decision_type=2
left_child=-1
right_child=-2
leaf_value=-0.20125061369876932 0.2468506213039994
leaf_weight=81 66
leaf_count=81 66
internal_value=0.000258706
internal_weight=147
internal_count=147
is_linear=0
shrinkage=0.160562


Tree=100
num_leaves=2
num_cat=0
split_feature=92
split_gain=288.755
threshold=0.014788000000000003
decision_type=2
left_child=-1
right_child=-2
leaf_value=-0.20156709149256985 0.24725967672445553
leaf_weight=81 66
leaf_count=81 66
internal_value=0.00026863
internal_weight=147
internal_count=147
is_linear=0
shrinkage=0.160562


Tree=101
num_leaves=2
num_cat=0
split_feature=148
split_gain=261.79
threshold=0.44266250000000007
decision_type=2
left_child=-1
right_child=-2
leaf_value=0.2201510415236986 -0.2052825874108726
leaf_weight=71 76
leaf_count=71 76
internal_value=0.000277077
internal_weight=147
internal_count=147
is_linear=0
shrinkage=0.160562


Tree=102
num_leaves=2
num_cat=0
split_feature=23
split_gain=274.272
threshold=335.75325000000004
decision_type=2
left_child=-1
right_child=-2
leaf_value=0.2051433065737665 -0.23086229364926533
leaf_weight=78 69
leaf_count=78 69
internal_value=0.000245381
internal_weight=147
internal_count=147
is_linear=0
shrinkage=0.160562


Tree=103
num_leaves=2
num_cat=0
split_feature=170
split_gain=267.039
threshold=8.241515500000002
decision_type=2
left_child=-1
right_child=-2
leaf_value=0.2475767348831803 -0.18617059358068533
leaf_weight=63 84
leaf_count=63 84
internal_value=0.0001677
internal_weight=147
internal_count=147
is_linear=0
shrinkage=0.160562


Tree=104
num_leaves=2
num_cat=0
split_feature=196
split_gain=259.406
threshold=51.497352500000012
decision_type=2
left_child=-1
right_child=-2
leaf_value=0.17651381035672481 -0.25383386727645896
leaf_weight=87 60
leaf_count=87 60
internal_value=0.000212126
internal_weight=147
internal_count=147
is_linear=0
shrinkage=0.160562


Tree=105
num_leaves=2
num_cat=0
split_feature=44
split_gain=255.507
threshold=22.968901500000005
decision_type=2
left_child=-1
right_child=-2
leaf_value=-0.17241443133362708 0.25579995222498786
leaf_weight=88 59
leaf_count=88 59
internal_value=7.48573e-05
internal_weight=147
internal_count=147
is_linear=0
shrinkage=0.160562


Tree=106
num_leaves=2
num_cat=0
split_feature=42
split_gain=243.114
threshold=35.659265500000011
decision_type=2
left_child=-1
right_child=-2
leaf_value=0.19307339887075275 -0.21742050183482642
leaf_weight=78 69
leaf_count=78 69
internal_value=0.000161849
internal_weight=147
internal_count=147
is_linear=0
shrinkage=0.160562


Tree=107
num_leaves=2
num_cat=0
split_feature=72
split_gain=254.454
threshold=0.0037675000000000004
decision_type=2
left_child=-1
right_child=-2
leaf_value=-0.17686913866884618 0.24832698037209494
leaf_weight=86 61
leaf_count=86 61
internal_value=9.93087e-05
internal_weight=147
internal_count=147
is_linear=0
shrinkage=0.160562


Tree=108
num_leaves=2
num_cat=0
split_feature=0
split_gain=260.754
threshold=10.950000000000001
decision_type=2
left_child=-1
right_child=-2
leaf_value=-0.18396461807491155 0.24464797280964173
leaf_weight=84 63
leaf_count=84 63
internal_value=0.000167367
internal_weight=147
internal_count=147
is_linear=0
shrinkage=0.160562


Tree=109
num_leaves=2
num_cat=0
split_feature=22
split_gain=251.939
threshold=11.500000000000002
decision_type=2
left_child=-1
right_child=-2
leaf_value=0.224778572757798 -0.19347567340472221
leaf_weight=68 79
leaf_count=68 79
internal_value=0.000210935
internal_weight=147
internal_count=147
is_linear=0
shrinkage=0.160562


Tree=110
num_leaves=2
num_cat=0
split_feature=99
split_gain=237.658
threshold=0.060839500000000005
decision_type=2
left_child=-1
right_child=-2
leaf_value=0.18092088994137573 -0.22685419590716543
leaf_weight=82 65
leaf_count=82 65
internal_value=0.000210545
internal_weight=147
internal_count=147
is_linear=0
shrinkage=0.160562


Tree=111
num_leaves=2
num_cat=0
split_feature=4
split_gain=241.1
threshold=-0.18600799999999998
decision_type=2
left_child=-1
right_child=-2
leaf_value=-0.22551126518972336 0.18461037290920304
leaf_weight=66 81
leaf_count=66 81
internal_value=0.000113015
internal_weight=147
internal_count=147
is_linear=0
shrinkage=0.160562


Tree=112
num_leaves=2
num_cat=0
split_feature=63
split_gain=229.085
threshold=-1.9099999999999997
decision_type=2
left_child=-1
right_child=-2
leaf_value=-0.17254776629183965 0.22919444755270107
leaf_weight=84 63
leaf_count=84 63
internal_value=3.74833e-05
internal_weight=147
internal_count=147
is_linear=0
shrinkage=0.160562


Tree=113
num_leaves=2
num_cat=0
split_feature=55
split_gain=230.579
threshold=2.2961340000000003
decision_type=2
left_child=-1
right_child=-2
leaf_value=-0.23290288264207848 0.17096129619069431
leaf_weight=62 85
leaf_count=62 85
internal_value=9.68381e-05
internal_weight=147
internal_count=147
is_linear=0
shrinkage=0.160562


Tree=114
num_leaves=2
num_cat=0
split_feature=185
split_gain=222.092
threshold=-0.0081449999999999977
decision_type=2
left_child=-1
right_child=-2
leaf_value=0.23513178630134421 -0.16306335088401577
leaf_weight=60 87
leaf_count=60 87
internal_value=0
internal_weight=147
internal_count=147
is_linear=0
shrinkage=0.160562


Tree=115
num_leaves=2
num_cat=0
split_feature=9
split_gain=222.945
threshold=316.75000000000006
decision_type=2
left_child=-1
right_child=-2
leaf_value=0.1704108606100691 -0.22591062723851896
leaf_weight=84 63
leaf_count=84 63
internal_value=8.26055e-05
internal_weight=147
internal_count=147
is_linear=0
shrinkage=0.160562


Tree=116
num_leaves=2
num_cat=0
split_feature=6
split_gain=242.203
threshold=0.042572500000000006
decision_type=2
left_child=-1
right_child=-2
leaf_value=-0.16794344046717335 0.24897363716032972
leaf_weight=88 59
leaf_count=88 59
internal_value=0
internal_weight=147
internal_count=147
is_linear=0
shrinkage=0.160562


Tree=117
num_leaves=2
num_cat=0
split_feature=20
split_gain=227.792
threshold=1.7000000000000004
decision_type=2
left_child=-1
right_child=-2
leaf_value=0.16991942115342912 -0.23149608121371348
leaf_weight=85 62
leaf_count=85 62
internal_value=9.06695e-05
internal_weight=147
internal_count=147
is_linear=0
shrinkage=0.160562


Tree=118
num_leaves=2
num_cat=0
split_feature=84
split_gain=220.576
threshold=-0.65751899999999985
decision_type=2
left_child=-1
right_child=-2
leaf_value=-0.23754021454820784 0.16032848849527701
leaf_weight=59 88
leaf_count=59 88
internal_value=0
internal_weight=147
internal_count=147
is_linear=0
shrinkage=0.160562


Tree=119
num_leaves=2
num_cat=0
split_feature=62
split_gain=203.813
threshold=6.2175155000000002
decision_type=2
left_child=-1
right_child=-2
leaf_value=-0.19146376879508853 0.18378124563284293
leaf_weight=72 75
leaf_count=72 75
internal_value=-3.54925e-05
internal_weight=147
internal_count=147
is_linear=0
shrinkage=0.160562


Tree=120
num_leaves=2
num_cat=0
split_feature=88
split_gain=209.05
threshold=54.300003000000011
decision_type=2
left_child=-1
right_child=-2
leaf_value=-0.18627016306956937 0.19376567388235774
leaf_weight=75 72
leaf_count=75 72
internal_value=-3.35467e-05
internal_weight=147
internal_count=147
is_linear=0
shrinkage=0.160562


Tree=121
num_leaves=2
num_cat=0
split_feature=21
split_gain=223.725
threshold=44.000000000000007
decision_type=2
left_child=-1
right_child=-2
leaf_value=0.1636465079269005 -0.23600965666923043
leaf_weight=87 60
leaf_count=87 60
internal_value=-1.28119e-05
internal_weight=147
internal_count=147
is_linear=0
shrinkage=0.160562


Tree=122
num_leaves=2
num_cat=0
split_feature=8
split_gain=207.877
threshold=0.26000000000000006
decision_type=2
left_child=-1
right_child=-2
leaf_value=0.19058692013300774 -0.18831288353258402
leaf_weight=73 74
leaf_count=73 74
internal_value=-9.5894e-05
internal_weight=147
internal_count=147
is_linear=0
shrinkage=0.160562


Tree=123
num_leaves=2
num_cat=0
split_feature=83
split_gain=195.776
threshold=75.049999500000013
decision_type=2
left_child=-1
right_child=-2
leaf_value=0.20883258997225632 -0.16187823489915412
leaf_weight=64 83
leaf_count=64 83
internal_value=-7.17223e-05
internal_weight=147
internal_count=147
is_linear=0
shrinkage=0.160562


Tree=124
num_leaves=2
num_cat=0
split_feature=149
split_gain=197.861
threshold=1.0000000180025095e-35
decision_type=2
left_child=-1
right_child=-2
leaf_value=0.19894965245933555 -0.17170831398790218
leaf_weight=68 79
leaf_count=68 79
internal_value=0
internal_weight=147
internal_count=147
is_linear=0
shrinkage=0.160562


Tree=125
num_leaves=2
num_cat=0
split_feature=173
split_gain=188.296
threshold=254.25000000000003
decision_type=2
left_child=-1
right_child=-2
leaf_value=-0.1543655104344179 0.21059467284358338
leaf_weight=85 62
leaf_count=85 62
internal_value=0
internal_weight=147
internal_count=147
is_linear=0
shrinkage=0.160562


Tree=126
num_leaves=2
num_cat=0
split_feature=2
split_gain=187.811
threshold=17.385714500000002
decision_type=2
left_child=-1
right_child=-2
leaf_value=0.16733600102176113 -0.19378576097537958
leaf_weight=79 68
leaf_count=79 68
internal_value=4.00921e-05
internal_weight=147
internal_count=147
is_linear=0
shrinkage=0.160562


Tree=127
num_leaves=2
num_cat=0
split_feature=16
split_gain=207.435
threshold=60.600000500000007
decision_type=2
left_child=-1
right_child=-2
leaf_value=0.2151032051068581 -0.16648696843810729
leaf_weight=64 83
leaf_count=64 83
internal_value=0
internal_weight=147
internal_count=147
is_linear=0
shrinkage=0.160562


Tree=128
num_leaves=2
num_cat=0
split_feature=20
split_gain=190.083
threshold=1.0000000180025095e-35
decision_type=2
left_child=-1
right_child=-2
leaf_value=0.18491987226941309 -0.17746571689452328
leaf_weight=72 75
leaf_count=72 75
internal_value=5.0604e-05
internal_weight=147
internal_count=147
is_linear=0
shrinkage=0.160562


Tree=129
num_leaves=2
num_cat=0
split_feature=43
split_gain=186.563
threshold=1.7750015000000003
decision_type=2
left_child=-1
right_child=-2
leaf_value=0.16455285236127112 -0.19575713236917477
leaf_weight=80 67
leaf_count=80 67
internal_value=4.59455e-05
internal_weight=147
internal_count=147
is_linear=0
shrinkage=0.160562


Tree=130
num_leaves=2
num_cat=0
split_feature=150
split_gain=189.929
threshold=-0.041868999999999996
decision_type=2
left_child=-1
right_child=-2
leaf_value=-0.17275398829902341 0.18981044524979196
leaf_weight=77 70
leaf_count=77 70
internal_value=0
internal_weight=147
internal_count=147
is_linear=0
shrinkage=0.160562


Tree=131
num_leaves=2
num_cat=0
split_feature=107
split_gain=180.126
threshold=0.96339200000000014
decision_type=2
left_child=-1
right_child=-2
leaf_value=-0.20036879591703774 0.15521653259317705
leaf_weight=64 83
leaf_count=64 83
internal_value=9.99244e-06
internal_weight=147
internal_count=147
is_linear=0
shrinkage=0.160562


Tree=132
num_leaves=2
num_cat=0
split_feature=95
split_gain=179.483
threshold=1.0000000180025095e-35
decision_type=2
left_child=-1
right_child=-2
leaf_value=0.17484048775378291 -0.17723301896247196
leaf_weight=74 73
leaf_count=74 73
internal_value=0
internal_weight=147
internal_count=147
is_linear=0
shrinkage=0.160562


Tree=133
num_leaves=2
num_cat=0
split_feature=64
split_gain=180.772
threshold=0.17953300000000003
decision_type=2
left_child=-1
right_child=-2
leaf_value=-0.20921152899897974 0.14917434985446362
leaf_weight=61 86
leaf_count=61 86
internal_value=0
internal_weight=147
internal_count=147
is_linear=0
shrinkage=0.160562


Tree=134
num_leaves=2
num_cat=0
split_feature=99
split_gain=175.667
threshold=0.060839500000000005
decision_type=2
left_child=-1
right_child=-2
leaf_value=0.15524473183137613 -0.19533704960168174
leaf_weight=82 65
leaf_count=82 65
internal_value=-5.35481e-05
internal_weight=147
internal_count=147
is_linear=0
shrinkage=0.160562


Tree=135
num_leaves=2
num_cat=0
split_feature=8
split_gain=172.725
threshold=0.26000000000000006
decision_type=2
left_child=-1
right_child=-2
leaf_value=0.17372160227877709 -0.17165932579104295
leaf_weight=73 74
leaf_count=73 74
internal_value=-8.94876e-05
internal_weight=147
internal_count=147
is_linear=0
shrinkage=0.160562


Tree=136
num_leaves=2
num_cat=0
split_feature=92
split_gain=165.954
threshold=0.014788000000000003
decision_type=2
left_child=-1
right_child=-2
leaf_value=-0.15314146472827239 0.18711637563170194
leaf_weight=81 66
leaf_count=81 66
internal_value=-6.66013e-05
internal_weight=147
internal_count=147
is_linear=0
shrinkage=0.160562


Tree=137
num_leaves=2
num_cat=0
split_feature=6
split_gain=179.363
threshold=0.042572500000000006
decision_type=2
left_child=-1
right_child=-2
leaf_value=-0.14459390478357831 0.21418515369611574
leaf_weight=88 59
leaf_count=88 59
internal_value=-7.24407e-06
internal_weight=147
internal_count=147
is_linear=0
shrinkage=0.160562


Tree=138
num_leaves=2
num_cat=0
split_feature=23
split_gain=165.441
threshold=335.75325000000004
decision_type=2
left_child=-1
right_child=-2
leaf_value=0.15915923161101547 -0.17946879792577039
leaf_weight=78 69
leaf_count=78 69
internal_value=1.37046e-05
internal_weight=147
internal_count=147
is_linear=0
shrinkage=0.160562


Tree=139
num_leaves=2
num_cat=0
split_feature=36
split_gain=166.028
threshold=1.0472815000000002
decision_type=2
left_child=-1
right_child=-2
leaf_value=-0.14100022896005923 0.20328661596098233
leaf_weight=87 60
leaf_count=87 60
internal_value=0
internal_weight=147
internal_count=147
is_linear=0
shrinkage=0.160562


Tree=140
num_leaves=2
num_cat=0
split_feature=18
split_gain=166.33
threshold=10.100000000000003
decision_type=2
left_child=-1
right_child=-2
leaf_value=-0.14499763487563214 0.19801531453846888
leaf_weight=85 62
leaf_count=85 62
internal_value=5.5699e-05
internal_weight=147
internal_count=147
is_linear=0
shrinkage=0.160562


Tree=141
num_leaves=2
num_cat=0
split_feature=5
split_gain=165.834
threshold=225.85000600000004
decision_type=2
left_child=-1
right_child=-2
leaf_value=0.20329442993063998 -0.14079134733688117
leaf_weight=60 87
leaf_count=60 87
internal_value=0.000107549
internal_weight=147
internal_count=147
is_linear=0
shrinkage=0.160562


Tree=142
num_leaves=2
num_cat=0
split_feature=148
split_gain=165.167
threshold=0.44266250000000007
decision_type=2
left_child=-1
right_child=-2
leaf_value=0.17481677433208626 -0.16310496273020933
leaf_weight=71 76
leaf_count=71 76
internal_value=0.000163019
internal_weight=147
internal_count=147
is_linear=0
shrinkage=0.160562


Tree=143
num_leaves=2
num_cat=0
split_feature=90
split_gain=162.309
threshold=0.021381000000000001
decision_type=2
left_child=-1
right_child=-2
leaf_value=-0.16610030685619134 0.16870465785705055
leaf_weight=74 73
leaf_count=74 73
internal_value=0.000145662
internal_weight=147
internal_count=147
is_linear=0
shrinkage=0.160562


Tree=144
num_leaves=2
num_cat=0
split_feature=49
split_gain=147.333
threshold=23.550000500000003
decision_type=2
left_child=-1
right_child=-2
leaf_value=-0.1382801082489632 0.18390066836920876
leaf_weight=84 63
leaf_count=84 63
internal_value=0.000119638
internal_weight=147
internal_count=147
is_linear=0
shrinkage=0.160562


Tree=145
num_leaves=2
num_cat=0
split_feature=22
split_gain=158.661
threshold=11.500000000000002
decision_type=2
left_child=-1
right_child=-2
leaf_value=0.17837074301954275 -0.15354517889533023
leaf_weight=68 79
leaf_count=68 79
internal_value=0.000151915
internal_weight=147
internal_count=147
is_linear=0
shrinkage=0.160562


Tree=146
num_leaves=2
num_cat=0
split_feature=149
split_gain=146.007
threshold=1.0000000180025095e-35
decision_type=2
left_child=-1
right_child=-2
leaf_value=0.1711182792987769 -0.14728620332181427
leaf_weight=68 79
leaf_count=68 79
internal_value=0.000152846
internal_weight=147
internal_count=147
is_linear=0
shrinkage=0.160562


Tree=147
num_leaves=2
num_cat=0
split_feature=20
split_gain=158.486
threshold=1.7000000000000004
decision_type=2
left_child=-1
right_child=-2
leaf_value=0.14181491173740013 -0.19301262999983779
leaf_weight=85 62
leaf_count=85 62
internal_value=0.000152374
internal_weight=147
internal_count=147
is_linear=0
shrinkage=0.160562


Tree=148
num_leaves=2
num_cat=0
split_feature=95
split_gain=150.868
threshold=1.0000000180025095e-35
decision_type=2
left_child=-1
right_child=-2
leaf_value=0.16040771385073097 -0.16238203591765452
leaf_weight=74 73
leaf_count=74 73
internal_value=5.75709e-05
internal_weight=147
internal_count=147
is_linear=0
shrinkage=0.160562


Tree=149
num_leaves=2
num_cat=0
split_feature=63
split_gain=153.242
threshold=-1.9099999999999997
decision_type=2
left_child=-1
right_child=-2
leaf_value=-0.14110778292693113 0.18746976612643862
leaf_weight=84 63
leaf_count=84 63
internal_value=3.99234e-05
internal_weight=147
internal_count=147
is_linear=0
shrinkage=0.160562


Tree=150
num_leaves=2
num_cat=0
split_feature=55
split_gain=153.366
threshold=2.2961340000000003
decision_type=2
left_child=-1
right_child=-2
leaf_value=-0.18993216916357814 0.13944251199993571
leaf_weight=62 85
leaf_count=62 85
internal_value=8.59382e-05
internal_weight=147
internal_count=147
is_linear=0
shrinkage=0.160562


Tree=151
num_leaves=2
num_cat=0
split_feature=71
split_gain=145.614
threshold=0.20221100000000003
decision_type=2
left_child=-1
right_child=-2
leaf_value=0.16621066257166889 -0.15125012539930338
leaf_weight=70 77
leaf_count=70 77
internal_value=2.68842e-06
internal_weight=147
internal_count=147
is_linear=0
shrinkage=0.160562


Tree=152
num_leaves=2
num_cat=0
split_feature=58
split_gain=155.993
threshold=0.10412850000000001
decision_type=2
left_child=-1
right_child=-2
leaf_value=-0.13475290304977167 0.199837108658415
leaf_weight=88 59
leaf_count=88 59
internal_value=1.51657e-05
internal_weight=147
internal_count=147
is_linear=0
shrinkage=0.160562


Tree=153
num_leaves=2
num_cat=0
split_feature=7
split_gain=144.591
threshold=57.600000500000007
decision_type=2
left_child=-1
right_child=-2
leaf_value=-0.13330444853903886 0.18721616853748282
leaf_weight=86 61
leaf_count=86 61
internal_value=8.87123e-05
internal_weight=147
internal_count=147
is_linear=0
shrinkage=0.160562


Tree=154
num_leaves=2
num_cat=0
split_feature=6
split_gain=139.823
threshold=0.042572500000000006
decision_type=2
left_child=-1
right_child=-2
leaf_value=-0.12745445672204714 0.18931906701605983
leaf_weight=88 59
leaf_count=88 59
internal_value=0.000136387
internal_weight=147
internal_count=147
is_linear=0
shrinkage=0.160562


Tree=155
num_leaves=2
num_cat=0
split_feature=206
split_gain=140.049
threshold=16.835000000000004
decision_type=2
left_child=-1
right_child=-2
leaf_value=-0.13660160935578303 0.17694022991976494
leaf_weight=83 64
leaf_count=83 64
internal_value=0.000186423
internal_weight=147
internal_count=147
is_linear=0
shrinkage=0.160562


Tree=156
num_leaves=2
num_cat=0
split_feature=137
split_gain=136.662
threshold=3.8741355000000004
decision_type=2
left_child=-1
right_child=-2
leaf_value=0.13724435641391289 -0.17197567921061158
leaf_weight=82 65
leaf_count=82 65
internal_value=0.000201332
internal_weight=147
internal_count=147
is_linear=0
shrinkage=0.160562


Tree=157
num_leaves=2
num_cat=0
split_feature=125
split_gain=140.93
threshold=253.50000000000003
decision_type=2
left_child=-1
right_child=-2
leaf_value=-0.16777704548898126 0.14504284594253891
leaf_weight=68 79
leaf_count=68 79
internal_value=0.000119382
internal_weight=147
internal_count=147
is_linear=0
shrinkage=0.160562


Tree=158
num_leaves=2
num_cat=0
split_feature=17
split_gain=128.158
threshold=25.381023500000001
decision_type=2
left_child=-1
right_child=-2
leaf_value=0.17869106404954579 -0.12379328610907643
leaf_weight=60 87
leaf_count=60 87
internal_value=6.56915e-05
internal_weight=147
internal_count=147
is_linear=0
shrinkage=0.160562


Tree=159
num_leaves=2
num_cat=0
split_feature=21
split_gain=130.944
threshold=44.000000000000007
decision_type=2
left_child=-1
right_child=-2
leaf_value=0.12538846337184265 -0.18036615840908621
leaf_weight=87 60
leaf_count=87 60
internal_value=0.000118312
internal_weight=147
internal_count=147
is_linear=0
shrinkage=0.160562


Tree=160
num_leaves=2
num_cat=0
split_feature=20
split_gain=122.81
threshold=1.7000000000000004
decision_type=2
left_child=-1
right_child=-2
leaf_value=0.12473210268936324 -0.17000978777788725
leaf_weight=85 62
leaf_count=85 62
internal_value=2.42133e-05
internal_weight=147
internal_count=147
is_linear=0
shrinkage=0.160562


Tree=161
num_leaves=2
num_cat=0
split_feature=150
split_gain=128.458
threshold=-0.041868999999999996
decision_type=2
left_child=-1
right_child=-2
leaf_value=-0.1421035367709795 0.15607011491555209
leaf_weight=77 70
leaf_count=77 70
internal_value=0
internal_weight=147
internal_count=147
is_linear=0
shrinkage=0.160562


Tree=162
num_leaves=2
num_cat=0
split_feature=43
split_gain=126.092
threshold=1.7750015000000003
decision_type=2
left_child=-1
right_child=-2
leaf_value=0.13522578288544959 -0.16098886471091892
leaf_weight=80 67
leaf_count=80 67
internal_value=0
internal_weight=147
internal_count=147
is_linear=0
shrinkage=0.160562


Tree=163
num_leaves=2
num_cat=0
split_feature=83
split_gain=125.5
threshold=76.599998500000012
decision_type=2
left_child=-1
right_child=-2
leaf_value=0.14816610752408904 -0.14623755936501262
leaf_weight=73 74
leaf_count=73 74
internal_value=0
internal_weight=147
internal_count=147
is_linear=0
shrinkage=0.160562


Tree=164
num_leaves=2
num_cat=0
split_feature=171
split_gain=126.463
threshold=-0.038218499999999996
decision_type=2
left_child=-1
right_child=-2
leaf_value=-0.16794424258483373 0.13000180829098873
leaf_weight=64 83
leaf_count=64 83
internal_value=0
internal_weight=147
internal_count=147
is_linear=0
shrinkage=0.160562


Tree=165
num_leaves=2
num_cat=0
split_feature=10
split_gain=125.928
threshold=0.029436500000000001
decision_type=2
left_child=-1
right_child=-2
leaf_value=-0.12630488206668819 0.17215545537919325
leaf_weight=85 62
leaf_count=85 62
internal_value=-2.41434e-05
internal_weight=147
internal_count=147
is_linear=0
shrinkage=0.160562


Tree=166
num_leaves=2
num_cat=0
split_feature=2
split_gain=121.198
threshold=17.385714500000002
decision_type=2
left_child=-1
right_child=-2
leaf_value=0.1343689407405145 -0.15572624550124134
leaf_weight=79 68
leaf_count=79 68
internal_value=0
internal_weight=147
internal_count=147
is_linear=0
shrinkage=0.160562


Tree=167
num_leaves=2
num_cat=0
split_feature=59
split_gain=121.998
threshold=9.1845370000000006
decision_type=2
left_child=-1
right_child=-2
leaf_value=-0.13123646067957256 0.16050000077340917
leaf_weight=81 66
leaf_count=81 66
internal_value=0
internal_weight=147
internal_count=147
is_linear=0
shrinkage=0.160562


Tree=168
num_leaves=2
num_cat=0
split_feature=62
split_gain=118.749
threshold=6.2175155000000002
decision_type=2
left_child=-1
right_child=-2
leaf_value=-0.14607194850734179 0.14035480659349478
leaf_weight=72 75
leaf_count=72 75
internal_value=0
internal_weight=147
internal_count=147
is_linear=0
shrinkage=0.160562


Tree=169
num_leaves=2
num_cat=0
split_feature=140
split_gain=121.667
threshold=11.735797000000002
decision_type=2
left_child=-1
right_child=-2
leaf_value=0.12928212907149966 -0.16248165232333481
leaf_weight=82 65
leaf_count=82 65
internal_value=0
internal_weight=147
internal_count=147
is_linear=0
shrinkage=0.160562


Tree=170
num_leaves=2
num_cat=0
split_feature=111
split_gain=119.914
threshold=1.0000000180025095e-35
decision_type=2
left_child=-1
right_child=-2
leaf_value=-0.13732526253717156 0.15076179785591678
leaf_weight=77 70
leaf_count=77 70
internal_value=0
internal_weight=147
internal_count=147
is_linear=0
shrinkage=0.160562


Tree=171
num_leaves=2
num_cat=0
split_feature=122
split_gain=118.212
threshold=1.0000000180025095e-35
decision_type=2
left_child=-1
right_child=-2
leaf_value=0.13448270698735779 -0.15175914677124255
leaf_weight=78 69
leaf_count=78 69
internal_value=0
internal_weight=147
internal_count=147
is_linear=0
shrinkage=0.160562


Tree=172
num_leaves=2
num_cat=0
split_feature=169
split_gain=114.198
threshold=26.409996000000003
decision_type=2
left_child=-1
right_child=-2
leaf_value=0.16396764367973968 -0.12025268138142159
leaf_weight=62 85
leaf_count=62 85
internal_value=0
internal_weight=147
internal_count=147
is_linear=0
shrinkage=0.160562


Tree=173
num_leaves=2
num_cat=0
split_feature=209
split_gain=114.892
threshold=0.025842500000000004
decision_type=2
left_child=-1
right_child=-2
leaf_value=-0.12730851408283975 0.15580434134367926
leaf_weight=81 66
leaf_count=81 66
internal_value=0
internal_weight=147
internal_count=147
is_linear=0
shrinkage=0.160562


Tree=174
num_leaves=2
num_cat=0
split_feature=31
split_gain=115.538
threshold=0.91939300000000013
decision_type=2
left_child=-1
right_child=-2
leaf_value=0.16962750576708593 -0.11757773886405687
leaf_weight=60 87
leaf_count=60 87
internal_value=2.27122e-05
internal_weight=147
internal_count=147
is_linear=0
shrinkage=0.160562


Tree=175
num_leaves=2
num_cat=0
split_feature=71
split_gain=108.897
threshold=0.20221100000000003
decision_type=2
left_child=-1
right_child=-2
leaf_value=0.1438169359006703 -0.13071795756502097
leaf_weight=70 77
leaf_count=70 77
internal_value=7.86496e-05
internal_weight=147
internal_count=147
is_linear=0
shrinkage=0.160562


Tree=176
num_leaves=2
num_cat=0
split_feature=0
split_gain=109.385
threshold=10.950000000000001
decision_type=2
left_child=-1
right_child=-2
leaf_value=-0.11916943605109089 0.1584356349257868
leaf_weight=84 63
leaf_count=84 63
internal_value=7.65831e-05
internal_weight=147
internal_count=147
is_linear=0
shrinkage=0.160562


Tree=177
num_leaves=2
num_cat=0
split_feature=8
split_gain=111.431
threshold=0.26000000000000006
decision_type=2
left_child=-1
right_child=-2
leaf_value=0.13977792415546098 -0.13763310952803326
leaf_weight=73 74
leaf_count=73 74
internal_value=0.000107781
internal_weight=147
internal_count=147
is_linear=0
shrinkage=0.160562


Tree=178
num_leaves=2
num_cat=0
split_feature=58
split_gain=111.08
threshold=0.10412850000000001
decision_type=2
left_child=-1
right_child=-2
leaf_value=-0.1136314187644043 0.16871179260082025
leaf_weight=88 59
leaf_count=88 59
internal_value=8.72558e-05
internal_weight=147
internal_count=147
is_linear=0
shrinkage=0.160562


Tree=179
num_leaves=2
num_cat=0
split_feature=42
split_gain=110.238
threshold=35.659265500000011
decision_type=2
left_child=-1
right_child=-2
leaf_value=0.13005138456211435 -0.1463675014715245
leaf_weight=78 69
leaf_count=78 69
internal_value=0.000136641
internal_weight=147
internal_count=147
is_linear=0
shrinkage=0.160562


Tree=180
num_leaves=2
num_cat=0
split_feature=22
split_gain=105.286
threshold=11.500000000000002
decision_type=2
left_child=-1
right_child=-2
leaf_value=0.14527424857082782 -0.12510796102592012
leaf_weight=68 79
leaf_count=68 79
internal_value=8.82571e-05
internal_weight=147
internal_count=147
is_linear=0
shrinkage=0.160562


Tree=181
num_leaves=2
num_cat=0
split_feature=55
split_gain=107.6
threshold=2.2961340000000003
decision_type=2
left_child=-1
right_child=-2
leaf_value=-0.15906132053075137 0.11682545653239929
leaf_weight=62 85
leaf_count=62 85
internal_value=9.35438e-05
internal_weight=147
internal_count=147
is_linear=0
shrinkage=0.160562


Tree=182
num_leaves=2
num_cat=0
split_feature=28
split_gain=107.001
threshold=15.350000000000003
decision_type=2
left_child=-1
right_child=-2
leaf_value=-0.12450143730210975 0.14836929918954414
leaf_weight=80 67
leaf_count=80 67
internal_value=1.94549e-05
internal_weight=147
internal_count=147
is_linear=0
shrinkage=0.160562


Tree=183
num_leaves=2
num_cat=0
split_feature=16
split_gain=107.48
threshold=60.600000500000007
decision_type=2
left_child=-1
right_child=-2
leaf_value=0.15488932304275504 -0.11978582973674463
leaf_weight=64 83
leaf_count=64 83
internal_value=4.04528e-05
internal_weight=147
internal_count=147
is_linear=0
shrinkage=0.160562


Tree=184
num_leaves=2
num_cat=0
split_feature=96
split_gain=103.413
threshold=0.81807400000000008
decision_type=2
left_child=-1
right_child=-2
leaf_value=0.15833163275888323 -0.11273277042279731
leaf_weight=61 86
leaf_count=61 86
internal_value=7.22108e-05
internal_weight=147
internal_count=147
is_linear=0
shrinkage=0.160562


Tree=185
num_leaves=2
num_cat=0
split_feature=167
split_gain=107.321
threshold=254.19999700000002
decision_type=2
left_child=-1
right_child=-2
leaf_value=-0.11800348796073029 0.1569700407609953
leaf_weight=84 63
leaf_count=84 63
internal_value=0.00011208
internal_weight=147
internal_count=147
is_linear=0
shrinkage=0.160562


Tree=186
num_leaves=2
num_cat=0
split_feature=185
split_gain=99.4874
threshold=-0.0081449999999999977
decision_type=2
left_child=-1
right_child=-2
leaf_value=0.15752250416910543 -0.10898757351603182
leaf_weight=60 87
leaf_count=60 87
internal_value=0.000137202
internal_weight=147
internal_count=147
is_linear=0
shrinkage=0.160562


Tree=187
num_leaves=2
num_cat=0
split_feature=19
split_gain=97.1492
threshold=0.23000000000000004
decision_type=2
left_child=-1
right_child=-2
leaf_value=0.10957572912346332 -0.15315112645723974
leaf_weight=86 61
leaf_count=86 61
internal_value=0.000170329
internal_weight=147
internal_count=147
is_linear=0
shrinkage=0.160562


Tree=188
num_leaves=2
num_cat=0
split_feature=71
split_gain=94.7582
threshold=0.20221100000000003
decision_type=2
left_child=-1
right_child=-2
leaf_value=0.13416716860852548 -0.12192562060948248
leaf_weight=70 77
leaf_count=70 77
internal_value=8.2231e-05
internal_weight=147
internal_count=147
is_linear=0
shrinkage=0.160562


Tree=189
num_leaves=2
num_cat=0
split_feature=10
split_gain=95.7575
threshold=-0.23331149999999998
decision_type=2
left_child=-1
right_child=-2
leaf_value=-0.15641552400399628 0.10573249504724079
leaf_weight=59 88
leaf_count=59 88
internal_value=7.85144e-05
internal_weight=147
internal_count=147
is_linear=0
shrinkage=0.160562


Tree=190
num_leaves=2
num_cat=0
split_feature=20
split_gain=101.177
threshold=1.0000000180025095e-35
decision_type=2
left_child=-1
right_child=-2
leaf_value=0.13488223793539827 -0.12950488369629656
leaf_weight=72 75
leaf_count=72 75
internal_value=0
internal_weight=147
internal_count=147
is_linear=0
shrinkage=0.160562


Tree=191
num_leaves=2
num_cat=0
split_feature=72
split_gain=94.1866
threshold=0.0037675000000000004
decision_type=2
left_child=-1
right_child=-2
leaf_value=-0.10765540382771595 0.15103458896198982
leaf_weight=86 61
leaf_count=86 61
internal_value=0
internal_weight=147
internal_count=147
is_linear=0
shrinkage=0.160562


Tree=192
num_leaves=2
num_cat=0
split_feature=5
split_gain=97.1547
threshold=225.85000600000004
decision_type=2
left_child=-1
right_child=-2
leaf_value=0.15557706575878985 -0.10779001320716211
leaf_weight=60 87
leaf_count=60 87
internal_value=4.67134e-05
internal_weight=147
internal_count=147
is_linear=0
shrinkage=0.160562


Tree=193
num_leaves=2
num_cat=0
split_feature=102
split_gain=94.0902
threshold=37.255523500000002
decision_type=2
left_child=-1
right_child=-2
leaf_value=-0.11825736080469698 0.13734514610382442
leaf_weight=79 68
leaf_count=79 68
internal_value=9.34281e-05
internal_weight=147
internal_count=147
is_linear=0
shrinkage=0.160562


Tree=194
num_leaves=2
num_cat=0
split_feature=171
split_gain=94.8933
threshold=-0.039116999999999992
decision_type=2
left_child=-1
right_child=-2
leaf_value=-0.15143335872602204 0.10822521049722707
leaf_weight=61 86
leaf_count=61 86
internal_value=9.65291e-05
internal_weight=147
internal_count=147
is_linear=0
shrinkage=0.160562


Tree=195
num_leaves=2
num_cat=0
split_feature=92
split_gain=91.3662
threshold=1.0000000180025095e-35
decision_type=2
left_child=-1
right_child=-2
leaf_value=-0.11818339945071747 0.13346512815277989
leaf_weight=78 69
leaf_count=78 69
internal_value=2.07425e-05
internal_weight=147
internal_count=147
is_linear=0
shrinkage=0.160562


Tree=196
num_leaves=2
num_cat=0
split_feature=43
split_gain=95.1788
threshold=1.7750015000000003
decision_type=2
left_child=-1
right_child=-2
leaf_value=0.11754218167237025 -0.13981346174376763
leaf_weight=80 67
leaf_count=80 67
internal_value=3.07248e-05
internal_weight=147
internal_count=147
is_linear=0
shrinkage=0.160562


Tree=197
num_leaves=2
num_cat=0
split_feature=6
split_gain=90.2595
threshold=0.042572500000000006
decision_type=2
left_child=-1
right_child=-2
leaf_value=-0.10251265020310905 0.1519983879044644
leaf_weight=88 59
leaf_count=88 59
internal_value=0
internal_weight=147
internal_count=147
is_linear=0
shrinkage=0.160562


Tree=198
num_leaves=2
num_cat=0
split_feature=23
split_gain=88.1399
threshold=335.75325000000004
decision_type=2
left_child=-1
right_child=-2
leaf_value=0.11621981551664053 -0.1309456666421048
leaf_weight=78 69
leaf_count=78 69
internal_value=4.95114e-05
internal_weight=147
internal_count=147
is_linear=0
shrinkage=0.160562


Tree=199
num_leaves=2
num_cat=0
split_feature=58
split_gain=90.0977
threshold=0.10412850000000001
decision_type=2
left_child=-1
right_child=-2
leaf_value=-0.10239563564604301 0.15188718563854428
leaf_weight=88 59
leaf_count=88 59
internal_value=1.71133e-05
internal_weight=147
internal_count=147
is_linear=0
shrinkage=0.160562


Tree=200
num_leaves=2
num_cat=0
split_feature=137
split_gain=85.544
threshold=3.8741355000000004
decision_type=2
left_child=-1
right_child=-2
leaf_value=0.10850378236274606 -0.13614273358696061
leaf_weight=82 65
leaf_count=82 65
internal_value=7.07297e-05
internal_weight=147
internal_count=147
is_linear=0
shrinkage=0.160562


Tree=201
num_leaves=2
num_cat=0
split_feature=40
split_gain=85.2688
threshold=15.350000000000003
decision_type=2
left_child=-1
right_child=-2
leaf_value=-0.11113617860431647 0.13245327045590244
leaf_weight=80 67
leaf_count=80 67
internal_value=1.86782e-05
internal_weight=147
internal_count=147
is_linear=0
shrinkage=0.160562


Tree=202
num_leaves=2
num_cat=0
split_feature=84
split_gain=87.4721
threshold=-0.65751899999999985
decision_type=2
left_child=-1
right_child=-2
leaf_value=-0.149532086210134 0.10101824302070957
leaf_weight=59 88
leaf_count=59 88
internal_value=3.65832e-05
internal_weight=147
internal_count=147
is_linear=0
shrinkage=0.160562


Tree=203
num_leaves=2
num_cat=0
split_feature=79
split_gain=83.7863
threshold=24.832266000000004
decision_type=2
left_child=-1
right_child=-2
leaf_value=0.10439645391644023 -0.13856412871218679
leaf_weight=84 63
leaf_count=84 63
internal_value=0
internal_weight=147
internal_count=147
is_linear=0
shrinkage=0.160562


Tree=204
num_leaves=2
num_cat=0
split_feature=140
split_gain=84.5102
threshold=11.735797000000002
decision_type=2
left_child=-1
right_child=-2
leaf_value=0.10769792000730749 -0.13546588100831361
leaf_weight=82 65
leaf_count=82 65
internal_value=-5.64146e-06
internal_weight=147
internal_count=147
is_linear=0
shrinkage=0.160562


Tree=205
num_leaves=2
num_cat=0
split_feature=7
split_gain=88.6855
threshold=57.600000500000007
decision_type=2
left_child=-1
right_child=-2
leaf_value=-0.10456754682446144 0.14645426764655234
leaf_weight=86 61
leaf_count=86 61
internal_value=-3.37587e-05
internal_weight=147
internal_count=147
is_linear=0
shrinkage=0.160562


Tree=206
num_leaves=2
num_cat=0
split_feature=55
split_gain=86.7645
threshold=2.2961340000000003
decision_type=2
left_child=-1
right_child=-2
leaf_value=-0.14295620816006024 0.10478395488800807
leaf_weight=62 85
leaf_count=62 85
internal_value=0
internal_weight=147
internal_count=147
is_linear=0
shrinkage=0.160562


Tree=207
num_leaves=2
num_cat=0
split_feature=63
split_gain=82.7175
threshold=-1.9099999999999997
decision_type=2
left_child=-1
right_child=-2
leaf_value=-0.10378095546085599 0.13762490243092756
leaf_weight=84 63
leaf_count=84 63
internal_value=-1.66937e-05
internal_weight=147
internal_count=147
is_linear=0
shrinkage=0.160562


Tree=208
num_leaves=2
num_cat=0
split_feature=36
split_gain=79.6319
threshold=1.0472815000000002
decision_type=2
left_child=-1
right_child=-2
leaf_value=-0.097663996677952211 0.14077269094282505
leaf_weight=87 60
leaf_count=87 60
internal_value=0
internal_weight=147
internal_count=147
is_linear=0
shrinkage=0.160562


Tree=209
num_leaves=2
num_cat=0
split_feature=20
split_gain=79.7676
threshold=1.7000000000000004
decision_type=2
left_child=-1
right_child=-2
leaf_value=0.10052821591974612 -0.13701274462592994
leaf_weight=85 62
leaf_count=85 62
internal_value=1.54157e-05
internal_weight=147
internal_count=147
is_linear=0
shrinkage=0.160562


Tree=210
num_leaves=2
num_cat=0
split_feature=95
split_gain=83.083
threshold=1.0000000180025095e-35
decision_type=2
left_child=-1
right_child=-2
leaf_value=0.11896565277630904 -0.12057387561174288
leaf_weight=74 73
leaf_count=74 73
internal_value=0
internal_weight=147
internal_count=147
is_linear=0
shrinkage=0.160562


Tree=211
num_leaves=2
num_cat=0
split_feature=217
split_gain=85.9255
threshold=0.15771950000000004
decision_type=2
left_child=-1
right_child=-2
leaf_value=-0.10145127139125727 0.14622856705533716
leaf_weight=87 60
leaf_count=87 60
internal_value=0
internal_weight=147
internal_count=147
is_linear=0
shrinkage=0.160562


Tree=212
num_leaves=2
num_cat=0
split_feature=92
split_gain=78.3324
threshold=1.0000000180025095e-35
decision_type=2
left_child=-1
right_child=-2
leaf_value=-0.10942961167649291 0.12357917487897054
leaf_weight=78 69
leaf_count=78 69
internal_value=1.63557e-05
internal_weight=147
internal_count=147
is_linear=0
shrinkage=0.160562


Tree=213
num_leaves=2
num_cat=0
split_feature=125
split_gain=77.5324
threshold=271.50000000000006
decision_type=2
left_child=-1
right_child=-2
leaf_value=-0.10313434636157211 0.12977444689851672
leaf_weight=82 65
leaf_count=82 65
internal_value=2.5621e-05
internal_weight=147
internal_count=147
is_linear=0
shrinkage=0.160562


Tree=214
num_leaves=2
num_cat=0
split_feature=216
split_gain=77.9683
threshold=-0.64395699999999989
decision_type=2
left_child=-1
right_child=-2
leaf_value=-0.12150936198404579 0.11079010747449616
leaf_weight=70 77
leaf_count=70 77
internal_value=4.91105e-05
internal_weight=147
internal_count=147
is_linear=0
shrinkage=0.160562


Tree=215
num_leaves=2
num_cat=0
split_feature=41
split_gain=76.437
threshold=51.899999500000007
decision_type=2
left_child=-1
right_child=-2
leaf_value=-0.10102329666598224 0.13061356123576337
leaf_weight=83 64
leaf_count=83 64
internal_value=2.18228e-05
internal_weight=147
internal_count=147
is_linear=0
shrinkage=0.160562


Tree=216
num_leaves=2
num_cat=0
split_feature=16
split_gain=72.7971
threshold=60.600000500000007
decision_type=2
left_child=-1
right_child=-2
leaf_value=0.12749476181083061 -0.09855962505020481
leaf_weight=64 83
leaf_count=64 83
internal_value=4.96363e-05
internal_weight=147
internal_count=147
is_linear=0
shrinkage=0.160562


Tree=217
num_leaves=2
num_cat=0
split_feature=0
split_gain=75.3612
threshold=10.950000000000001
decision_type=2
left_child=-1
right_child=-2
leaf_value=-0.098899880341727947 0.13152162248949226
leaf_weight=84 63
leaf_count=84 63
internal_value=7.21599e-05
internal_weight=147
internal_count=147
is_linear=0
shrinkage=0.160562


Tree=218
num_leaves=2
num_cat=0
split_feature=71
split_gain=78.9287
threshold=0.20221100000000003
decision_type=2
left_child=-1
right_child=-2
leaf_value=0.12247275880665991 -0.11125300551457679
leaf_weight=70 77
leaf_count=70 77
internal_value=9.57042e-05
internal_weight=147
internal_count=147
is_linear=0
shrinkage=0.160562


Tree=219
num_leaves=2
num_cat=0
split_feature=8
split_gain=73.4316
threshold=0.26000000000000006
decision_type=2
left_child=-1
right_child=-2
leaf_value=0.11347695942056321 -0.111720001934572
leaf_weight=73 74
leaf_count=73 74
internal_value=8.85392e-05
internal_weight=147
internal_count=147
is_linear=0
shrinkage=0.160562


Tree=220
num_leaves=2
num_cat=0
split_feature=58
split_gain=70.5322
threshold=0.10412850000000001
decision_type=2
left_child=-1
right_child=-2
leaf_value=-0.090538662545930043 0.13444646761303999
leaf_weight=88 59
leaf_count=88 59
internal_value=7.06203e-05
internal_weight=147
internal_count=147
is_linear=0
shrinkage=0.160562


Tree=221
num_leaves=2
num_cat=0
split_feature=2
split_gain=72.5719
threshold=17.385714500000002
decision_type=2
left_child=-1
right_child=-2
leaf_value=0.10411592879777259 -0.12036382127716738
leaf_weight=79 68
leaf_count=79 68
internal_value=0.000108613
internal_weight=147
internal_count=147
is_linear=0
shrinkage=0.160562


Tree=222
num_leaves=2
num_cat=0
split_feature=59
split_gain=71.682
threshold=9.1845370000000006
decision_type=2
left_child=-1
right_child=-2
leaf_value=-0.10047922187432327 0.12314486806198545
leaf_weight=81 66
leaf_count=81 66
internal_value=6.48129e-05
internal_weight=147
internal_count=147
is_linear=0
shrinkage=0.160562


Tree=223
num_leaves=2
num_cat=0
split_feature=10
split_gain=71.6289
threshold=-0.23331149999999998
decision_type=2
left_child=-1
right_child=-2
leaf_value=-0.13526724469356582 0.091460272622133756
leaf_weight=59 88
leaf_count=59 88
internal_value=7.70099e-05
internal_weight=147
internal_count=147
is_linear=0
shrinkage=0.160562


Tree=224
num_leaves=2
num_cat=0
split_feature=215
split_gain=70.4445
threshold=-0.093672999999999992
decision_type=2
left_child=-1
right_child=-2
leaf_value=0.094462349812481916 -0.12876571399767137
leaf_weight=85 62
leaf_count=85 62
internal_value=3.60392e-06
internal_weight=147
internal_count=147
is_linear=0
shrinkage=0.160562


Tree=225
num_leaves=2
num_cat=0
split_feature=20
split_gain=69.8217
threshold=1.0000000180025095e-35
decision_type=2
left_child=-1
right_child=-2
leaf_value=0.11201283235974363 -0.10761854227014203
leaf_weight=72 75
leaf_count=72 75
internal_value=0
internal_weight=147
internal_count=147
is_linear=0
shrinkage=0.160562


Tree=226
num_leaves=2
num_cat=0
split_feature=88
split_gain=69.7585
threshold=54.300003000000011
decision_type=2
left_child=-1
right_child=-2
leaf_value=-0.10756288003847933 0.11196908174395147
leaf_weight=75 72
leaf_count=75 72
internal_value=0
internal_weight=147
internal_count=147
is_linear=0
shrinkage=0.160562


Tree=227
num_leaves=2
num_cat=0
split_feature=72
split_gain=67.3585
threshold=0.0037675000000000004
decision_type=2
left_child=-1
right_child=-2
leaf_value=-0.091066406261693988 0.12770034789658202
leaf_weight=86 61
leaf_count=86 61
internal_value=0
internal_weight=147
internal_count=147
is_linear=0
shrinkage=0.160562


Tree=228
num_leaves=2
num_cat=0
split_feature=143
split_gain=66.8995
threshold=1.0336320000000001
decision_type=2
left_child=-1
right_child=-2
leaf_value=0.097215813650477378 -0.11881977563866603
leaf_weight=81 66
leaf_count=81 66
internal_value=1.23528e-05
internal_weight=147
internal_count=147
is_linear=0
shrinkage=0.160562


Tree=229
num_leaves=2
num_cat=0
split_feature=5
split_gain=65.9347
threshold=225.85000600000004
decision_type=2
left_child=-1
right_child=-2
leaf_value=0.1281111133921842 -0.088852419255762774
leaf_weight=60 87
leaf_count=60 87
internal_value=0
internal_weight=147
internal_count=147
is_linear=0
shrinkage=0.160562


Tree=230
num_leaves=2
num_cat=0
split_feature=216
split_gain=67.663
threshold=-0.64395699999999989
decision_type=2
left_child=-1
right_child=-2
leaf_value=-0.11321337862159467 0.10319026066423428
leaf_weight=70 77
leaf_count=70 77
internal_value=2.44007e-05
internal_weight=147
internal_count=147
is_linear=0
shrinkage=0.160562


Tree=231
num_leaves=2
num_cat=0
split_feature=84
split_gain=65.4737
threshold=-0.65751899999999985
decision_type=2
left_child=-1
right_child=-2
leaf_value=-0.12939440134468969 0.087372871239106767
leaf_weight=59 88
leaf_count=59 88
internal_value=1.95385e-06
internal_weight=147
internal_count=147
is_linear=0
shrinkage=0.160562


Tree=232
num_leaves=2
num_cat=0
split_feature=9
split_gain=62.2602
threshold=316.75000000000006
decision_type=2
left_child=-1
right_child=-2
leaf_value=0.089971425464763666 -0.11946603071240627
leaf_weight=84 63
leaf_count=84 63
internal_value=0
internal_weight=147
internal_count=147
is_linear=0
shrinkage=0.160562


Tree=233
num_leaves=2
num_cat=0
split_feature=66
split_gain=66.8202
threshold=31.970000500000001
decision_type=2
left_child=-1
right_child=-2
leaf_value=0.11251282288151551 -0.10253899763554528
leaf_weight=70 77
leaf_count=70 77
internal_value=-1.73062e-05
internal_weight=147
internal_count=147
is_linear=0
shrinkage=0.160562


Tree=234
num_leaves=2
num_cat=0
split_feature=79
split_gain=64.8663
threshold=24.832266000000004
decision_type=2
left_child=-1
right_child=-2
leaf_value=0.091823066105506806 -0.12195283218770676
leaf_weight=84 63
leaf_count=84 63
internal_value=0
internal_weight=147
internal_count=147
is_linear=0
shrinkage=0.160562


Tree=235
num_leaves=2
num_cat=0
split_feature=1
split_gain=64.715
threshold=1.0000000180025095e-35
decision_type=2
left_child=-1
right_child=-2
leaf_value=0.099447159617308406 -0.11234226355282506
leaf_weight=78 69
leaf_count=78 69
internal_value=-2.8692e-05
internal_weight=147
internal_count=147
is_linear=0
shrinkage=0.160562


Tree=236
num_leaves=2
num_cat=0
split_feature=148
split_gain=61.2999
threshold=0.44266250000000007
decision_type=2
left_child=-1
right_child=-2
leaf_value=0.10630900342335352 -0.09955703729274569
leaf_weight=71 76
leaf_count=71 76
internal_value=-3.43921e-05
internal_weight=147
internal_count=147
is_linear=0
shrinkage=0.160562


Tree=237
num_leaves=2
num_cat=0
split_feature=209
split_gain=64.2234
threshold=0.025842500000000004
decision_type=2
left_child=-1
right_child=-2
leaf_value=-0.095254624178875619 0.11641592605205188
leaf_weight=81 66
leaf_count=81 66
internal_value=-1.44567e-05
internal_weight=147
internal_count=147
is_linear=0
shrinkage=0.160562


Tree=238
num_leaves=2
num_cat=0
split_feature=125
split_gain=63.1971
threshold=271.50000000000006
decision_type=2
left_child=-1
right_child=-2
leaf_value=-0.093185273918382591 0.11709225746932334
leaf_weight=82 65
leaf_count=82 65
internal_value=0
internal_weight=147
internal_count=147
is_linear=0
shrinkage=0.160562


Tree=239
num_leaves=2
num_cat=0
split_feature=167
split_gain=62.1887
threshold=254.19999700000002
decision_type=2
left_child=-1
right_child=-2
leaf_value=-0.089923752290375497 0.11939346848605929
leaf_weight=84 63
leaf_count=84 63
internal_value=0
internal_weight=147
internal_count=147
is_linear=0
shrinkage=0.160562


Tree=240
num_leaves=2
num_cat=0
split_feature=55
split_gain=61.7496
threshold=2.2961340000000003
decision_type=2
left_child=-1
right_child=-2
leaf_value=-0.1205446107634655 0.088453503094743785
leaf_weight=62 85
leaf_count=62 85
internal_value=1.38982e-05
internal_weight=147
internal_count=147
is_linear=0
shrinkage=0.160562


Tree=241
num_leaves=2
num_cat=0
split_feature=71
split_gain=60.1472
threshold=0.20221100000000003
decision_type=2
left_child=-1
right_child=-2
leaf_value=0.10680016105982856 -0.097231083055060216
leaf_weight=70 77
leaf_count=70 77
internal_value=0
internal_weight=147
internal_count=147
is_linear=0
shrinkage=0.160562


Tree=242
num_leaves=2
num_cat=0
split_feature=28
split_gain=59.2563
threshold=15.350000000000003
decision_type=2
left_child=-1
right_child=-2
leaf_value=-0.092678336335405953 0.11038458575046574
leaf_weight=80 67
leaf_count=80 67
internal_value=0
internal_weight=147
internal_count=147
is_linear=0
shrinkage=0.160562


Tree=243
num_leaves=2
num_cat=0
split_feature=121
split_gain=59.0785
threshold=19.460000500000003
decision_type=2
left_child=-1
right_child=-2
leaf_value=-0.095046171659920131 0.10731002494813223
leaf_weight=78 69
leaf_count=78 69
internal_value=0
internal_weight=147
internal_count=147
is_linear=0
shrinkage=0.160562


Tree=244
num_leaves=2
num_cat=0
split_feature=22
split_gain=57.4375
threshold=11.500000000000002
decision_type=2
left_child=-1
right_child=-2
leaf_value=0.10725224552036475 -0.092453509296885741
leaf_weight=68 79
leaf_count=68 79
internal_value=7.08135e-06
internal_weight=147
internal_count=147
is_linear=0
shrinkage=0.160562


Tree=245
num_leaves=2
num_cat=0
split_feature=198
split_gain=56.7097
threshold=1.0000000180025095e-35
decision_type=2
left_child=-1
right_child=-2
leaf_value=0.093209219347932401 -0.10504852985118447
leaf_weight=78 69
leaf_count=78 69
internal_value=1.86508e-05
internal_weight=147
internal_count=147
is_linear=0
shrinkage=0.160562


Tree=246
num_leaves=2
num_cat=0
split_feature=96
split_gain=56.2449
threshold=0.81807400000000008
decision_type=2
left_child=-1
right_child=-2
leaf_value=0.11671914172958114 -0.083187301051150547
leaf_weight=61 86
leaf_count=61 86
internal_value=0
internal_weight=147
internal_count=147
is_linear=0
shrinkage=0.160562


Tree=247
num_leaves=2
num_cat=0
split_feature=21
split_gain=56.3064
threshold=44.000000000000007
decision_type=2
left_child=-1
right_child=-2
leaf_value=0.082190268924798748 -0.118307055411332
leaf_weight=87 60
leaf_count=87 60
internal_value=3.19443e-05
internal_weight=147
internal_count=147
is_linear=0
shrinkage=0.160562


Tree=248
num_leaves=2
num_cat=0
split_feature=102
split_gain=54.5874
threshold=37.255523500000002
decision_type=2
left_child=-1
right_child=-2
leaf_value=-0.090160875004246438 0.10452721602307351
leaf_weight=79 68
leaf_count=79 68
internal_value=0
internal_weight=147
internal_count=147
is_linear=0
shrinkage=0.160562


Tree=249
num_leaves=2
num_cat=0
split_feature=217
split_gain=52.8691
threshold=0.15771950000000004
decision_type=2
left_child=-1
right_child=-2
leaf_value=-0.07954772710667081 0.11473341484801096
leaf_weight=87 60
leaf_count=87 60
internal_value=0
internal_weight=147
internal_count=147
is_linear=0
shrinkage=0.160562


Tree=250
num_leaves=2
num_cat=0
split_feature=206
split_gain=53.5375
threshold=16.195001000000001
decision_type=2
left_child=-1
right_child=-2
leaf_value=-0.10626943112504253 0.086990872874392638
leaf_weight=66 81
leaf_count=66 81
internal_value=3.12693e-05
internal_weight=147
internal_count=147
is_linear=0
shrinkage=0.160562


Tree=251
num_leaves=2
num_cat=0
split_feature=185
split_gain=53.5804
threshold=-0.0081449999999999977
decision_type=2
left_child=-1
right_child=-2
leaf_value=0.11550691939087988 -0.080076745161227925
leaf_weight=60 87
leaf_count=60 87
internal_value=0
internal_weight=147
internal_count=147
is_linear=0
shrinkage=0.160562


Tree=252
num_leaves=2
num_cat=0
split_feature=125
split_gain=53.8221
threshold=271.50000000000006
decision_type=2
left_child=-1
right_child=-2
leaf_value=-0.0859094300045532 0.10814545110037765
leaf_weight=82 65
leaf_count=82 65
internal_value=3.53712e-05
internal_weight=147
