tree
version=v4
num_class=1
num_tree_per_iteration=1
label_index=0
max_feature_idx=299
objective=regression
feature_names=ID00186491_STD30 ID02017501_STD14 ID01205063_lag_7 ID00186138_STD14 ID00186119_diff_7 ID00186278_wow_14 ID00186103_MA7_MA30 ID01204805_MA7_MA30 ID01204812_MOM20 ID00186138_MOM10 ID00186130_MA7_MA30 ID01205048_MA3 ID01205023_MA14 ID02017488_STD7 ID01205023_lag_30 ID01203712_lag_30 ID00186565_Spread_30d ID00187733_RSI7 ID00186112_lag_7 ID01204815_MA7_MA30 ID01562367_wow_14 ID00186565_MOM20 biz_arrival_change_7d ID02017581_diff_7 RE00034097_MOM20 ID02017548_MA30 ID01204805_MA7 ID00185754_lag_7 ID02017594_lag_30 ID01205049_diff_7 ID00186112_diff_1 ID02017513_STD14 ID01204805_Ratio_MA30 ID00186116_STD14 ID00186116_STD30 ID00186567_lag_7 ID00186565_STD14 ID02017581_mom_30 RE00024793_lag_30 ID01516175_STD14 ID00186579_lag_7 ID00186138_diff_7 ID00186111_wow_14 ID00186099_Ratio_MA30 ID02017509_STD7 ID00186116_wow_14 ID00185931_Ratio_MA7 ID00186491_STD7 ID00186111_lag_30 ID00183109_STD30 ID02017488_wow_14 ID02017488_mom_90 ID00186052_STD30 ID00186565_lag_7 ID01517108_mom_90 ID01204828_lag_14 ID01155775_month_yoy_365 ID02017548_STD7 ID00186565_mom_30 IO_SHIP_VOL_GLOB_016_MA7_MA30 ID01205052_Ratio_MA30 ID00186112_mom_30 ID00186491_Spread_30d ID00186130_diff_7 ID00186580_lag_7 ID01205073_STD14 ID01037437_Price_MA20 ID00186119_STD7 ID01602675_wow_14 ID01204813_STD14 ID01517134_MA7_MA30 RE00035609_mom_90 ID01562396_STD7 ID01602693_P90_60d ID02017483_STD14 ID02017488_MA7_MA30 ID00186132_STD14 ID02017548_STD14 ID01602675_lag_2 ID01037437_Price_MA40 ID01037437_MACD ID00186114_mom_30 ID00186114_wow_14 ID00186138_wow_14 ID00186568_STD7 ID00185755_lag_1 ID00186568_Spread_90d ID01135139_diff_7 ID00186491_MA7_MA30 ID01204822_lag_2 ID00186568_mom_90 ID01204829_wow_14 ID00414945_MOM10 ID01205042_mom_90 ID00186132_Ratio_MA30 ID01205061_yoy_365 ID00185996_lag_30 ID01205048_pct_7 ID00186568_diff_1 ID01204815_lag_1 ID02017522_mom_30 ID00186990_Ratio_MA30 ID00185931_diff_7 ID01204797_STD7 ID01204634_diff_1 ID02017568_lag_1 ID00186568_MA14 RE00034153_diff_1 ID01204813_pct_1 ID00186112_STD30 ID00186278_MOM20 ID00183109_STD7 ID00186577_lag_30 ID00186103_lag_7 RE00034182_lag_1 ID02017513_STD7 RE00034140_lag_1 ID00185931_STD7 ID02017530_lag_30 ID00186565_MOM10 ID01205336_diff_1 ID00186565_month_Ratio_MA30 ID02017594_diff_7 ID01204800_Spread_60d ID01204014_lag_1 ID01155775_STD14 ID01205052_Ratio_MA7 ID01205063_Ratio_MA7 ID01205073_MA5 ID01205343_STD14 ID01516098_STD14 ID01517032_P90_30d ID01517108_MA7_MA30 ID01517134_STD14 ID00183109_Ratio_MA7 ID01517220_lag_1 ID00186138_lag_30 ID00186568_Spread_60d ID01516098_lag_30 ID00186114_lag_7 ID00414945_STD7 ID00409038_lag_30 ID00186117_MOM20 ID01205016_lag_30 ID01155774_quarter_lag_1 ID00414945_STD60 ID00186278_STD60 ID00185769_lag_30 ID00183114_Spread_30d ID01205062_lag_14 ID01602638_lag_14 ID01205073_MA7 ID00186111_Ratio_MA30 ID01205076_MA14 ID01205336_STD14 ID01205336_MA7_MA30 RE00034142_lag_1 ID00185766_lag_7 ID01517134_pct_1 RE00024786_lag_30 ID01602693_lag_2 ID00414945_diff_1 ID01517134_Ratio_MA30 ID00185994_lag_7 ID00183114_diff_1 ID01602638_Ratio_MA7 ID00186130_STD14 ID00186100_STD30 ID01517134_diff_1 ID00186565_Ratio_MA30 ID00186574_lag_7 ID02017501_Ratio_MA7 ID00186117_lag_30 ID00185756_lag_1 ID00186117_MA7_MA30 ID02017513_STD30 ID00186278_MOM5 ID00186565_lag_30 ID01602667_lag_7 ID02017548_Spread_30d ID02017548_Ratio_MA7 ID02017548_MOM10 ID02017587_MA60 ID02017587_P90_60d ID02017574_diff_1 ID00186565_lag_1 biz_BHP_ratio biz_ore_daily_return ID01205057_diff_1 ID00186565_month_lag_7 ID00275210_Price_MA20 ID00275221_Price_MA40 ID01204634_diff_7 ID00183109_diff_1 ID00186568_MA30 ID01037437_MACD_hist RE00024786_Price_MA40 ID00186100_mom_90 ID00185931_pct_7 ID00186580_lag_1 ID00186100_Ratio_MA30 ID01205015_Spread_30d ID02017513_diff_7 ID00185756_lag_30 ID00186278_mom_90 ID00186565_month_STD30 ID01204829_STD7 ID00186112_STD60 ID01517108_diff_7 ID01204829_mom_30 ID01204815_MA7 ID01205023_yoy_365 ID01205057_STD14 ID01205057_wow_7 ID01205061_STD7 ID01205061_mom_30 ID01205387_mom_30 ID01516098_mom_30 ID01516098_mom_90 ID01516886_mom_30 ID01517032_wow_14 ID01204806_lag_7 ID01204008_lag_7 ID01562375_pct_1 ID01529897_lag_1 ID01204802_STD7 ID02017513_yoy_365 ID02017513_mom_30 ID00183109_STD14 ID02017554_mom_90 RE00034096_lag_1 ID02017594_mom_90 ID00186116_Ratio_MA7 ID00186116_MA7_MA30 ID01135139_Spread_30d ID01205061_diff_7 ID01205061_pct_1 ID00185861_STD14 ID01155775_month_Ratio_MA30 ID00186117_STD7 ID00186117_STD14 ID00186117_STD30 ID01205023_P90_90d ID00185861_MOM10 ID01204815_MA5 ID01205370_lag_14 ID01204817_pct_7 ID01205029_lag_1 ID00185931_STD14 ID00185931_STD30 RE00035609_lag_30 ID00186117_P90_90d ID00185931_Spread_90d ID01205023_lag_7 ID01205057_lag_14 ID01135139_MA7_MA30 ID01135139_diff_1 ID02017568_pct_7 ID00186666_lag_30 S0063606_lag_7 ID00186568_Ratio_MA7 ID01205035_lag_1 ID00186568_Ratio_MA30 ID00185927_lag_1 ID00185864_lag_1 ID00186112_pct_1 ID00186098_Ratio_MA7 ID01517146_lag_1 ID01204813_diff_7 ID00186119_STD14 ID00186318_Spread_60d ID01516086_lag_1 ID00186568_MA7_MA30 ID00274662_lag_7 M0017126_lag_7 ID01516155_lag_1 ID01516505_lag_1 ID01205023_STD60 ID01204829_STD60 ID01205023_MOM10 ID00186130_MOM10 ID02017594_diff_1 ID00185762_lag_1 ID01155775_MA14 ID00185762_lag_7 RE00024786_lag_1 ID01204828_P90_90d ID01204797_lag_3 ID01204797_lag_7 ID00186576_lag_30 ID00186099_Ratio_MA7 ID01155775_Ratio_MA30 ID00186132_STD30 ID01204014_lag_7 IO_SHIP_RATE_BRA_CN_029_wow_14 ID01516144_lag_1 ID00186052_STD14 IO_SHIP_VOL_GLOB_016_wow_14 ID00186100_STD7 ID00186669_P90_30d
feature_infos=[6.5825909999999999:86.837646000000007] [0:143.48692299999999] [0:47.599997999999999] [0:4.51919] [-1.6000000000000001:1.4199999999999999] [-0.114646:0.19378899999999999] [0.45019599999999999:1.492334] [0:4.2857139999999996] [-1:23.235294] [-0.31578899999999999:0.461538] [0.803674:1.1946669999999999] [0:20.799999] [4.1571429999999996:59.115383000000001] [0:26.49531] [0:81.199996999999996] [0:164] [13.5:410.09997600000003] [0.17643800000000001:99.360138000000006] [5.5999999999999996:21] [0:3.0568070000000001] [-0.54392300000000005:1.0556680000000001] [-0.69938:2.8185570000000002] [-16:16] [-17.5:13] [-1:3.8181820000000002] [75.246551999999994:96.024001999999996] [0:44.428570000000001] [123.699997:364] [9.3000000000000007:25.870000999999998] [-96.300003000000004:81] [-4.5:4.7000000000000002] [0:11.846835] [0:30] [0:3.150242] [0.16525300000000001:2.4678960000000001] [137.39999399999999:471.60000600000001] [1.8236540000000001:125.022575] [-0.25434400000000001:0.37387599999999999] [-82.510002:97.372497999999993] [0:20.727426999999999] [26:431.60000600000001] [-7.7199999999999998:9] [-0.50892899999999996:1.857143] [0.85114999999999996:1.1347449999999999] [0:1.515638] [-0.67398800000000003:6.1621620000000004] [0.96819:1.030383] [0:25.746941] [2.7999999999999998:19.200001] [0.113664:9.7807030000000008] [-0.13911599999999999:0.158553] [-0.25265500000000002:0.35775800000000002] [25.776865000000001:549.77801499999998] [145.5:621.59997599999997] [-1:15.038147] [0:201.300003] [-0.22936300000000001:0.39012999999999998] [0:3.4016799999999998] [-0.69838299999999998:2.4020619999999999] [0.37823600000000002:1.6251990000000001] [0:8.0779940000000003] [-0.61111099999999996:1.241935] [4.1999510000000004:221.179993] [-7:7] [29:372.29998799999998] [0:51.466220999999997] [-143.68420399999999:58.400002000000001] [0:0.28347299999999997] [-1:5.2937989999999999] [0:46.530956000000003] [0.75195599999999996:1.3123309999999999] [-0.864645:3.5311469999999998] [0:27.667000000000002] [60.995998:127.171997] [0:271.508759] [0.91389299999999996:1.1070420000000001] [0:4.0856219999999999] [0:9.253762] [0:145.199997] [-836.36364700000001:125.103668] [-19.898271999999999:20.837128] [-0.65714300000000003:1.7404919999999999] [-0.72062499999999996:2.299776] [-0.34999999999999998:0.461538] [0:76.688995000000006] [0:42.900002000000001] [55.299987999999999:327.59997600000003] [-599.27002000000005:509.20001200000002] [0.859402:1.1936059999999999] [0:9.1999999999999993] [-0.72667599999999999:1.7473810000000001] [-1:18.296296999999999] [-0.090897000000000006:0.084716] [-1:6.7906979999999999] [0.73186099999999998:1.323968] [-1:8.1034480000000002] [1.48:6.0300000000000002] [-1:21.285715] [-201.800003:202.89999399999999] [0:273.70001200000002] [-0.43786999999999998:0.94736799999999999] [0.66903400000000002:1.2359329999999999] [-444.82998700000002:560.39001499999995] [0:7.1435279999999999] [-11.4:11.199999999999999] [33.299999:66.419998000000007] [212.46923799999999:669.54284700000005] [-12.800000000000001:13.800000000000001] [-1:7.0153850000000002] [0.15959699999999999:4.149559] [-0.13838600000000001:0.22733100000000001] [0:1.3266549999999999] [36.299999:375.60000600000001] [10:38.220001000000003] [28.299999:479] [0:3.6171199999999999] [123.599998:388.79998799999998] [0:76.004874999999998] [18.5:33.279998999999997] [-0.54302799999999996:2.0749140000000001] [-66.400002000000001:68.5] [0.61012500000000003:1.3234509999999999] [-7:7.8499999999999996] [3.8999999999999999:28.600000000000001] [0:176.5] [0:130.66815199999999] [0:7] [0:7] [0:106.199997] [0:51.884796000000001] [0:26.575182000000002] [8.1099999999999994:159.30999800000001] [0:4.2857139999999996] [0:76.680381999999994] [0.96344799999999997:1.0393950000000001] [0:44.979999999999997] [12:28.5] [77.400024000000002:445.60003699999999] [0:146] [8.9399999999999995:40] [0:65.765816000000001] [1122.3000489999999:2172.1999510000001] [-0.46575299999999997:0.872892] [0:5.5999999999999996] [6692.6000979999999:9022.7998050000006] [38.850346000000002:397.54083300000002] [24.775665:230.68731700000001] [701.29998799999998:1705.1999510000001] [0.100006:13.459999] [0:146.199997] [0:141.5] [0:106.199997] [0.54717000000000005:1.513514] [0:76.584618000000006] [0:49.403239999999997] [0.31458599999999998:1.908515] [0:60.700001] [417.60000600000001:1208] [-0.213916:0.29109499999999999] [-96.459998999999996:164.13000500000001] [0:139.85000600000001] [-171.39999399999999:174] [0.66613800000000001:1.364377] [9.4100000000000001:12.4] [-2.3999999999999999:2.29] [0:1.859464] [0:3.6556310000000001] [1.2831090000000001:41.725971000000001] [-74.019997000000004:76.819999999999993] [0.39782400000000001:1.664876] [3:21] [0.94326299999999996:1.055372] [7.2000000000000002:21.899999999999999] [0:25.5] [0.67833500000000002:1.2273829999999999] [0.42016700000000001:13.638878] [-0.055273000000000003:0.071429000000000006] [145.5:621.59997599999997] [0:82.730002999999996] [0.59000399999999997:27.550003] [0.91817499999999996:1.1027400000000001] [-0.20222999999999999:0.26585300000000001] [20.057333:30.428643999999998] [21.899999999999999:33.279998999999997] [-16.5:16.100000000000001] [145.5:621.59997599999997] [0:0.69611299999999998] [-0.074032000000000001:0.088225999999999999] [-29.600000000000001:30.399999999999999] [1319.8000489999999:2727.5] [0.68184900000000004:1.1644159999999999] [0.70055800000000001:1.2282379999999999] [-16:16.600000000000001] [-3.5099999999999998:3.1400000000000001] [339.51034499999997:614.16632100000004] [-7.9727329999999998:6.0204969999999998] [-64.571213:1916.734741] [-0.25670599999999999:0.29618100000000003] [-0.06497:0.073694999999999997] [29:372.29998799999998] [0.86807100000000004:1.1281939999999999] [0:19.399999999999999] [-23:13.81] [0:25.5] [-0.25500699999999998:0.64606699999999995] [0:483.08843999999999] [0:19.540763999999999] [0.47209099999999998:4.4192039999999997] [-37.720001000000003:63.470001000000003] [-1:12.758063999999999] [0:273.70001200000002] [-1:8.4418600000000001] [0:25.602944999999998] [-1:29.5] [0:34.470359999999999] [-1:6.8282829999999999] [-0.651115:2.9488690000000002] [-1:552] [-1:926.66668700000002] [-1:302.33334400000001] [-0.97441800000000001:18.151516000000001] [0:40.099997999999999] [0:27] [-0.65007800000000004:1.5172410000000001] [0.40999999999999998:8.4700000000000006] [0:7.3703070000000004] [-0.26708100000000001:0.31500499999999998] [-0.25390200000000002:0.37681700000000001] [0:11.990468999999999] [-0.37033899999999997:1.0434779999999999] [0:78.800003000000004] [-0.40384599999999998:1.698925] [0.66852199999999995:1.594937] [0.39981100000000003:1.7341409999999999] [48.820312000000001:1250.6503909999999] [-123.300003:147.800003] [-1:6.2470590000000001] [0:197.470688] [0.72062300000000001:1.460024] [0:1.2850790000000001] [0:4.6134829999999996] [0.28996899999999998:3.8746909999999999] [24.200001:54.599997999999999] [-0.13431000000000001:0.10845100000000001] [0:273.70001200000002] [63.599997999999999:224.699997] [-1:9.4659089999999999] [0:17.5] [0:292.65414399999997] [3.2106150000000002:395.87246699999997] [25:217.300003] [11.199999999999999:18.239999999999998] [105.70996100000001:1598.0698239999999] [0:81.199996999999996] [0:50.799999] [0.94347999999999999:1.0543549999999999] [-285:274.07998700000002] [-0.34189700000000001:0.63963999999999999] [62177:76773] [23.290001:80.870002999999997] [0.62253899999999995:1.618601] [0:46.299999] [0.36970399999999998:1.65622] [0.080000000000000002:5.1600000000000001] [269.790009:916.29998799999998] [-0.32828299999999999:0.64285700000000001] [0.92166599999999999:1.0892759999999999] [1.71:376.14999399999999] [-89.099997999999999:89.099997999999999] [0:0.83557300000000001] [14.880005000000001:266.55001800000002] [0.059999999999999998:154.479996] [0.45368000000000003:1.4257029999999999] [67.949996999999996:223.53750600000001] [44.299999:52.599997999999999] [4.0700000000000003:130.33000200000001] [0.070000000000000007:75.169998000000007] [4.3177779999999997:24.143021000000001] [8.2261489999999995:34.874619000000003] [-1:5.0340910000000001] [-0.222222:0.32000000000000001] [-3.6000000000000001:3.6000000000000001] [67.900002000000001:353.89999399999999] [355.70001200000002:682.31426999999996] [107.900002:353.89999399999999] [-88.809997999999993:164.13000500000001] [0:156.800003] [0:32.400002000000001] [0:32.400002000000001] [59.099997999999999:510.5] [0.92414499999999999:1.08769] [0.638571:1.4153119999999999] [0.190613:4.0507860000000004] [0:140.199997] [-0.53677799999999998:1.1747780000000001] [0:66.459998999999996] [0:343.263733] [-0.77046000000000003:1.7611760000000001] [0:10.291971999999999] [35771:56850]
tree_sizes=462 416 411 496 495 412 417 411 492 496 498 493 497 407 418 496 505 488 405 494 500 499 481 418 501 498 497 495 497 494 477 499 498 486 414 487 490 477 495 495 498 416 496 488 489 406 500 476 473 500 492 493 418 498 493 491 492 501 420 499 496 417 496 493 491 496 488 492 500 493 498 496 418 482 496 493 494 492 492 495 420 502 413 482 506 486 494 487 496 495 494 496 417 499 422 493 500 487 499 422 486 496 497 410 500 419 501 501 498 418 495 498 496 497 418 499 488 488 504 499 503 419 494 498 416 417 498 505 504 501 499 488 496 419 496 496 421 501 420 495 501 495 497 497 496 503 495 498 420 499 494 419 503 505 502 501 498 502 490 494 487 479 497 489 500 419 498 497 417 498 497 497 501 500 419 420 495 502 497 504 499 491 502 420 486 490 498 488 423 502 498 504 502 420 491 496 501 420 505 488 490 492 492 493 497 499 489 419 409 493 499 409 411 491 499 481 498 502 488 488 485 488 490 504 407 497 420 489 500 498 501 486 489 425 501 491 498 424 489 408 494 492 504 488 491 499 503 418 502 500 419 491 405 490 414 496 424 410 489 502 487 500 417 491 425 491 488 411 504 490 490 489 426 503 420 504 489 496 490 498 416 501 491 491 487 414 419 500 420 501 498 501 494 500 506 499 499 501 505 502 502 502 498 504 501 500 419 497 497 499 505 500 420 419 420 502 503 419 501 502 486 490 486 491 492 491 496 495 497 494 502 502 496 503 489 502 501 492 420 501 420 499 492 487 505 503 501 498 504 499 504 502 420 486 498 425 503 504 500 493 504 504 504 421 490 505 506 501 498 502 506 501 498 501 498 421 423 498 491 502 486 504 500 501 493 489 492 491 500 497 506 420 501 498 508 423 502 497 420 501 420 505 508 487 416 492 494 505 505 508 504 504 424 505 499 499 419 502 420 493 495 421 491 504 494 491 420 502 503 492 409 407 489 493 505 498 503 407 492 496 490 505 424 501 498 425 499 505 495 500 498 493 491 488 503 410 493 493 492 494 503 409 421 424 496 487 504 501 501 487 489 495 492 489 504 502 502 502 499 492 497 503 503 419 501 499 500 500 499 501 499 499 503 501 500 503 502 423 504 421 500 504 505 505 500 499 422 504 506 504 504 487 409 501 497 510 419 495 492 491 487 491 489 491 494 492 493 490 503 420 508 503 504 498 422 426 500 497 492 489 492 496 411 493 489 491 409 414 488 497 489 408 493 495 409 498 493 492 494 492 497 493 492 493 507 503 505 505 501 489 492 505 503 501 413 502 496 491 411 491 496 497 494 410 492 490 492 409 494 503 503 492 492 496 410 492 495 495 492 492 510 508 502 504 501 504 425 500 504 508 503 502 491 493 490 492 504 492 492 495 489 497 492 492 477 499 495 495 493 503 496 490 416 495 410 409 492 495 474 487 495 492 493 501 495 490 412 495 494 501 492 489 494 487 420 504 497 504 501 489 504 502 507 500 500 421 413 420 506 504 504 490 497 493 414 494 415 493 488 491 493 494 500 488 494 493 505 499 505 501 490 496 496 494 489 492 501 412 496 484 414 493 493 497 492 489 479 491 496 495 497 413 495 415 499 491 491 495 403 495 412 498 495 507 502 492 495 416 493 492 490 496 415 493 489 496 491 492 497 412 496 495 495 462 417 491 498 411 489 498 495 499 494 484 491 494 494 415 496 493 488 497 494 414 412 493 494 492 410 494 498 493 495 493 496 488 423 495 495 497 493 495 492 495 491 483 489 502 496 497 492 493 497 499 412 500 492 492 490 492 491 498 414 489 413 492 493 413 500 497 504 495 499 412 496 491 495 492 415 495 494 496 492 495 494 491 493 494 498 497 484 507 499 495 505 502 502 506 422 500 506 420 503 496 422 493 496 413 491 501 496 499 496 497 501 494 422 412 421 414 413 493 413 499 491 493 496 488 509 504 498 494 509 504 504 502 504 507 508 507 506 503 510 508 505 423 497 493 494 491 499 492 499 496 413 496 504 487 495 499 505 509 504 504 509 505 494 508 495 492 412 493 500 513 492 498 502 511 509 506 509 505 492 495 412 411 496 480 495 499 495 493 495 499 495 495 498 502 414 512 506 494 412 502 478 495 501 413 495 494 498 497 495 492 494 497 494 493 503 491 509 502 514 505 504 508 505 505 510 507 504 503 497 509 503 497 505 493 425 498 503 493 495 495 495 495 499 497 497 417 499 499 496 500 418 496 491 495 500 417 495 493 415 501 494 498 496 499 500 500 494 491 501 416 497 414 497 500 417 496 496 505 497 417 416 497 495 500 498 484 503 498 502 416 413 497 500 496 416 497 416 498 499 500 499 501 498 504 503 500 501 498 502 498 488 501 493 496 500 489 499 499 496 504 500 416 497 498 495 499 501 497 495 493 499 499 499 501 496 495 503 498 497 495 495 501 501 499 498 497 495 501 490 500 499 494 499 498 499 501 484 497 503 500 500 497 413 498 503 496 502 419 500 498 499 499 493 501 480 504 500 499 496 496 496 502 508 501 500 492 510 496 498 496 415 416 479 497 415 499 499 504 497 501 503 507 500 499 494 505 415 498 507 501 499 504 500 501 484 497 417 500 500 498 492 412 500 496 497 500 503 500 500 500 499 500 504 416 498 502 497 500 419 506 499 502 503 507 504 502 498 504 500 503 414 415 503 511 513 495 501 501 420 501 413 502 502 504 500 497 503 497 501 503 500 417 499 497 505 504 500 501 499 497 419 505 486 414 502 501 497 500 502 417 500 417 499 484 417 502 502 417 500 499 503 499 416 500 502 498 505 501 418 501 418 509 503 503 504 503 503 499 502 491 497 502 502 498 499 506 498 417 417 503 504 498 504 506 502 504 416 503 504 477 416 416 492 501 500 503 416 498 506 502 419 503 502 504 504 504 500 505 501 497 504 500 499 415 503 505 502 499 498 502 501 500 502 500 503 500 499 491 486 418 504 417 505 507 417 502 504 505 416 493 502 502 497 502 505 504 498 500 502 502 416 505 506 500 498 505 504 498 509 503 496 499 502 484 501 501 502 416 500 500 490 506 507 504 505 504 502 496 503 503 500 415 499 501 502 502 504 502 505 501 501 418 503 505 507 502 501 416 503 418 506 500 502 418 502 504 502 414 416 415 506 498 502 504 502 504 414 502 499 500 503 416 495 503 499 505 503 500 499 503 490 416 503 499 422 503 497 503 499 502 504 501 504 500 502 500 503 503 501 506 504 501 418 504 499 502 505 417 503 502 502 507 502 502 499 416 415 501 504 489 498 500 417 502 503 411 416 510 504 506 502 504 500 503 506 504 508 503 415 502 415 505 421 506 505 503 498 503 415 500 489 507 507 504 413 503 503 483 504 498 503 502 506 502 504 509 418 508 421 507 420 507 503 501 502 419 501 499 505 505 503 509 419 422 506 502 501 491 502 504 505 419 502 504 499 424 504 510 502 505 415 505 510 484 506 501 501 503 506 499 503 502 506 503 507 502 504 501 421 506 506 504 504 507 420 501 506 505 500 504 420 501 504 418 501 503 504 506 507 420 502 503 502 501 502 505 501 418 501 504 502 504 505 506 501 506 506 502 505 504 504 506 421 511 418 504 502 506 510 504 504 501 505 501 500 490 502 503 506 506 500 507 503 503 417 504 501 505 503 505 504 416 508 504 505 503 503 506 504 505 502 507 418 507 502 504 503 505 502 507 505 420 420 502 505 506 506 504 419 508 423 426 504 509 422 504 504 416 503 506 502 501 422 508 500 505 506 506 507 418 503 508 420 504 418 491 503 503 508 503 501 502 506 509 504 502 502 502 501 507 503 505 504 422 511 501 422 502 506 510 507 421 504 508 507 507 503 503 506 505 503 505 507 503 509 510 503 502 508 509

Tree=0
num_leaves=4
num_cat=0
split_feature=11 163 0
split_gain=2689.6 1702.78 1277.93
threshold=2.7833335000000003 11.185 25.305598000000003
decision_type=2 2 2
left_child=-1 2 -2
right_child=1 -3 -4
leaf_value=-2.3044215694358137 -2.1746612875836719 -1.6753409674676079 -1.8136044659275461
leaf_weight=76 87 97 67
leaf_count=76 87 97 67
internal_value=-1.98373 -1.87812 -2.01672
internal_weight=327 251 154
internal_count=327 251 154
is_linear=0
shrinkage=1


Tree=1
num_leaves=3
num_cat=0
split_feature=11 58
split_gain=2383.38 1906.33
threshold=2.7833335000000003 0.007013000000000001
decision_type=2 2
left_child=-1 -2
right_child=1 -3
leaf_value=-0.30194603952342208 0.27801478289724574 -0.074781881769167322
leaf_weight=76 121 130
leaf_count=76 121 130
internal_value=-3.06549e-05 0.099357
internal_weight=327 251
internal_count=327 251
is_linear=0
shrinkage=0.0660907


Tree=2
num_leaves=3
num_cat=0
split_feature=7 62
split_gain=2157.96 2114.74
threshold=0.78027350000000006 50.99499500000001
decision_type=2 2
left_child=-1 -2
right_child=1 -3
leaf_value=-0.22845614068297615 -0.12331725690756747 0.27994389821971105
leaf_weight=109 88 130
leaf_count=109 88 130
internal_value=-0.000220977 0.11883
internal_weight=327 218
internal_count=327 218
is_linear=0
shrinkage=0.0660907


Tree=3
num_leaves=4
num_cat=0
split_feature=11 37 36
split_gain=2061.81 1627.72 1219.28
threshold=2.7833335000000003 0.024612000000000002 29.504659000000004
decision_type=2 2 2
left_child=-1 2 -2
right_child=1 -3 -4
leaf_value=-0.28114962314994685 0.0081325303157046957 -0.10684626321387505 0.37940292707086087
leaf_weight=76 67 101 83
leaf_count=76 67 101 83
internal_value=-0.000346332 0.0921004 0.224445
internal_weight=327 251 150
internal_count=327 251 150
is_linear=0
shrinkage=0.0660907


Tree=4
num_leaves=4
num_cat=0
split_feature=123 154 221
split_gain=1879.28 1898.23 1188.24
threshold=11.080000000000002 9.9175125000000026 19.850000500000004
decision_type=2 2 2
left_child=-1 2 -2
right_child=1 -3 -4
leaf_value=-0.23880831311934642 -0.22136484795008352 0.33047773168508876 0.12892371900378111
leaf_weight=92 73 85 77
leaf_count=92 73 85 77
internal_value=-0.000322101 0.0988948 -0.0446396
internal_weight=327 235 150
internal_count=327 235 150
is_linear=0
shrinkage=0.0660907


Tree=5
num_leaves=3
num_cat=0
split_feature=7 62
split_gain=1828.69 1831.74
threshold=0.78027350000000006 50.99499500000001
decision_type=2 2
left_child=-1 -2
right_child=1 -3
leaf_value=-0.21040222509311565 -0.11597381156453108 0.25926952755828087
leaf_weight=109 88 130
leaf_count=109 88 130
internal_value=-0.000300078 0.109292
internal_weight=327 218
internal_count=327 218
is_linear=0
shrinkage=0.0660907


Tree=6
num_leaves=3
num_cat=0
split_feature=11 58
split_gain=1668.93 1578.29
threshold=2.7833335000000003 0.007013000000000001
decision_type=2 2
left_child=-1 -2
right_child=1 -3
leaf_value=-0.25304826918358753 0.24545658018949343 -0.075261759293128047
leaf_weight=76 121 130
leaf_count=76 121 130
internal_value=-0.000411005 0.0827623
internal_weight=327 251
internal_count=327 251
is_linear=0
shrinkage=0.0660907


Tree=7
num_leaves=3
num_cat=0
split_feature=7 0
split_gain=1573.06 1972.22
threshold=0.78027350000000006 22.937917500000001
decision_type=2 2
left_child=-1 -2
right_child=1 -3
leaf_value=-0.19540468445277506 -0.11481022235970575 0.2698583705847879
leaf_weight=109 97 121
leaf_count=109 97 121
internal_value=-0.000545282 0.101104
internal_weight=327 218
internal_count=327 218
is_linear=0
shrinkage=0.0660907


Tree=8
num_leaves=4
num_cat=0
split_feature=123 154 118
split_gain=1545 1680.69 1021.13
threshold=11.080000000000002 9.9175125000000026 25.425000500000003
decision_type=2 2 2
left_child=-1 2 -2
right_child=1 -3 -4
leaf_value=-0.21681982017808982 0.13139457623398015 0.30733765532067331 -0.19416773544917421
leaf_weight=92 69 85 81
leaf_count=92 69 85 81
internal_value=-0.000587877 0.0893783 -0.0454784
internal_weight=327 235 150
internal_count=327 235 150
is_linear=0
shrinkage=0.0660907


Tree=9
num_leaves=4
num_cat=0
split_feature=14 192 89
split_gain=1492.35 1442.27 1542.37
threshold=9.0500000000000025 -1.0000000180025095e-35 2.1000000000000005
decision_type=2 2 2
left_child=-1 -2 -3
right_child=1 2 -4
leaf_value=-0.22879272861312464 0.31881520576087263 -0.21998988526909785 0.1511737028195595
leaf_weight=82 68 81 96
leaf_count=82 68 81 96
internal_value=-0.000492727 0.0818108 -0.021284
internal_weight=327 245 177
internal_count=327 245 177
is_linear=0
shrinkage=0.0660907


Tree=10
num_leaves=4
num_cat=0
split_feature=23 220 148
split_gain=1434.72 1449.55 1289.11
threshold=-0.5099999999999999 -0.028909499999999994 1.5200005000000003
decision_type=2 2 2
left_child=1 -1 -2
right_child=2 -3 -4
leaf_value=-0.057384680478958131 0.073364668094456048 0.34342489005589905 -0.2648986882563234
leaf_weight=72 81 71 103
leaf_count=72 81 71 103
internal_value=-0.000416606 0.150925 -0.1198
internal_weight=327 143 184
internal_count=327 143 184
is_linear=0
shrinkage=0.0660907


Tree=11
num_leaves=4
num_cat=0
split_feature=123 26 6
split_gain=1328.36 1550.43 770.156
threshold=11.080000000000002 10.621429000000001 1.0139480000000003
decision_type=2 2 2
left_child=-1 2 -2
right_child=1 -3 -4
leaf_value=-0.20071458698241817 0.10428788235059003 0.28562386524171196 -0.18201760656591731
leaf_weight=92 68 89 78
leaf_count=92 68 89 78
internal_value=-0.000202688 0.0832057 -0.0504479
internal_weight=327 235 146
internal_count=327 235 146
is_linear=0
shrinkage=0.0660907


Tree=12
num_leaves=4
num_cat=0
split_feature=14 66 180
split_gain=1301.6 1305.85 1036.38
threshold=9.0500000000000025 0.53961450000000011 0.99368650000000014
decision_type=2 2 2
left_child=-1 -2 -3
right_child=1 2 -4
leaf_value=-0.21339455903169563 0.29223623906715934 0.15744832315260332 -0.15431647332134993
leaf_weight=82 73 70 102
leaf_count=82 73 70 102
internal_value=-0.000173067 0.0766804 -0.0257038
internal_weight=327 245 172
internal_count=327 245 172
is_linear=0
shrinkage=0.0660907


Tree=13
num_leaves=3
num_cat=0
split_feature=5 166
split_gain=1266.84 1490.63
threshold=0.016459500000000005 0.63976500000000003
decision_type=2 2
left_child=1 -1
right_child=-2 -3
leaf_value=0.088356473271809427 0.15922376806387092 -0.25670891199051693
leaf_weight=94 124 109
leaf_count=94 124 109
internal_value=0 -0.100204
internal_weight=327 203
internal_count=327 203
is_linear=0
shrinkage=0.0660907


Tree=14
num_leaves=3
num_cat=0
split_feature=11 58
split_gain=1251.54 1236.67
threshold=2.7833335000000003 0.007013000000000001
decision_type=2 2
left_child=-1 -2
right_child=1 -3
leaf_value=-0.21880344112665215 0.21603805479060378 -0.067806840549963776
leaf_weight=76 121 130
leaf_count=76 121 130
internal_value=-1.30003e-05 0.0719983
internal_weight=327 251
internal_count=327 251
is_linear=0
shrinkage=0.0660907


Tree=15
num_leaves=4
num_cat=0
split_feature=70 160 16
split_gain=1220.39 1653.48 870.429
threshold=0.93186800000000014 43.000000000000007 95.800018000000009
decision_type=2 2 2
left_child=-1 -2 -3
right_child=1 2 -4
leaf_value=-0.22309681404147996 0.28660157802940928 -0.21321831466281033 0.074628989073083893
leaf_weight=72 87 72 96
leaf_count=72 87 72 96
internal_value=-0.000149651 0.0687617 -0.0536864
internal_weight=327 255 168
internal_count=327 255 168
is_linear=0
shrinkage=0.0660907


Tree=16
num_leaves=4
num_cat=0
split_feature=9 198 22
split_gain=1169.68 1731.09 1337.34
threshold=0.025320500000000006 -0.00089249999999999985 -1.0000000180025095e-35
decision_type=2 2 2
left_child=1 -1 -3
right_child=-2 2 -4
leaf_value=-0.15468597348288005 -0.16006209047657483 0.0086594502621847487 0.410015857547114
leaf_weight=73 117 68 69
leaf_count=73 117 68 69
internal_value=-0.000283828 0.0918924 0.224933
internal_weight=327 210 137
internal_count=327 210 137
is_linear=0
shrinkage=0.0660907


Tree=17
num_leaves=4
num_cat=0
split_feature=10 247 206
split_gain=1164.52 1725.87 1050.17
threshold=1.0101495 4.0500000000000007 4.8568430000000005
decision_type=2 2 2
left_child=1 -1 -2
right_child=2 -3 -4
leaf_value=-0.047335367568933279 0.035943306269893324 0.35033278637486631 -0.30954674674447796
leaf_weight=120 73 67 67
leaf_count=120 73 67 67
internal_value=-6.03283e-05 0.105571 -0.138876
internal_weight=327 187 140
internal_count=327 187 140
is_linear=0
shrinkage=0.0660907


Tree=18
num_leaves=3
num_cat=0
split_feature=7 23
split_gain=1133.88 1342.94
threshold=0.78027350000000006 -0.5099999999999999
decision_type=2 2
left_child=-1 -2
right_child=1 -3
leaf_value=-0.16545210476290764 0.26513867536798552 -0.054053273083453993
leaf_weight=109 92 126
leaf_count=109 92 126
internal_value=0 0.086286
internal_weight=327 218
internal_count=327 218
is_linear=0
shrinkage=0.0660907


Tree=19
num_leaves=4
num_cat=0
split_feature=0 36 250
split_gain=1121.84 1263.09 786.251
threshold=23.764491500000002 29.504659000000004 160.25000000000003
decision_type=2 2 2
left_child=2 -2 -1
right_child=1 -3 -4
leaf_value=-0.26365839907292848 -0.090389754615905801 0.24847690984322388 0.029999539246634965
leaf_weight=77 76 104 70
leaf_count=77 76 104 70
internal_value=2.41804e-05 0.108095 -0.130701
internal_weight=327 180 147
internal_count=327 180 147
is_linear=0
shrinkage=0.0660907


Tree=20
num_leaves=4
num_cat=0
split_feature=125 190 181
split_gain=1075.47 1262.78 905.689
threshold=42.566421500000011 1.0289195000000002 -0.0032959999999999999
decision_type=2 2 2
left_child=1 2 -1
right_child=-2 -3 -4
leaf_value=0.17290524331236845 0.19087333004127577 -0.28453888318057513 -0.11530888328563904
leaf_weight=85 84 72 86
leaf_count=85 84 72 86
internal_value=-5.92093e-05 -0.0710098 0.0295198
internal_weight=327 243 171
internal_count=327 243 171
is_linear=0
shrinkage=0.0660907


Tree=21
num_leaves=4
num_cat=0
split_feature=104 89 224
split_gain=1098.47 1242.01 846.559
threshold=-1.7499999999999998 1.5500000000000003 2.2750000000000004
decision_type=2 2 2
left_child=-1 -2 -3
right_child=1 2 -4
leaf_value=0.19284197547996265 -0.22788818144810002 -0.097664691354581223 0.21382019811853922
leaf_weight=84 109 67 67
leaf_count=84 109 67 67
internal_value=-0.000123341 -0.0718264 0.0620068
internal_weight=327 243 134
internal_count=327 243 134
is_linear=0
shrinkage=0.0660907


Tree=22
num_leaves=4
num_cat=0
split_feature=14 123 36
split_gain=1051.16 1493.39 1497.4
threshold=25.950000000000003 11.845000000000001 28.346219000000001
decision_type=2 2 2
left_child=1 -1 -3
right_child=-2 2 -4
leaf_value=-0.30204982007920633 0.18086437901351096 -0.18464186813768063 0.1981098449980308
leaf_weight=73 90 67 97
leaf_count=73 90 67 97
internal_value=0 -0.0731801 0.0400614
internal_weight=327 237 164
internal_count=327 237 164
is_linear=0
shrinkage=0.0660907


Tree=23
num_leaves=3
num_cat=0
split_feature=68 16
split_gain=1057.9 1412.17
threshold=-0.060453499999999993 95.800018000000009
decision_type=2 2
left_child=-1 -2
right_child=1 -3
leaf_value=0.17153453931435481 -0.24962934165542608 0.068273855936351546
leaf_weight=98 102 127
leaf_count=98 102 127
internal_value=-0.000165542 -0.0777685
internal_weight=327 229
internal_count=327 229
is_linear=0
shrinkage=0.0660907


Tree=24
num_leaves=4
num_cat=0
split_feature=19 80 168
split_gain=1019.42 1466.54 1444.54
threshold=0.98196650000000008 -0.088122999999999993 -1.1399999999999999
decision_type=2 2 2
left_child=1 -1 -2
right_child=2 -3 -4
leaf_value=-0.079591636601311758 -0.31094026804567404 0.32956732702761865 0.046947061116494222
leaf_weight=69 72 68 118
leaf_count=69 72 68 118
internal_value=-0.000169263 0.131968 -0.097327
internal_weight=327 137 190
internal_count=327 137 190
is_linear=0
shrinkage=0.0660907


Tree=25
num_leaves=4
num_cat=0
split_feature=5 88 88
split_gain=1008.82 1234.93 508.282
threshold=0.016459500000000005 0.98002050000000007 1.0116005000000003
decision_type=2 2 2
left_child=1 -1 -3
right_child=-2 2 -4
leaf_value=0.12586470887906134 0.14190487220684453 -0.31861430243993361 -0.058514843181838062
leaf_weight=69 124 67 67
leaf_count=69 124 67 67
internal_value=-0.000183152 -0.0896004 -0.201658
internal_weight=327 203 134
internal_count=327 203 134
is_linear=0
shrinkage=0.0660907


Tree=26
num_leaves=4
num_cat=0
split_feature=2 97 67
split_gain=964.642 1216.49 893.531
threshold=4.5500000000000007 -0.76186049999999994 0.034016500000000012
decision_type=2 2 2
left_child=-1 -2 -3
right_child=1 2 -4
leaf_value=0.18313072519896537 -0.25914217681923385 0.19988346294720347 -0.094411008289822185
leaf_weight=82 82 72 91
leaf_count=82 82 72 91
internal_value=-0.000381898 -0.0665897 0.0395326
internal_weight=327 245 163
internal_count=327 245 163
is_linear=0
shrinkage=0.0660907


Tree=27
num_leaves=4
num_cat=0
split_feature=70 160 34
split_gain=951.055 1301.19 659.832
threshold=0.93186800000000014 43.000000000000007 0.73621100000000006
decision_type=2 2 2
left_child=-1 -2 -3
right_child=1 2 -4
leaf_value=-0.19710953319800489 0.25379211182491812 0.0912656384281893 -0.15849137866002866
leaf_weight=72 87 75 93
leaf_count=72 87 75 93
internal_value=-0.000297017 0.0605375 -0.0480582
internal_weight=327 255 168
internal_count=327 255 168
is_linear=0
shrinkage=0.0660907


Tree=28
num_leaves=4
num_cat=0
split_feature=14 66 180
split_gain=935.663 1090.14 739.514
threshold=9.0500000000000025 0.53961450000000011 0.99368650000000014
decision_type=2 2 2
left_child=-1 -2 -3
right_child=1 2 -4
leaf_value=-0.18107693817250406 0.26187206343162223 0.12670053583812196 -0.13677393392265466
leaf_weight=82 73 70 102
leaf_count=82 73 70 102
internal_value=-0.000295692 0.064864 -0.0284201
internal_weight=327 245 172
internal_count=327 245 172
is_linear=0
shrinkage=0.0660907


Tree=29
num_leaves=4
num_cat=0
split_feature=25 39 147
split_gain=909.789 1480.3 1157.57
threshold=90.121502000000007 4.2940340000000008 1388.2000125000002
decision_type=2 2 2
left_child=1 2 -1
right_child=-2 -3 -4
leaf_value=-0.16959911082419338 -0.19263661048784117 0.30167546054135314 0.14808789362714253
leaf_weight=111 72 68 76
leaf_count=111 72 68 76
internal_value=-0.00013611 0.0593588 -0.0394707
internal_weight=327 255 187
internal_count=327 255 187
is_linear=0
shrinkage=0.0660907


Tree=30
num_leaves=4
num_cat=0
split_feature=10 247 206
split_gain=933.742 1349.48 830.136
threshold=1.0101495 4.0500000000000007 4.3843875000000008
decision_type=2 2 2
left_child=1 -1 -2
right_child=2 -3 -4
leaf_value=-0.040658696563032844 0.04078476121880259 0.31104155195863314 -0.26632705767422321
leaf_weight=120 68 67 72
leaf_count=120 68 67 72
internal_value=0 0.0946268 -0.124263
internal_weight=327 187 140
internal_count=327 187 140
is_linear=0
shrinkage=0.0660907


Tree=31
num_leaves=4
num_cat=0
split_feature=19 168 160
split_gain=912.935 1210.14 1036.48
threshold=0.98196650000000008 -1.1399999999999999 51.920000500000008
decision_type=2 2 2
left_child=2 -2 -1
right_child=1 -3 -4
leaf_value=0.28876703772906592 -0.28729446242771012 0.040407365898345426 -0.056338401242784754
leaf_weight=69 72 118 68
leaf_count=69 72 118 68
internal_value=6.45638e-05 -0.0918215 0.125168
internal_weight=327 190 137
internal_count=327 190 137
is_linear=0
shrinkage=0.0660907


Tree=32
num_leaves=4
num_cat=0
split_feature=9 102 142
split_gain=871.801 1058.79 808.256
threshold=0.040833500000000009 -6.794999999999999 0.0060835000000000012
decision_type=2 2 2
left_child=1 -1 -3
right_child=-2 2 -4
leaf_value=-0.1128050659093611 -0.14592143779175321 0.020637732421166639 0.32865004282114857
leaf_weight=77 108 75 67
leaf_count=77 108 75 67
internal_value=2.98863e-05 0.0752642 0.178028
internal_weight=327 219 142
internal_count=327 219 142
is_linear=0
shrinkage=0.0660907


Tree=33
num_leaves=4
num_cat=0
split_feature=125 190 272
split_gain=843.744 951.926 960.827
threshold=42.566421500000011 1.0289195000000002 1.050305
decision_type=2 2 2
left_child=1 2 -1
right_child=-2 -3 -4
leaf_value=0.14945831339769747 0.16937323685114614 -0.24797101819789008 -0.1512895849002393
leaf_weight=101 84 72 70
leaf_count=101 84 72 70
internal_value=0.000202133 -0.0625869 0.0247352
internal_weight=327 243 171
internal_count=327 243 171
is_linear=0
shrinkage=0.0660907


Tree=34
num_leaves=3
num_cat=0
split_feature=7 0
split_gain=848.751 1195.69
threshold=0.78027350000000006 22.937917500000001
decision_type=2 2
left_child=-1 -2
right_child=1 -3
leaf_value=-0.14305830066753253 -0.093104732557707834 0.20623674629533342
leaf_weight=109 97 121
leaf_count=109 97 121
internal_value=2.98246e-05 0.0747406
internal_weight=327 218
internal_count=327 218
is_linear=0
shrinkage=0.0660907


Tree=35
num_leaves=4
num_cat=0
split_feature=14 280 163
split_gain=819.717 1201.33 727.009
threshold=25.950000000000003 0.024553500000000002 10.955000000000002
decision_type=2 2 2
left_child=1 2 -1
right_child=-2 -3 -4
leaf_value=-0.083663777369024042 0.15970638024526471 -0.23479247363998654 0.19783411918530774
leaf_weight=73 90 95 69
leaf_count=73 90 95 69
internal_value=0 -0.0646344 0.0570369
internal_weight=327 237 142
internal_count=327 237 142
is_linear=0
shrinkage=0.0660907


Tree=36
num_leaves=4
num_cat=0
split_feature=11 19 16
split_gain=811.781 873.25 796.395
threshold=2.7833335000000003 0.98196650000000008 106.35000600000002
decision_type=2 2 2
left_child=-1 -2 -3
right_child=1 2 -4
leaf_value=-0.17610910350552242 0.20700936710167825 -0.1772337200310958 0.10376927756325618
leaf_weight=76 94 78 79
leaf_count=76 94 78 79
internal_value=4.12925e-05 0.0580953 -0.038008
internal_weight=327 251 157
internal_count=327 251 157
is_linear=0
shrinkage=0.0660907


Tree=37
num_leaves=4
num_cat=0
split_feature=10 247 206
split_gain=789.848 1094.35 699.94
threshold=1.0101495 4.0500000000000007 4.3843875000000008
decision_type=2 2 2
left_child=1 -1 -2
right_child=2 -3 -4
leaf_value=-0.034933586148368785 0.037254996374449512 0.28186920236630181 -0.24475770995791712
leaf_weight=120 68 67 72
leaf_count=120 68 67 72
internal_value=0 0.0870078 -0.114311
internal_weight=327 187 140
internal_count=327 187 140
is_linear=0
shrinkage=0.0660907


Tree=38
num_leaves=4
num_cat=0
split_feature=25 39 147
split_gain=793.557 1263.76 888.436
threshold=90.121502000000007 4.2940340000000008 1388.2000125000002
decision_type=2 2 2
left_child=1 2 -1
right_child=-2 -3 -4
leaf_value=-0.14965729526160076 -0.17969377997309888 0.27953722931021824 0.12868175353023203
leaf_weight=111 72 68 76
leaf_count=111 72 68 76
internal_value=3.10695e-05 0.0556548 -0.0356928
internal_weight=327 255 187
internal_count=327 255 187
is_linear=0
shrinkage=0.0660907


Tree=39
num_leaves=4
num_cat=0
split_feature=59 66 205
split_gain=766.034 976.194 617.198
threshold=1.0288855000000001 1.0010485000000002 133.72830200000001
decision_type=2 2 2
left_child=1 2 -1
right_child=-2 -3 -4
leaf_value=0.025421267230098944 -0.16095857565865443 -0.086103619232949763 0.30080375361790535
leaf_weight=70 84 106 67
leaf_count=70 84 106 67
internal_value=0.000180455 0.0600617 0.171406
internal_weight=327 243 137
internal_count=327 243 137
is_linear=0
shrinkage=0.0660907


Tree=40
num_leaves=4
num_cat=0
split_feature=104 63 62
split_gain=752.046 803.675 609.017
threshold=-1.9499999999999997 1.0000000180025095e-35 58.82000750000001
decision_type=2 2 2
left_child=-1 2 -2
right_child=1 -3 -4
leaf_value=0.16733684869917795 -0.097607589420636867 -0.19443094231026464 0.15331743695810982
leaf_weight=78 69 98 82
leaf_count=78 69 98 82
internal_value=0.000320539 -0.0563663 0.0396381
internal_weight=327 249 151
internal_count=327 249 151
is_linear=0
shrinkage=0.0660907


Tree=41
num_leaves=3
num_cat=0
split_feature=5 138
split_gain=758.847 1032.12
threshold=0.016459500000000005 32.074999000000005
decision_type=2 2
left_child=1 -1
right_child=-2 -3
leaf_value=0.051772794127555838 0.12363296296504769 -0.2368595456931363
leaf_weight=116 124 87
leaf_count=116 124 87
internal_value=0.000352876 -0.0771523
internal_weight=327 203
internal_count=327 203
is_linear=0
shrinkage=0.0660907


Tree=42
num_leaves=4
num_cat=0
split_feature=93 23 34
split_gain=742.232 956.466 605.6
threshold=0.52890200000000009 -0.5099999999999999 0.82411500000000004
decision_type=2 2 2
left_child=1 -1 -3
right_child=-2 2 -4
leaf_value=0.18951015329026741 -0.18085510176666444 0.064647579769073996 -0.18827305693858093
leaf_weight=112 67 79 69
leaf_count=112 67 79 69
internal_value=0.000209811 0.0518495 -0.0576212
internal_weight=327 260 148
internal_count=327 260 148
is_linear=0
shrinkage=0.0660907


Tree=43
num_leaves=4
num_cat=0
split_feature=2 3 187
split_gain=729.454 1091.46 786.195
threshold=4.5500000000000007 0.50100950000000011 0.0019120000000000003
decision_type=2 2 2
left_child=-1 -2 -3
right_child=1 2 -4
leaf_value=0.15960386963374384 0.15300909415335059 -0.021669132508691211 -0.29757895974412901
leaf_weight=82 68 106 71
leaf_count=82 68 106 71
internal_value=0 -0.0575513 -0.142338
internal_weight=327 245 177
internal_count=327 245 177
is_linear=0
shrinkage=0.0660907


Tree=44
num_leaves=4
num_cat=0
split_feature=82 55 225
split_gain=718.233 1113.69 955.553
threshold=-0.0094234999999999979 19.950000000000003 1.4740615000000001
decision_type=2 2 2
left_child=2 -2 -1
right_child=1 -3 -4
leaf_value=0.042701572772711409 -0.052504625616753946 0.27888205442062503 -0.26535008145808958
leaf_weight=94 95 69 69
leaf_count=94 95 69 69
internal_value=0 0.0948193 -0.0953863
internal_weight=327 164 163
internal_count=327 164 163
is_linear=0
shrinkage=0.0660907


Tree=45
num_leaves=3
num_cat=0
split_feature=4 7
split_gain=689.481 796.581
threshold=-0.017499999999999998 0.78027350000000006
decision_type=2 2
left_child=-1 -2
right_child=1 -3
leaf_value=-0.11537510579799025 -0.10084175961104182 0.16488543788253182
leaf_weight=127 67 133
leaf_count=127 67 133
internal_value=0 0.0752531
internal_weight=327 200
internal_count=327 200
is_linear=0
shrinkage=0.0660907


Tree=46
num_leaves=4
num_cat=0
split_feature=15 158 31
split_gain=696.364 906.781 589.14
threshold=61.150002000000008 -1.0000000180025095e-35 1.8860285000000003
decision_type=2 2 2
left_child=1 -1 -3
right_child=-2 2 -4
leaf_value=-0.19533029510217101 0.15699992226307713 0.17732764500993053 -0.076053239390062269
leaf_weight=104 81 70 72
leaf_count=104 81 70 72
internal_value=-7.00192e-05 -0.055919 0.0522051
internal_weight=327 246 142
internal_count=327 246 142
is_linear=0
shrinkage=0.0660907


Tree=47
num_leaves=4
num_cat=0
split_feature=10 19 117
split_gain=668.987 953.215 633.273
threshold=1.0101495 0.98510900000000012 24.930536500000006
decision_type=2 2 2
left_child=1 -1 -2
right_child=2 -3 -4
leaf_value=0.24580569358450435 0.033546838278651236 -0.044115235373047568 -0.2343030068376972
leaf_weight=76 71 111 69
leaf_count=76 71 111 69
internal_value=0 0.080111 -0.105166
internal_weight=327 187 140
internal_count=327 187 140
is_linear=0
shrinkage=0.0660907


Tree=48
num_leaves=4
num_cat=0
split_feature=230 154 40
split_gain=681.992 774.868 857.59
threshold=55.750000000000007 12.9744875 182.09999850000003
decision_type=2 2 2
left_child=1 2 -1
right_child=-2 -3 -4
leaf_value=-0.16044774392327671 -0.14667967840949514 0.23124110160080474 0.12060649536118967
leaf_weight=84 89 68 86
leaf_count=84 89 68 86
internal_value=0 0.058565 -0.019395
internal_weight=327 238 170
internal_count=327 238 170
is_linear=0
shrinkage=0.0660907


Tree=49
num_leaves=4
num_cat=0
split_feature=123 23 164
split_gain=665.876 803.078 863.32
threshold=11.080000000000002 0.83500000000000008 -1.0000000180025095e-35
decision_type=2 2 2
left_child=-1 2 -2
right_child=1 -3 -4
leaf_value=-0.14183726320116011 -0.016354346899071049 -0.086263589192853596 0.29769105219890024
leaf_weight=92 69 93 73
leaf_count=92 69 93 73
internal_value=7.73558e-05 0.0591811 0.153924
internal_weight=327 235 142
internal_count=327 235 142
is_linear=0
shrinkage=0.0660907


Tree=50
num_leaves=4
num_cat=0
split_feature=14 27 79
split_gain=650.445 882.747 836.465
threshold=9.0500000000000025 248.25000000000003 0.75385100000000016
decision_type=2 2 2
left_child=-1 -2 -3
right_child=1 2 -4
leaf_value=-0.1505120528744732 -0.11491378138229857 0.29191158157744446 0.0014444756949335447
leaf_weight=82 81 73 91
leaf_count=82 81 73 91
internal_value=0.000169263 0.0545458 0.140091
internal_weight=327 245 164
internal_count=327 245 164
is_linear=0
shrinkage=0.0660907


Tree=51
num_leaves=4
num_cat=0
split_feature=125 225 79
split_gain=636.928 713.804 924.118
threshold=42.566421500000011 2.0599060000000002 0.82678150000000017
decision_type=2 2 2
left_child=1 2 -1
right_child=-2 -3 -4
leaf_value=0.20064003109609976 0.14719621520569806 -0.18133967763378239 -0.1149281960236853
leaf_weight=69 84 100 74
leaf_count=69 84 100 74
internal_value=0.00021026 -0.05434 0.0404064
internal_weight=327 243 143
internal_count=327 243 143
is_linear=0
shrinkage=0.0660907


Tree=52
num_leaves=3
num_cat=0
split_feature=229 1
split_gain=630.863 682.478
threshold=-0.086122499999999991 23.524016500000005
decision_type=2 2
left_child=-1 -2
right_child=1 -3
leaf_value=-0.13409899842272072 -0.052924825728481652 0.16627611756877431
leaf_weight=96 115 116
leaf_count=96 115 116
internal_value=0.000294608 0.0594199
internal_weight=327 231
internal_count=327 231
is_linear=0
shrinkage=0.0660907


Tree=53
num_leaves=4
num_cat=0
split_feature=68 49 224
split_gain=634.477 940.502 330.305
threshold=-0.060453499999999993 0.91472750000000003 2.3350000000000004
decision_type=2 2 2
left_child=-1 2 -2
right_child=1 -3 -4
leaf_value=0.13324882059077361 -0.048048496739367313 -0.21106833507239081 0.14591308724587579
leaf_weight=98 69 93 67
leaf_count=98 69 93 67
internal_value=0.000230237 -0.0598201 0.0508558
internal_weight=327 229 136
internal_count=327 229 136
is_linear=0
shrinkage=0.0660907


Tree=54
num_leaves=4
num_cat=0
split_feature=25 39 5
split_gain=634.85 965.877 664.328
threshold=90.121502000000007 4.2940340000000008 0.019751500000000002
decision_type=2 2 2
left_child=1 2 -1
right_child=-2 -3 -4
leaf_value=-0.12652586913233166 -0.16050223951950027 0.2457087884151162 0.11499681801621775
leaf_weight=113 72 68 74
leaf_count=113 72 68 74
internal_value=0.000251841 0.0500004 -0.0299125
internal_weight=327 255 187
internal_count=327 255 187
is_linear=0
shrinkage=0.0660907


Tree=55
num_leaves=4
num_cat=0
split_feature=2 3 38
split_gain=639.073 876.775 637.095
threshold=4.5500000000000007 0.50100950000000011 7.080000000000001
decision_type=2 2 2
left_child=-1 -2 -3
right_child=1 2 -4
leaf_value=0.14978462399466541 0.13535569005893458 0.0089104961478341828 -0.23612715038729748
leaf_weight=82 68 81 96
leaf_count=82 68 81 96
internal_value=0.000376522 -0.0534726 -0.129416
internal_weight=327 245 177
internal_count=327 245 177
is_linear=0
shrinkage=0.0660907


Tree=56
num_leaves=4
num_cat=0
split_feature=59 26 66
split_gain=611.002 764.651 553.661
threshold=1.0288855000000001 9.8785715000000014 0.91853650000000009
decision_type=2 2 2
left_child=1 2 -1
right_child=-2 -3 -4
leaf_value=0.075123054736439432 -0.1434506882210152 0.19189126044903601 -0.16541161170122512
leaf_weight=80 84 94 69
leaf_count=80 84 94 69
internal_value=0.000466738 0.053941 -0.0395702
internal_weight=327 243 149
internal_count=327 243 149
is_linear=0
shrinkage=0.0660907


Tree=57
num_leaves=4
num_cat=0
split_feature=56 217 202
split_gain=607.083 745.642 607.407
threshold=-0.018035999999999996 -0.30911349999999999 0.34500000000000003
decision_type=2 2 2
left_child=-1 -2 -3
right_child=1 2 -4
leaf_value=-0.14852798182796653 -0.092498651660536918 0.24047241716402173 -0.014019630877050989
leaf_weight=79 91 89 68
leaf_count=79 91 89 68
internal_value=0.000352114 0.0517155 0.135903
internal_weight=327 248 157
internal_count=327 248 157
is_linear=0
shrinkage=0.0660907


Tree=58
num_leaves=3
num_cat=0
split_feature=4 280
split_gain=588.191 691.476
threshold=-0.017499999999999998 0.031754000000000011
decision_type=2 2
left_child=-1 -2
right_child=1 -3
leaf_value=-0.10624403534595751 0.16775008403295011 -0.071265578223007886
leaf_weight=127 117 83
leaf_count=127 117 83
internal_value=0.000293733 0.0698257
internal_weight=327 200
internal_count=327 200
is_linear=0
shrinkage=0.0660907


Tree=59
num_leaves=4
num_cat=0
split_feature=19 80 118
split_gain=580.758 976.009 947.988
threshold=0.98196650000000008 -0.088122999999999993 25.425000500000003
decision_type=2 2 2
left_child=1 -1 -2
right_child=2 -3 -4
leaf_value=-0.071775011327879709 0.10343720928091542 0.26144023025205326 -0.18498204710504071
leaf_weight=69 74 68 116
leaf_count=69 74 68 116
internal_value=0.000250829 0.100032 -0.0730352
internal_weight=327 137 190
internal_count=327 137 190
is_linear=0
shrinkage=0.0660907


Tree=60
num_leaves=4
num_cat=0
split_feature=15 128 175
split_gain=576.312 783.424 594.487
threshold=61.150002000000008 29.269999500000001 3.3770400000000005
decision_type=2 2 2
left_child=1 2 -1
right_child=-2 -3 -4
leaf_value=-0.068816343532069876 0.14338139124729704 -0.22209209276653391 0.1666900467063212
leaf_weight=108 81 70 68
leaf_count=108 81 70 68
internal_value=0.000442689 -0.0503163 0.0261577
internal_weight=327 246 176
internal_count=327 246 176
is_linear=0
shrinkage=0.0660907


Tree=61
num_leaves=3
num_cat=0
split_feature=7 279
split_gain=573.553 922.036
threshold=0.98655950000000014 -0.50505999999999984
decision_type=2 2
left_child=1 -1
right_child=-2 -3
leaf_value=0.08118500722885616 0.10960744931143078 -0.18786513802481924
leaf_weight=95 121 111
leaf_count=95 121 111
internal_value=0.000448532 -0.0657089
internal_weight=327 206
internal_count=327 206
is_linear=0
shrinkage=0.0660907


Tree=62
num_leaves=4
num_cat=0
split_feature=14 94 118
split_gain=576.408 955.616 531.757
threshold=25.950000000000003 0.96322000000000008 25.935000500000005
decision_type=2 2 2
left_child=1 -1 -3
right_child=-2 2 -4
leaf_value=0.13022518403022024 0.13436902414463944 -0.0010298613536014489 -0.23791652662954155
leaf_weight=75 90 70 92
leaf_count=75 90 70 92
internal_value=0.000424595 -0.0537534 -0.141598
internal_weight=327 237 162
internal_count=327 237 162
is_linear=0
shrinkage=0.0660907


Tree=63
num_leaves=4
num_cat=0
split_feature=165 222 175
split_gain=568.845 857.05 693.244
threshold=1.0593925000000002 4.2500000000000009 2.9636275000000007
decision_type=2 2 2
left_child=1 2 -1
right_child=-2 -3 -4
leaf_value=-0.096769061882214458 0.13636783912873407 -0.21867915451797643 0.16179615501355066
leaf_weight=80 87 78 82
leaf_count=80 87 78 82
internal_value=0.00044427 -0.052244 0.0358296
internal_weight=327 240 162
internal_count=327 240 162
is_linear=0
shrinkage=0.0660907


Tree=64
num_leaves=4
num_cat=0
split_feature=2 3 38
split_gain=573.123 750.581 532.929
threshold=4.5500000000000007 0.50100950000000011 7.080000000000001
decision_type=2 2 2
left_child=-1 -2 -3
right_child=1 2 -4
leaf_value=0.14186906059841586 0.12416205580488862 0.0059134221239451473 -0.21844217522924561
leaf_weight=82 68 81 96
leaf_count=82 68 81 96
internal_value=0.000378991 -0.0506149 -0.120852
internal_weight=327 245 177
internal_count=327 245 177
is_linear=0
shrinkage=0.0660907


Tree=65
num_leaves=4
num_cat=0
split_feature=82 55 140
split_gain=545.08 825.178 592.572
threshold=-0.0094234999999999979 19.950000000000003 25.805524000000002
decision_type=2 2 2
left_child=2 -2 -1
right_child=1 -3 -4
leaf_value=-0.18078405882328258 -0.043827019493879363 0.24150192634423009 0.06309282062826313
leaf_weight=96 95 69 67
leaf_count=96 95 69 67
internal_value=0.00046043 0.0830908 -0.0826083
internal_weight=327 164 163
internal_count=327 164 163
is_linear=0
shrinkage=0.0660907


Tree=66
num_leaves=4
num_cat=0
split_feature=147 217 66
split_gain=533.329 808.779 729.611
threshold=1258.5000000000002 -0.382546 0.85408400000000018
decision_type=2 2 2
left_child=-1 -2 -3
right_child=1 2 -4
leaf_value=-0.14331696893262802 -0.12115863128482919 0.27611615619202018 0.0096467563072258899
leaf_weight=75 77 69 106
leaf_count=75 77 69 106
internal_value=0.000583611 0.0472657 0.123961
internal_weight=327 252 175
internal_count=327 252 175
is_linear=0
shrinkage=0.0660907


Tree=67
num_leaves=4
num_cat=0
split_feature=123 32 23
split_gain=542.28 644.752 592.619
threshold=11.080000000000002 1.0172505000000001 0.68500000000000016
decision_type=2 2 2
left_child=-1 2 -2
right_child=1 -3 -4
leaf_value=-0.12749548371217051 0.084778950494221544 0.19993285472014297 -0.1577132478456994
leaf_weight=92 90 76 69
leaf_count=92 90 76 69
internal_value=0.000584279 0.0539099 -0.023472
internal_weight=327 235 159
internal_count=327 235 159
is_linear=0
shrinkage=0.0660907


Tree=68
num_leaves=4
num_cat=0
split_feature=61 82 19
split_gain=524.417 661.935 507.71
threshold=-0.035612499999999998 -0.004681499999999999 1.0361410000000002
decision_type=2 2 2
left_child=2 -2 -1
right_child=1 -3 -4
leaf_value=0.20983234114422372 -0.19099142809846442 0.045392996415794154 -0.033199741943043974
leaf_weight=69 89 102 67
leaf_count=69 89 102 67
internal_value=0.00054246 -0.0686946 0.0959151
internal_weight=327 191 136
internal_count=327 191 136
is_linear=0
shrinkage=0.0660907


Tree=69
num_leaves=4
num_cat=0
split_feature=230 65 40
split_gain=512.626 575.067 454.532
threshold=55.750000000000007 11.735290000000001 183.14999400000002
decision_type=2 2 2
left_child=1 2 -1
right_child=-2 -3 -4
leaf_value=-0.12861555364238139 -0.12660880581248726 0.18607824254098432 0.082352450397814192
leaf_weight=78 89 79 81
leaf_count=78 89 79 81
internal_value=0.000564842 0.0513346 -0.022551
internal_weight=327 238 159
internal_count=327 238 159
is_linear=0
shrinkage=0.0660907


Tree=70
num_leaves=4
num_cat=0
split_feature=78 202 175
split_gain=529.097 629.572 323.443
threshold=70.764999500000016 -0.70999999999999985 2.9636275000000007
decision_type=2 2 2
left_child=1 -1 -3
right_child=-2 2 -4
leaf_value=0.1638886292051385 -0.13950099961337395 -0.12670059503560771 0.060339170838487229
leaf_weight=105 78 77 67
leaf_count=105 78 77 67
internal_value=0.000551007 0.0481354 -0.0413232
internal_weight=327 249 144
internal_count=327 249 144
is_linear=0
shrinkage=0.0660907


Tree=71
num_leaves=4
num_cat=0
split_feature=30 66 221
split_gain=493.359 688.379 724.373
threshold=1.6500000000000001 0.44568850000000004 16.550000000000004
decision_type=2 2 2
left_child=1 -1 -3
right_child=-2 2 -4
leaf_value=0.20711252980057196 -0.14596872066543473 -0.13462667041410942 0.11226095176119835
leaf_weight=69 68 105 85
leaf_count=69 68 105 85
internal_value=0.000430567 0.0428817 -0.0240299
internal_weight=327 259 190
internal_count=327 259 190
is_linear=0
shrinkage=0.0660907


Tree=72
num_leaves=3
num_cat=0
split_feature=68 16
split_gain=483.334 840.834
threshold=-0.060453499999999993 95.800018000000009
decision_type=2 2
left_child=-1 -2
right_child=1 -3
leaf_value=0.11657051099833056 -0.18472705325335331 0.060288187556515355
leaf_weight=98 102 127
leaf_count=98 102 127
internal_value=0.000475434 -0.0519403
internal_weight=327 229
internal_count=327 229
is_linear=0
shrinkage=0.0660907


Tree=73
num_leaves=4
num_cat=0
split_feature=11 163 16
split_gain=485.612 573.334 467.474
threshold=2.7833335000000003 11.185 95.800018000000009
decision_type=2 2 2
left_child=-1 2 -2
right_child=1 -3 -4
leaf_value=-0.13581636815356227 -0.15429927226298731 0.16320213161220001 0.064436230454545107
leaf_weight=76 67 97 87
leaf_count=76 67 97 87
internal_value=0.000428681 0.0453258 -0.0342416
internal_weight=327 251 154
internal_count=327 251 154
is_linear=0
shrinkage=0.0660907


Tree=74
num_leaves=4
num_cat=0
split_feature=93 60 179
split_gain=483.534 589.928 424.372
threshold=0.52890200000000009 0.92293150000000013 5.9950025000000009
decision_type=2 2 2
left_child=1 2 -1
right_child=-2 -3 -4
leaf_value=-0.13740833876957684 -0.14586323502236806 0.16966385583815313 0.061365657923211296
leaf_weight=77 67 90 93
leaf_count=77 67 90 93
internal_value=0.000276375 0.0419596 -0.0312193
internal_weight=327 260 170
internal_count=327 260 170
is_linear=0
shrinkage=0.0660907


Tree=75
num_leaves=4
num_cat=0
split_feature=1 121 11
split_gain=475.496 696.979 417.781
threshold=25.293226000000004 1.0138340000000003 3.2666665000000004
decision_type=2 2 2
left_child=1 -1 -2
right_child=2 -3 -4
leaf_value=-0.18018050613993905 -0.029880377809705178 0.067241535050943102 0.18524302926913572
leaf_weight=99 69 84 75
leaf_count=99 69 84 75
internal_value=0.000154078 -0.068936 0.0868127
internal_weight=327 183 144
internal_count=327 183 144
is_linear=0
shrinkage=0.0660907


Tree=76
num_leaves=4
num_cat=0
split_feature=5 88 88
split_gain=480.154 724.15 369.139
threshold=0.016459500000000005 0.98002050000000007 1.0116005000000003
decision_type=2 2 2
left_child=1 -1 -3
right_child=-2 2 -4
leaf_value=0.10301404199899823 0.098295872061570366 -0.24652664655852 -0.029157915292402296
leaf_weight=69 124 67 67
leaf_count=69 124 67 67
internal_value=0.000224321 -0.0614188 -0.147435
internal_weight=327 203 134
internal_count=327 203 134
is_linear=0
shrinkage=0.0660907


Tree=77
num_leaves=4
num_cat=0
split_feature=25 39 147
split_gain=461.197 683.022 532.589
threshold=90.121502000000007 4.2940340000000008 1388.2000125000002
decision_type=2 2 2
left_child=1 2 -1
right_child=-2 -3 -4
leaf_value=-0.11309784464419223 -0.1369439985924151 0.20704592772070837 0.10233739107535264
leaf_weight=111 72 68 76
leaf_count=111 72 68 76
internal_value=6.234e-05 0.0424737 -0.0247378
internal_weight=327 255 187
internal_count=327 255 187
is_linear=0
shrinkage=0.0660907


Tree=78
num_leaves=4
num_cat=0
split_feature=8 293 11
split_gain=465.69 647.095 603.359
threshold=0.23928550000000001 50.049999000000007 3.1500000000000004
decision_type=2 2 2
left_child=1 -1 -2
right_child=2 -3 -4
leaf_value=0.063045498692666069 -0.033158096787955102 -0.18940911096496935 0.210255829488489
leaf_weight=74 95 88 70
leaf_count=74 95 88 70
internal_value=0.000171608 -0.0770441 0.0761186
internal_weight=327 162 165
internal_count=327 162 165
is_linear=0
shrinkage=0.0660907


Tree=79
num_leaves=4
num_cat=0
split_feature=78 23 275
split_gain=455.954 629.88 320.477
threshold=70.764999500000016 -0.5099999999999999 43.335001000000013
decision_type=2 2 2
left_child=1 -1 -3
right_child=-2 2 -4
leaf_value=0.15765129023237376 -0.1297451431288297 -0.13856119034951822 0.049302437229906931
leaf_weight=108 78 70 71
leaf_count=108 78 70 71
internal_value=0.000256885 0.0444396 -0.0468687
internal_weight=327 249 141
internal_count=327 249 141
is_linear=0
shrinkage=0.0660907


Tree=80
num_leaves=3
num_cat=0
split_feature=4 280
split_gain=453.733 517.02
threshold=-0.017499999999999998 0.031754000000000011
decision_type=2 2
left_child=-1 -2
right_child=1 -3
leaf_value=-0.093445693122271481 0.14585527547052141 -0.060854968899657004
leaf_weight=127 117 83
leaf_count=127 117 83
internal_value=0.000118125 0.0611958
internal_weight=327 200
internal_count=327 200
is_linear=0
shrinkage=0.0660907


Tree=81
num_leaves=4
num_cat=0
split_feature=32 22 175
split_gain=450.272 554.205 386.792
threshold=1.4098090000000003 1.0000000180025095e-35 3.0488890000000004
decision_type=2 2 2
left_child=1 2 -1
right_child=-2 -3 -4
leaf_value=-0.21916037741448252 0.13133357992345404 0.065665185960571776 -0.0057213323986611917
leaf_weight=75 76 109 67
leaf_count=75 76 109 67
internal_value=8.93893e-05 -0.0430931 -0.125487
internal_weight=327 251 142
internal_count=327 251 142
is_linear=0
shrinkage=0.0660907


Tree=82
num_leaves=3
num_cat=0
split_feature=7 62
split_gain=430.669 589.686
threshold=0.78027350000000006 50.99499500000001
decision_type=2 2
left_child=-1 -2
right_child=1 -3
leaf_value=-0.10188978826419295 -0.073931328599268986 0.1385682639482744
leaf_weight=109 88 130
leaf_count=109 88 130
internal_value=2.69132e-05 0.0532549
internal_weight=327 218
internal_count=327 218
is_linear=0
shrinkage=0.0660907


Tree=83
num_leaves=4
num_cat=0
split_feature=14 27 66
split_gain=445.806 619.454 717.483
threshold=9.0500000000000025 248.25000000000003 1.0010485000000002
decision_type=2 2 2
left_child=-1 -2 -3
right_child=1 2 -4
leaf_value=-0.12478692129369047 -0.096925474519439378 0.23110656890847942 -0.03646059141509541
leaf_weight=82 81 91 73
leaf_count=82 81 91 73
internal_value=0 0.0449765 0.116661
internal_weight=327 245 164
internal_count=327 245 164
is_linear=0
shrinkage=0.0660907


Tree=84
num_leaves=4
num_cat=0
split_feature=15 158 181
split_gain=435.958 665.301 326.478
threshold=61.150002000000008 -1.0000000180025095e-35 0.0018095000000000001
decision_type=2 2 2
left_child=1 -1 -3
right_child=-2 2 -4
leaf_value=-0.16372598054818988 0.12423131911318223 0.13527231584202032 -0.054034131917143437
leaf_weight=104 81 75 67
leaf_count=104 81 75 67
internal_value=-4.02505e-05 -0.0442371 0.0481837
internal_weight=327 246 142
internal_count=327 246 142
is_linear=0
shrinkage=0.0660907


Tree=85
num_leaves=4
num_cat=0
split_feature=165 222 179
split_gain=431.819 696.708 623.856
threshold=1.0593925000000002 4.2500000000000009 5.8100010000000006
decision_type=2 2 2
left_child=1 2 -1
right_child=-2 -3 -4
leaf_value=-0.096474934791609457 0.11842075737094777 -0.19599420615071694 0.14901497116123311
leaf_weight=77 87 78 85
leaf_count=77 87 78 85
internal_value=0 -0.0459116 0.0334327
internal_weight=327 240 162
internal_count=327 240 162
is_linear=0
shrinkage=0.0660907


Tree=86
num_leaves=4
num_cat=0
split_feature=125 73 205
split_gain=440.012 557.127 313.531
threshold=42.566421500000011 86.73699950000001 168.44915750000004
decision_type=2 2 2
left_child=1 2 -1
right_child=-2 -3 -4
leaf_value=-0.050412997044175276 0.12211096638409843 -0.17113524738731808 0.12731635803046507
leaf_weight=89 84 86 68
leaf_count=89 84 86 68
internal_value=-3.59524e-06 -0.045399 0.0294924
internal_weight=327 243 157
internal_count=327 243 157
is_linear=0
shrinkage=0.0660907


Tree=87
num_leaves=4
num_cat=0
split_feature=29 135 181
split_gain=430.84 653.715 785.266
threshold=11.500000000000002 17.909999500000005 -0.0032959999999999999
decision_type=2 2 2
left_child=1 2 -1
right_child=-2 -3 -4
leaf_value=0.18421859381608391 0.11829349247706679 -0.16892619071078735 -0.10775121330389578
leaf_weight=73 87 98 69
leaf_count=73 87 98 69
internal_value=0 -0.0458525 0.0445018
internal_weight=327 240 142
internal_count=327 240 142
is_linear=0
shrinkage=0.0660907


Tree=88
num_leaves=4
num_cat=0
split_feature=2 3 204
split_gain=416.891 521.922 535.455
threshold=4.5500000000000007 0.50100950000000011 0.016867000000000004
decision_type=2 2 2
left_child=-1 -2 -3
right_child=1 2 -4
leaf_value=0.12072171519599005 0.10236454088430423 0.00098260630604640915 -0.22325121584646851
leaf_weight=82 68 101 76
leaf_count=82 68 101 76
internal_value=3.4567e-05 -0.043444 -0.101985
internal_weight=327 245 177
internal_count=327 245 177
is_linear=0
shrinkage=0.0660907


Tree=89
num_leaves=4
num_cat=0
split_feature=120 43 10
split_gain=415.437 553.557 486.029
threshold=8.8000000000000025 1.0194940000000001 0.99877450000000001
decision_type=2 2 2
left_child=1 2 -1
right_child=-2 -3 -4
leaf_value=0.086033981912661109 -0.12127445526282365 0.16692555975882059 -0.13325656149688192
leaf_weight=74 81 88 84
leaf_count=74 81 88 84
internal_value=3.61114e-05 0.0431811 -0.0314691
internal_weight=327 246 158
internal_count=327 246 158
is_linear=0
shrinkage=0.0660907


Tree=90
num_leaves=4
num_cat=0
split_feature=8 287 138
split_gain=400.47 639.346 397.296
threshold=0.6480355000000001 10.950000000000001 21.069999500000005
decision_type=2 2 2
left_child=1 2 -1
right_child=-2 -3 -4
leaf_value=0.0047836169391886054 0.12775765520717586 0.091541873951118721 -0.19975096723946068
leaf_weight=69 72 94 92
leaf_count=69 72 94 92
internal_value=2.84259e-05 -0.0394312 -0.116843
internal_weight=327 255 161
internal_count=327 255 161
is_linear=0
shrinkage=0.0660907


Tree=91
num_leaves=4
num_cat=0
split_feature=14 42 185
split_gain=409.493 750.405 449.771
threshold=25.950000000000003 0.089809500000000014 445.00000000000006
decision_type=2 2 2
left_child=1 2 -1
right_child=-2 -3 -4
leaf_value=0.14610400115362687 0.11298660783318967 -0.21551432685586155 -0.060122366021602119
leaf_weight=72 90 68 97
leaf_count=72 90 68 97
internal_value=7.61961e-05 -0.0455753 0.0309071
internal_weight=327 237 169
internal_count=327 237 169
is_linear=0
shrinkage=0.0660907


Tree=92
num_leaves=3
num_cat=0
split_feature=7 24
split_gain=409.908 578.36
threshold=0.98655950000000014 0.067924500000000013
decision_type=2 2
left_child=1 -1
right_child=-2 -3
leaf_value=-0.18543728530299738 0.092333345623334659 0.032237715044880322
leaf_weight=79 121 127
leaf_count=79 121 127
internal_value=3.66845e-05 -0.0558772
internal_weight=327 206
internal_count=327 206
is_linear=0
shrinkage=0.0660907


Tree=93
num_leaves=4
num_cat=0
split_feature=19 118 190
split_gain=398.715 644.715 423.362
threshold=0.98196650000000008 25.425000500000003 1.0064775000000001
decision_type=2 2 2
left_child=2 -2 -1
right_child=1 -3 -4
leaf_value=0.18852636529534184 0.084765875005599664 -0.15310285732964599 -0.032222766620670099
leaf_weight=68 74 116 69
leaf_count=68 74 116 69
internal_value=-1.6644e-05 -0.0607936 0.0826065
internal_weight=327 190 137
internal_count=327 190 137
is_linear=0
shrinkage=0.0660907


Tree=94
num_leaves=3
num_cat=0
split_feature=4 22
split_gain=389.576 403.883
threshold=-0.017499999999999998 1.0000000180025095e-35
decision_type=2 2
left_child=-1 -2
right_child=1 -3
leaf_value=-0.086603599914133925 -0.021667729642361522 0.16172141584628635
leaf_weight=127 119 81
leaf_count=127 119 81
internal_value=9.04008e-05 0.0566884
internal_weight=327 200
internal_count=327 200
is_linear=0
shrinkage=0.0660907


Tree=95
num_leaves=4
num_cat=0
split_feature=32 67 13
split_gain=390.89 500.959 513.429
threshold=1.4098090000000003 0.006614000000000001 5.7261615000000008
decision_type=2 2 2
left_child=1 -1 -3
right_child=-2 2 -4
leaf_value=0.081206495560777872 0.12246746394462488 -0.22241064838981864 0.0047363431077101512
leaf_weight=88 76 75 88
leaf_count=88 76 75 88
internal_value=0.0001841 -0.0400509 -0.106485
internal_weight=327 251 163
internal_count=327 251 163
is_linear=0
shrinkage=0.0660907


Tree=96
num_leaves=4
num_cat=0
split_feature=104 224 146
split_gain=379.592 504.199 334.899
threshold=-1.9499999999999997 2.3700000000000006 55.195140500000008
decision_type=2 2 2
left_child=-1 2 -2
right_child=1 -3 -4
leaf_value=0.11881629034928155 -0.010607612993591749 0.061002583182353978 -0.21279201618610608
leaf_weight=78 67 112 70
leaf_count=78 67 112 70
internal_value=0.000146889 -0.0401147 -0.121393
internal_weight=327 249 137
internal_count=327 249 137
is_linear=0
shrinkage=0.0660907


Tree=97
num_leaves=4
num_cat=0
split_feature=147 217 57
split_gain=375.831 576.575 530.404
threshold=1258.5000000000002 -0.382546 1.1603510000000001
decision_type=2 2 2
left_child=-1 -2 -3
right_child=1 2 -4
leaf_value=-0.12073069261529067 -0.10290287327754734 0.18970215397778004 -0.037617649628173579
leaf_weight=75 77 107 68
leaf_count=75 77 107 68
internal_value=5.00291e-05 0.0392556 0.104034
internal_weight=327 252 175
internal_count=327 252 175
is_linear=0
shrinkage=0.0660907


Tree=98
num_leaves=4
num_cat=0
split_feature=2 3 204
split_gain=371.931 458.037 434.037
threshold=4.5500000000000007 0.50100950000000011 0.023858500000000001
decision_type=2 2 2
left_child=-1 -2 -3
right_child=1 2 -4
leaf_value=0.11389988058132507 0.095457181726487886 -0.007194697061590938 -0.21126613764389715
leaf_weight=82 68 106 71
leaf_count=82 68 106 71
internal_value=-3.17086e-05 -0.041161 -0.0959915
internal_weight=327 245 177
internal_count=327 245 177
is_linear=0
shrinkage=0.0660907


Tree=99
num_leaves=3
num_cat=0
split_feature=5 110
split_gain=375.288 580.124
threshold=0.016459500000000005 -0.037323999999999989
decision_type=2 2
left_child=1 -1
right_child=-2 -3
leaf_value=0.078114546453394093 0.086603209495813127 -0.14038746135668562
leaf_weight=80 124 123
leaf_count=80 124 123
internal_value=-4.51147e-05 -0.0545977
internal_weight=327 203
internal_count=327 203
is_linear=0
shrinkage=0.0660907


Tree=100
num_leaves=4
num_cat=0
split_feature=25 39 285
split_gain=360.167 511.713 475.173
threshold=90.121502000000007 4.2940340000000008 13.535000000000002
decision_type=2 2 2
left_child=1 2 -1
right_child=-2 -3 -4
leaf_value=0.10272670158919332 -0.12112448870989148 0.17986778333191927 -0.10183833358424467
leaf_weight=73 72 68 114
leaf_count=73 72 68 114
internal_value=0 0.0374284 -0.0207699
internal_weight=327 255 187
internal_count=327 255 187
is_linear=0
shrinkage=0.0660907


Tree=101
num_leaves=4
num_cat=0
split_feature=125 190 270
split_gain=355.658 484.805 476.46
threshold=42.566421500000011 1.0289195000000002 63.960006500000006
decision_type=2 2 2
left_child=1 2 -1
right_child=-2 -3 -4
leaf_value=-0.082528924219653063 0.10990752072270261 -0.17304546180023869 0.12653214591698514
leaf_weight=87 84 72 84
leaf_count=87 84 72 84
internal_value=5.98394e-05 -0.0406923 0.0214133
internal_weight=327 243 171
internal_count=327 243 171
is_linear=0
shrinkage=0.0660907


Tree=102
num_leaves=4
num_cat=0
split_feature=30 66 8
split_gain=351.151 469.949 605.273
threshold=1.6500000000000001 0.44568850000000004 0.12563800000000003
decision_type=2 2 2
left_child=1 -1 -3
right_child=-2 2 -4
leaf_value=0.17153839264297419 -0.12347938526106639 -0.14097262728571311 0.084470068191589545
leaf_weight=69 68 86 104
leaf_count=69 68 86 104
internal_value=1.63625e-05 0.0358457 -0.0194496
internal_weight=327 259 190
internal_count=327 259 190
is_linear=0
shrinkage=0.0660907


Tree=103
num_leaves=3
num_cat=0
split_feature=68 148
split_gain=350.09 563.223
threshold=-0.060453499999999993 1.5149995000000003
decision_type=2 2
left_child=-1 -2
right_child=1 -3
leaf_value=0.098818669746304835 0.064858696789982767 -0.13530171127973548
leaf_weight=98 105 124
leaf_count=98 105 124
internal_value=0 -0.0445965
internal_weight=327 229
internal_count=327 229
is_linear=0
shrinkage=0.0660907


Tree=104
num_leaves=4
num_cat=0
split_feature=212 133 164
split_gain=346.018 538.815 376.197
threshold=7.9663555000000015 22.004989500000004 -0.089999999999999983
decision_type=2 2 2
left_child=1 2 -1
right_child=-2 -3 -4
leaf_value=-0.088040109445686424 0.10384646122170037 -0.18322369329485244 0.10243139555515576
leaf_weight=68 90 70 99
leaf_count=68 90 70 99
internal_value=5.21081e-05 -0.0419092 0.0242211
internal_weight=327 237 167
internal_count=327 237 167
is_linear=0
shrinkage=0.0660907


Tree=105
num_leaves=3
num_cat=0
split_feature=96 10
split_gain=344.013 494.085
threshold=4.0150000000000006 1.0035120000000002
decision_type=2 2
left_child=-1 -2
right_child=1 -3
leaf_value=-0.095398993308218313 0.1359707501467152 -0.052638926181061564
leaf_weight=102 115 110
leaf_count=102 115 110
internal_value=-1.25039e-05 0.0453862
internal_weight=327 225
internal_count=327 225
is_linear=0
shrinkage=0.0660907


Tree=106
num_leaves=4
num_cat=0
split_feature=32 230 22
split_gain=336.278 433.453 435.004
threshold=1.4098090000000003 55.750000000000007 1.0000000180025095e-35
decision_type=2 2 2
left_child=1 2 -1
right_child=-2 -3 -4
leaf_value=-0.071170061458050285 0.1133272985684347 -0.16572383492696172 0.12436546940508254
leaf_weight=100 76 70 81
leaf_count=100 76 70 81
internal_value=-3.51905e-05 -0.0374114 0.0181928
internal_weight=327 251 181
internal_count=327 251 181
is_linear=0
shrinkage=0.0660907


Tree=107
num_leaves=4
num_cat=0
split_feature=19 80 118
split_gain=331.534 583.835 549.055
threshold=0.98196650000000008 -0.088122999999999993 25.425000500000003
decision_type=2 2 2
left_child=1 -1 -2
right_child=2 -3 -4
leaf_value=-0.057343280673760717 0.078819435110612734 0.20021258526502361 -0.14065961442628275
leaf_weight=69 74 68 116
leaf_count=69 74 68 116
internal_value=-2.90706e-05 0.07531 -0.0554523
internal_weight=327 137 190
internal_count=327 137 190
is_linear=0
shrinkage=0.0660907


Tree=108
num_leaves=4
num_cat=0
split_feature=229 212 98
split_gain=329.886 395.116 445.181
threshold=-0.086122499999999991 3.1688645000000006 5.2000000000000011
decision_type=2 2 2
left_child=-1 -2 -3
right_child=1 2 -4
leaf_value=-0.09710506019918666 -0.062962363774873464 0.20885416449343977 -0.01577891823196324
leaf_weight=96 88 75 68
leaf_count=96 88 75 68
internal_value=6.52784e-05 0.0428337 0.107874
internal_weight=327 231 143
internal_count=327 231 143
is_linear=0
shrinkage=0.0660907


Tree=109
num_leaves=3
num_cat=0
split_feature=9 60
split_gain=325.993 576.785
threshold=0.025320500000000006 0.92293150000000013
decision_type=2 2
left_child=1 -1
right_child=-2 -3
leaf_value=-0.036756728200191977 -0.08418930931293192 0.17911644771864652
leaf_weight=131 117 79
leaf_count=131 117 79
internal_value=0.000118569 0.0488229
internal_weight=327 210
internal_count=327 210
is_linear=0
shrinkage=0.0660907


Tree=110
num_leaves=4
num_cat=0
split_feature=78 23 159
split_gain=323.691 437.357 233.652
threshold=70.764999500000016 -0.5099999999999999 27.769999500000004
decision_type=2 2 2
left_child=1 -1 -3
right_child=-2 2 -4
leaf_value=0.13178368778428379 -0.10931077119724929 0.044330530599757861 -0.115993100051168
leaf_weight=108 78 70 71
leaf_count=108 78 70 71
internal_value=0.000219604 0.0374516 -0.038645
internal_weight=327 249 141
internal_count=327 249 141
is_linear=0
shrinkage=0.0660907


Tree=111
num_leaves=4
num_cat=0
split_feature=2 124 76
split_gain=321.571 425.008 388.203
threshold=4.5500000000000007 78.150001500000016 0.90371600000000007
decision_type=2 2 2
left_child=-1 2 -2
right_child=1 -3 -4
leaf_value=0.10610439562632791 0.00020664094272984307 0.059263338047806952 -0.21246535710107109
leaf_weight=82 72 105 68
leaf_count=82 72 105 68
internal_value=0.000107007 -0.038077 -0.110248
internal_weight=327 245 140
internal_count=327 245 140
is_linear=0
shrinkage=0.0660907


Tree=112
num_leaves=4
num_cat=0
split_feature=96 159 8
split_gain=314.965 450.734 303.12
threshold=4.0150000000000006 41.569999500000009 0.36064500000000005
decision_type=2 2 2
left_child=-1 2 -2
right_child=1 -3 -4
leaf_value=-0.091195959613483854 0.012404071587740286 -0.086373240624986913 0.19395622743994478
leaf_weight=102 81 71 73
leaf_count=102 81 71 73
internal_value=1.08046e-05 0.0435141 0.105072
internal_weight=327 225 154
internal_count=327 225 154
is_linear=0
shrinkage=0.0660907


Tree=113
num_leaves=4
num_cat=0
split_feature=165 222 179
split_gain=312.986 492.691 465.286
threshold=1.0593925000000002 4.2500000000000009 5.8100010000000006
decision_type=2 2 2
left_child=1 2 -1
right_child=-2 -3 -4
leaf_value=-0.084369034438923407 0.10090323098726318 -0.16520808003838469 0.12760374819254403
leaf_weight=77 87 78 85
leaf_count=77 87 78 85
internal_value=6.39526e-05 -0.0390022 0.0277315
internal_weight=327 240 162
internal_count=327 240 162
is_linear=0
shrinkage=0.0660907


Tree=114
num_leaves=3
num_cat=0
split_feature=7 24
split_gain=314.697 414.845
threshold=0.98655950000000014 0.067924500000000013
decision_type=2 2
left_child=1 -1
right_child=-2 -3
leaf_value=-0.15867341134761978 0.08089124227770475 0.025746433710040414
leaf_weight=79 121 127
leaf_count=79 121 127
internal_value=1.64345e-05 -0.0489708
internal_weight=327 206
internal_count=327 206
is_linear=0
shrinkage=0.0660907


Tree=115
num_leaves=4
num_cat=0
split_feature=15 128 94
split_gain=311.493 448.178 415.573
threshold=61.150002000000008 29.269999500000001 0.98410350000000013
decision_type=2 2 2
left_child=1 2 -1
right_child=-2 -3 -4
leaf_value=0.13797423442150797 0.10502064764888591 -0.16731973445469508 -0.058896294049704125
leaf_weight=68 81 70 108
leaf_count=68 81 70 108
internal_value=-1.83493e-05 -0.0373827 0.0204136
internal_weight=327 246 176
internal_count=327 246 176
is_linear=0
shrinkage=0.0660907


Tree=116
num_leaves=4
num_cat=0
split_feature=29 151 109
split_gain=310.713 381.644 392.904
threshold=11.500000000000002 26.614285500000005 1.6365180000000004
decision_type=2 2 2
left_child=1 2 -1
right_child=-2 -3 -4
leaf_value=-0.063874981277336637 0.10042606514642399 -0.16039859999904518 0.12880038998843968
leaf_weight=104 87 68 68
leaf_count=104 87 68 68
internal_value=0 -0.0389706 0.0151097
internal_weight=327 240 172
internal_count=327 240 172
is_linear=0
shrinkage=0.0660907


Tree=117
num_leaves=4
num_cat=0
split_feature=132 5 64
split_gain=307.79 423.044 282.669
threshold=1.0595305000000002 0.016459500000000005 168.34999850000003
decision_type=2 2 2
left_child=1 2 -1
right_child=-2 -3 -4
leaf_value=-0.014440230406642104 0.085632515916183441 0.070046207063913624 -0.20039703312412074
leaf_weight=70 110 80 67
leaf_count=70 110 80 67
internal_value=0 -0.0452644 -0.11286
internal_weight=327 217 137
internal_count=327 217 137
is_linear=0
shrinkage=0.0660907


Tree=118
num_leaves=4
num_cat=0
split_feature=25 39 122
split_gain=295.614 402.268 339.496
threshold=90.121502000000007 4.2940340000000008 -1.0000000180025095e-35
decision_type=2 2 2
left_child=1 2 -1
right_child=-2 -3 -4
leaf_value=0.075006450600073202 -0.10982984197331425 0.16009787638327164 -0.095050999730454264
leaf_weight=85 72 68 102
leaf_count=85 72 68 102
internal_value=-8.64125e-05 0.0338131 -0.0178099
internal_weight=327 255 187
internal_count=327 255 187
is_linear=0
shrinkage=0.0660907


Tree=119
num_leaves=4
num_cat=0
split_feature=60 140 97
split_gain=289.634 576.405 473.789
threshold=0.71741150000000009 27.349509500000003 -0.41734999999999994
decision_type=2 2 2
left_child=1 -1 -2
right_child=2 -3 -4
leaf_value=-0.13991105308300883 -0.0438437623956335 0.089409927590860708 0.18420820280010827
leaf_weight=115 76 69 67
leaf_count=115 76 69 67
internal_value=-1.95726e-05 -0.053682 0.0679559
internal_weight=327 184 143
internal_count=327 184 143
is_linear=0
shrinkage=0.0660907


Tree=120
num_leaves=4
num_cat=0
split_feature=229 149 142
split_gain=291.278 434.205 573.06
threshold=-0.086122499999999991 34.549999000000007 -0.035945499999999998
decision_type=2 2 2
left_child=-1 -2 -3
right_child=1 2 -4
leaf_value=-0.091214833929654585 -0.081128165596825133 -0.030042124032566706 0.21462522409293414
leaf_weight=96 77 74 80
leaf_count=96 77 74 80
internal_value=9.13614e-05 0.0402804 0.102292
internal_weight=327 231 154
internal_count=327 231 154
is_linear=0
shrinkage=0.0660907


Tree=121
num_leaves=3
num_cat=0
split_feature=68 16
split_gain=284.557 464.15
threshold=-0.060453499999999993 95.800018000000009
decision_type=2 2
left_child=-1 -2
right_child=1 -3
leaf_value=0.089196617470000211 -0.13873096101328833 0.043348501873718116
leaf_weight=98 102 127
leaf_count=98 102 127
internal_value=0.000102462 -0.0401006
internal_weight=327 229
internal_count=327 229
is_linear=0
shrinkage=0.0660907


Tree=122
num_leaves=4
num_cat=0
split_feature=59 43 33
split_gain=284.745 412.706 373.074
threshold=1.0319775000000002 1.0180460000000002 0.45437500000000003
decision_type=2 2 2
left_child=1 2 -1
right_child=-2 -3 -4
leaf_value=-0.13442872642828141 -0.1003446507802493 0.14268286043913175 0.058643178930024117
leaf_weight=69 81 88 89
leaf_count=69 81 88 89
internal_value=8.36367e-05 0.0358073 -0.0285694
internal_weight=327 246 158
internal_count=327 246 158
is_linear=0
shrinkage=0.0660907


Tree=123
num_leaves=4
num_cat=0
split_feature=165 118 121
split_gain=285.618 425.401 342.734
threshold=1.0593925000000002 25.425000500000003 1.0119555000000002
decision_type=2 2 2
left_child=1 -1 -3
right_child=-2 2 -4
leaf_value=0.073175373034258265 0.09634335102444587 -0.18374690791635781 0.0095847454707446173
leaf_weight=88 87 84 68
leaf_count=88 87 84 68
internal_value=1.07002e-05 -0.0373055 -0.101904
internal_weight=327 240 152
internal_count=327 240 152
is_linear=0
shrinkage=0.0660907


Tree=124
num_leaves=3
num_cat=0
split_feature=33 60
split_gain=285.563 447.605
threshold=0.70205650000000008 0.71741150000000009
decision_type=2 2
left_child=1 -1
right_child=-2 -3
leaf_value=-0.042315115708724961 -0.089185557194951331 0.13638142572191131
leaf_weight=126 98 103
leaf_count=126 98 103
internal_value=3.1823e-06 0.04034
internal_weight=327 229
internal_count=327 229
is_linear=0
shrinkage=0.0660907


Tree=125
num_leaves=3
num_cat=0
split_feature=62 134
split_gain=276.835 436.221
threshold=49.679962500000009 1.0011810000000001
decision_type=2 2
left_child=-1 -2
right_child=1 -3
leaf_value=-0.075782777751761565 -0.040421382788163526 0.14492027456372755
leaf_weight=121 113 93
leaf_count=121 113 93
internal_value=8.00732e-06 0.046017
internal_weight=327 206
internal_count=327 206
is_linear=0
shrinkage=0.0660907


Tree=126
num_leaves=4
num_cat=0
split_feature=30 68 31
split_gain=275.671 389.117 634.525
threshold=1.6500000000000001 -0.060453499999999993 1.5719055000000002
decision_type=2 2 2
left_child=1 -1 -3
right_child=-2 2 -4
leaf_value=0.15529272015699341 -0.10935951875455205 0.12747360478692632 -0.10874325232891968
leaf_weight=69 68 71 119
leaf_count=69 68 71 119
internal_value=5.89577e-05 0.0318073 -0.0184679
internal_weight=327 259 190
internal_count=327 259 190
is_linear=0
shrinkage=0.0660907


Tree=127
num_leaves=4
num_cat=0
split_feature=133 61 82
split_gain=273.988 526.432 239.684
threshold=8.7777580000000022 -0.035612499999999998 -1.0000000180025095e-35
decision_type=2 2 2
left_child=-1 -2 -3
right_child=1 2 -4
leaf_value=0.09874938881050771 0.071654069098654988 -0.1975655053753001 -0.025475824581755152
leaf_weight=81 107 67 72
leaf_count=81 107 67 72
internal_value=0.000178823 -0.0348058 -0.116147
internal_weight=327 246 139
internal_count=327 246 139
is_linear=0
shrinkage=0.0660907


Tree=128
num_leaves=4
num_cat=0
split_feature=227 29 151
split_gain=270.197 438.334 414.851
threshold=-0.043641499999999993 11.500000000000002 10.000000000000002
decision_type=2 2 2
left_child=-1 2 -2
right_child=1 -3 -4
leaf_value=0.095810862912994413 -0.0047998635055715461 0.098908237061562737 -0.20544154583686958
leaf_weight=84 108 67 68
leaf_count=84 108 67 68
internal_value=6.22013e-05 -0.035454 -0.0892161
internal_weight=327 243 176
internal_count=327 243 176
is_linear=0
shrinkage=0.0660907


Tree=129
num_leaves=4
num_cat=0
split_feature=42 52 82
split_gain=265.476 326.492 250.028
threshold=0.089809500000000014 178.05880000000002 -0.004681499999999999
decision_type=2 2 2
left_child=1 2 -1
right_child=-2 -3 -4
leaf_value=-0.094380842995922226 -0.086550640656096384 0.14200126590519591 0.064357959064022155
leaf_weight=79 97 76 75
leaf_count=79 97 76 75
internal_value=2.56082e-05 0.0386574 -0.0177881
internal_weight=327 230 154
internal_count=327 230 154
is_linear=0
shrinkage=0.0660907


Tree=130
num_leaves=4
num_cat=0
split_feature=132 5 64
split_gain=260.553 363.001 229.425
threshold=1.0595305000000002 0.016459500000000005 168.34999850000003
decision_type=2 2 2
left_child=1 2 -1
right_child=-2 -3 -4
leaf_value=-0.015147003842718741 0.078894666184105927 0.065243019128594759 -0.1830605346224071
leaf_weight=70 110 80 67
leaf_count=70 110 80 67
internal_value=7.12239e-05 -0.0415395 -0.104167
internal_weight=327 217 137
internal_count=327 217 137
is_linear=0
shrinkage=0.0660907


Tree=131
num_leaves=4
num_cat=0
split_feature=14 94 118
split_gain=258.256 492.714 319.684
threshold=25.950000000000003 0.96322000000000008 25.935000500000005
decision_type=2 2 2
left_child=1 -1 -3
right_child=-2 2 -4
leaf_value=0.095663097770677191 0.089636426100257544 0.0080455708583686107 -0.1741433287548266
leaf_weight=75 90 70 92
leaf_count=75 90 70 92
internal_value=0 -0.0362856 -0.0994369
internal_weight=327 237 162
internal_count=327 237 162
is_linear=0
shrinkage=0.0660907


Tree=132
num_leaves=4
num_cat=0
split_feature=32 13 224
split_gain=255.303 339.787 393.666
threshold=1.4098090000000003 12.015490500000002 2.3850000000000002
decision_type=2 2 2
left_child=1 2 -1
right_child=-2 -3 -4
leaf_value=-0.1628920594537881 0.098837092310486901 0.076657373505899087 0.030328655194074211
leaf_weight=99 76 77 75
leaf_count=99 76 77 75
internal_value=1.29123e-06 -0.0325048 -0.0824052
internal_weight=327 251 174
internal_count=327 251 174
is_linear=0
shrinkage=0.0660907


Tree=133
num_leaves=3
num_cat=0
split_feature=9 60
split_gain=252.726 412.592
threshold=0.025320500000000006 0.92293150000000013
decision_type=2 2
left_child=1 -1
right_child=-2 -3
leaf_value=-0.029493789044584585 -0.074140134838516905 0.15314454023639743
leaf_weight=131 117 79
leaf_count=131 117 79
internal_value=8.70941e-05 0.0429749
internal_weight=327 210
internal_count=327 210
is_linear=0
shrinkage=0.0660907


Tree=134
num_leaves=4
num_cat=0
split_feature=1 85 16
split_gain=251.727 377.366 237.066
threshold=25.293226000000004 17.150000500000004 101.60002100000001
decision_type=2 2 2
left_child=1 -1 -2
right_child=2 -3 -4
leaf_value=-0.15795267487206807 -0.026486523328266183 0.027009260970754772 0.13553809497732622
leaf_weight=72 67 111 77
leaf_count=72 67 111 77
internal_value=0.000173337 -0.0500892 0.0632331
internal_weight=327 183 144
internal_count=327 183 144
is_linear=0
shrinkage=0.0660907


Tree=135
num_leaves=4
num_cat=0
split_feature=147 57 8
split_gain=247.154 309.267 367.652
threshold=1258.5000000000002 1.1773595000000003 0.25561200000000006
decision_type=2 2 2
left_child=-1 2 -2
right_child=1 -3 -4
leaf_value=-0.097824555084494752 -0.010311312802544711 -0.060528519776367452 0.18286051657400493
leaf_weight=75 85 92 75
leaf_count=75 85 92 75
internal_value=0.000116987 0.0319142 0.085567
internal_weight=327 252 160
internal_count=327 252 160
is_linear=0
shrinkage=0.0660907


Tree=136
num_leaves=3
num_cat=0
split_feature=4 22
split_gain=244.979 263.623
threshold=-0.017499999999999998 1.0000000180025095e-35
decision_type=2 2
left_child=-1 -2
right_child=1 -3
leaf_value=-0.068612219261797239 -0.0182202370924744 0.12988817869210562
leaf_weight=127 119 81
leaf_count=127 119 81
internal_value=0.000130206 0.0450171
internal_weight=327 200
internal_count=327 200
is_linear=0
shrinkage=0.0660907


Tree=137
num_leaves=4
num_cat=0
split_feature=15 158 94
split_gain=246.755 383.98 208.598
threshold=61.150002000000008 -1.0000000180025095e-35 0.99729200000000018
decision_type=2 2 2
left_child=1 -1 -3
right_child=-2 2 -4
leaf_value=-0.1237931166442931 0.093745601834377801 0.11237153285740066 -0.038719928149052042
leaf_weight=104 81 69 73
leaf_count=104 81 69 73
internal_value=0.00020102 -0.0329987 0.0371695
internal_weight=327 246 142
internal_count=327 246 142
is_linear=0
shrinkage=0.0660907


Tree=138
num_leaves=3
num_cat=0
split_feature=7 279
split_gain=244.687 394.002
threshold=0.98655950000000014 -0.50505999999999984
decision_type=2 2
left_child=1 -1
right_child=-2 -3
leaf_value=0.053067181939517059 0.071580547696017988 -0.12279219139760364
leaf_weight=95 121 111
leaf_count=95 121 111
internal_value=0.000270461 -0.0429288
internal_weight=327 206
internal_count=327 206
is_linear=0
shrinkage=0.0660907


Tree=139
num_leaves=4
num_cat=0
split_feature=2 3 1
split_gain=244.312 300.882 238.719
threshold=4.5500000000000007 0.50100950000000011 25.293226000000004
decision_type=2 2 2
left_child=-1 -2 -3
right_child=1 2 -4
leaf_value=0.092646456025069199 0.077666169305368085 -0.14003074720057909 0.010339816270793051
leaf_weight=82 68 100 77
leaf_count=82 68 100 77
internal_value=0.000256201 -0.0330266 -0.077481
internal_weight=327 245 177
internal_count=327 245 177
is_linear=0
shrinkage=0.0660907


Tree=140
num_leaves=4
num_cat=0
split_feature=93 270 23
split_gain=236.571 333.131 266.577
threshold=0.47988550000000002 60.160003500000009 0.090000000000000011
decision_type=2 2 2
left_child=1 -1 -3
right_child=-2 2 -4
leaf_value=-0.04708233765959037 -0.097024610676208267 0.18325782168976737 0.0024038906674096324
leaf_weight=120 73 67 67
leaf_count=120 73 67 67
internal_value=0.000320658 0.0309398 0.0993168
internal_weight=327 254 134
internal_count=327 254 134
is_linear=0
shrinkage=0.0660907


Tree=141
num_leaves=4
num_cat=0
split_feature=125 190 248
split_gain=231.949 315.714 341.056
threshold=42.566421500000011 1.0289195000000002 44.79622650000001
decision_type=2 2 2
left_child=1 2 -1
right_child=-2 -3 -4
leaf_value=0.10939689863586194 0.089084430906766723 -0.1393487333463663 -0.067641916368486377
leaf_weight=81 84 72 90
leaf_count=81 84 72 90
internal_value=0.000378197 -0.032535 0.0175575
internal_weight=327 243 171
internal_count=327 243 171
is_linear=0
shrinkage=0.0660907


Tree=142
num_leaves=4
num_cat=0
split_feature=26 96 142
split_gain=230.489 384.067 298.838
threshold=10.485714500000002 4.3500000000000005 -0.010630999999999998
decision_type=2 2 2
left_child=1 -1 -2
right_child=2 -3 -4
leaf_value=-0.14287469939851469 -0.03156719373907331 0.039281388432876693 0.15096825325623081
leaf_weight=85 72 101 69
leaf_count=85 72 101 69
internal_value=0.000334384 -0.046927 0.06174
internal_weight=327 186 141
internal_count=327 186 141
is_linear=0
shrinkage=0.0660907


Tree=143
num_leaves=4
num_cat=0
split_feature=120 43 43
split_gain=238.844 323.179 289.215
threshold=8.8000000000000025 1.0194940000000001 0.99119900000000005
decision_type=2 2 2
left_child=1 2 -1
right_child=-2 -3 -4
leaf_value=0.056221505847687911 -0.091641934949002607 0.12760817114401379 -0.11304054304119766
leaf_weight=85 81 88 73
leaf_count=85 81 88 73
internal_value=0.000340849 0.0330538 -0.0239746
internal_weight=327 246 158
internal_count=327 246 158
is_linear=0
shrinkage=0.0660907


Tree=144
num_leaves=4
num_cat=0
split_feature=0 36 25
split_gain=228.409 382.905 257.083
threshold=23.764491500000002 27.117127500000006 85.082847500000014
decision_type=2 2 2
left_child=2 -2 -1
right_child=1 -3 -4
leaf_value=0.032494198746273233 -0.067290066790499092 0.12105082745230514 -0.13405952671976826
leaf_weight=69 69 111 78
leaf_count=69 69 111 78
internal_value=0.000275454 0.0490501 -0.0587003
internal_weight=327 180 147
internal_count=327 180 147
is_linear=0
shrinkage=0.0660907


Tree=145
num_leaves=4
num_cat=0
split_feature=19 80 168
split_gain=226.445 387.542 342.564
threshold=0.98196650000000008 -0.088122999999999993 -1.1399999999999999
decision_type=2 2 2
left_child=1 -1 -2
right_child=2 -3 -4
leaf_value=-0.045684850819232237 -0.14965255504697275 0.16421631723952562 0.024509708358593597
leaf_weight=69 72 68 118
leaf_count=69 72 68 118
internal_value=0.000161864 0.0624806 -0.0455879
internal_weight=327 137 190
internal_count=327 137 190
is_linear=0
shrinkage=0.0660907


Tree=146
num_leaves=4
num_cat=0
split_feature=230 94 47
split_gain=219.075 328.46 248.932
threshold=55.750000000000007 0.98410350000000013 7.8994575000000014
decision_type=2 2 2
left_child=1 -1 -3
right_child=-2 2 -4
leaf_value=0.12246195987408413 -0.082982731963389664 0.049442220558072784 -0.11480159235523542
leaf_weight=95 89 76 67
leaf_count=95 89 76 67
internal_value=0.000136046 0.0333437 -0.029895
internal_weight=327 238 143
internal_count=327 238 143
is_linear=0
shrinkage=0.0660907


Tree=147
num_leaves=4
num_cat=0
split_feature=165 222 179
split_gain=226.107 331.849 310.533
threshold=1.0593925000000002 4.2500000000000009 5.8100010000000006
decision_type=2 2 2
left_child=1 2 -1
right_child=-2 -3 -4
leaf_value=-0.069812798479528496 0.085787285634404922 -0.13668714170352778 0.10332768043800936
leaf_weight=77 87 78 85
leaf_count=77 87 78 85
internal_value=7.43914e-05 -0.0331256 0.0216874
internal_weight=327 240 162
internal_count=327 240 162
is_linear=0
shrinkage=0.0660907


Tree=148
num_leaves=3
num_cat=0
split_feature=132 118
split_gain=220.728 295.523
threshold=1.0414105000000002 25.625000000000004
decision_type=2 2
left_child=1 -1
right_child=-2 -3
leaf_value=0.055835534220795055 0.068608818465234769 -0.099330870104878247
leaf_weight=79 119 129
leaf_count=79 119 129
internal_value=3.33623e-05 -0.0404863
internal_weight=327 208
internal_count=327 208
is_linear=0
shrinkage=0.0660907


Tree=149
num_leaves=4
num_cat=0
split_feature=2 124 19
split_gain=216.744 258.622 264.814
threshold=4.5500000000000007 78.150001500000016 0.98196650000000008
decision_type=2 2 2
left_child=-1 2 -2
right_child=1 -3 -4
leaf_value=0.08710857234427738 0.0043278928686081904 0.044743161556405765 -0.17084472109381418
leaf_weight=82 71 105 69
leaf_count=82 71 105 69
internal_value=8.00923e-05 -0.0312623 -0.0875301
internal_weight=327 245 140
internal_count=327 245 140
is_linear=0
shrinkage=0.0660907


Tree=150
num_leaves=4
num_cat=0
split_feature=32 13 74
split_gain=216.574 267.541 354.598
threshold=1.4098090000000003 12.015490500000002 41.776565500000011
decision_type=2 2 2
left_child=1 2 -1
right_child=-2 -3 -4
leaf_value=0.01230778024017049 0.091042932943914898 0.066992947297813854 -0.17012381492889145
leaf_weight=96 76 77 78
leaf_count=96 76 77 78
internal_value=9.48972e-06 -0.0299273 -0.074181
internal_weight=327 251 174
internal_count=327 251 174
is_linear=0
shrinkage=0.0660907


Tree=151
num_leaves=3
num_cat=0
split_feature=140 60
split_gain=213.338 415.298
threshold=27.349509500000003 0.71741150000000009
decision_type=2 2
left_child=1 -1
right_child=-2 -3
leaf_value=-0.11940626834641729 0.068270111189257784 0.059618351137467662
leaf_weight=115 117 95
leaf_count=115 117 95
internal_value=1.15274e-05 -0.0393322
internal_weight=327 210
internal_count=327 210
is_linear=0
shrinkage=0.0660907


Tree=152
num_leaves=4
num_cat=0
split_feature=104 100 249
split_gain=207.014 342.441 245.917
threshold=-1.7499999999999998 0.029134500000000004 87.610988500000019
decision_type=2 2 2
left_child=-1 2 -2
right_child=1 -3 -4
leaf_value=0.083841437174936931 -0.045252878137871384 -0.11845625315591145 0.11866521764409745
leaf_weight=84 75 101 67
leaf_count=84 75 101 67
internal_value=2.72944e-05 -0.0310553 0.0347155
internal_weight=327 243 142
internal_count=327 243 142
is_linear=0
shrinkage=0.0660907


Tree=153
num_leaves=4
num_cat=0
split_feature=229 149 142
split_gain=212.682 323.516 356.714
threshold=-0.086122499999999991 34.549999000000007 -0.035945499999999998
decision_type=2 2 2
left_child=-1 -2 -3
right_child=1 2 -4
leaf_value=-0.077917925525905582 -0.070322274381476951 -0.017163287439824742 0.17652568880090394
leaf_weight=96 77 74 80
leaf_count=96 77 74 80
internal_value=9.88501e-05 0.0344445 0.0879844
internal_weight=327 231 154
internal_count=327 231 154
is_linear=0
shrinkage=0.0660907


Tree=154
num_leaves=4
num_cat=0
split_feature=133 61 6
split_gain=206.758 365.434 179.117
threshold=8.7777580000000022 -0.035612499999999998 1.0103090000000001
decision_type=2 2 2
left_child=-1 -2 -3
right_child=1 2 -4
leaf_value=0.085740492001853061 0.058477892324972275 -0.016236173646703902 -0.16460196929069171
leaf_weight=81 107 68 71
leaf_count=81 107 68 71
internal_value=0.000107278 -0.0302779 -0.0980207
internal_weight=327 246 139
internal_count=327 246 139
is_linear=0
shrinkage=0.0660907


Tree=155
num_leaves=4
num_cat=0
split_feature=145 66 224
split_gain=204.584 359.578 276.37
threshold=170.31945800000003 1.0010485000000002 2.3350000000000004
decision_type=2 2 2
left_child=1 2 -1
right_child=-2 -3 -4
leaf_value=-0.00024482022270070242 -0.085093532528905613 -0.056427305339445413 0.18153785881981507
leaf_weight=67 81 109 70
leaf_count=67 81 109 70
internal_value=2.65973e-05 0.0303134 0.0985529
internal_weight=327 246 137
internal_count=327 246 137
is_linear=0
shrinkage=0.0660907


Tree=156
num_leaves=4
num_cat=0
split_feature=44 3 69
split_gain=202.168 323.203 372.243
threshold=0.84097100000000002 0.50100950000000011 6.3577150000000016
decision_type=2 2 2
left_child=1 -1 -3
right_child=-2 2 -4
leaf_value=0.14181452441108283 -0.088481735707799131 -0.12617054169887063 0.056130431351541665
leaf_weight=68 75 72 112
leaf_count=68 75 72 112
internal_value=9.56245e-05 0.0288573 -0.0179547
internal_weight=327 252 184
internal_count=327 252 184
is_linear=0
shrinkage=0.0660907


Tree=157
num_leaves=4
num_cat=0
split_feature=78 202 34
split_gain=203.696 328.523 148.226
threshold=70.764999500000016 -0.70999999999999985 0.75754800000000011
decision_type=2 2 2
left_child=1 -1 -3
right_child=-2 2 -4
leaf_value=0.11332328595943744 -0.086823607088886451 0.028376440585959825 -0.098440765031343316
leaf_weight=105 78 75 69
leaf_count=105 78 75 69
internal_value=5.45127e-05 0.0296002 -0.0347472
internal_weight=327 249 144
internal_count=327 249 144
is_linear=0
shrinkage=0.0660907


Tree=158
num_leaves=4
num_cat=0
split_feature=84 142 112
split_gain=200.473 301.772 272.534
threshold=22.432192000000004 0.0060835000000000012 172.00000000000003
decision_type=2 2 2
left_child=2 -2 -1
right_child=1 -3 -4
leaf_value=-0.14417224860816993 -0.040783973741384281 0.12457821705124238 0.025427894063345658
leaf_weight=67 85 91 84
leaf_count=67 85 91 84
internal_value=0 0.0467422 -0.0540083
internal_weight=327 176 151
internal_count=327 176 151
is_linear=0
shrinkage=0.0660907


Tree=159
num_leaves=4
num_cat=0
split_feature=205 221 69
split_gain=196.453 330.47 307.189
threshold=233.89598100000003 8.7500000000000018 8.9289560000000012
decision_type=2 2 2
left_child=1 -1 -3
right_child=-2 2 -4
leaf_value=-0.1238576149864876 0.087964139529812677 -0.048741687269819381 0.12401222658425137
leaf_weight=89 74 94 70
leaf_count=89 74 94 70
internal_value=-3.64612e-05 -0.02817 0.0278005
internal_weight=327 253 164
internal_count=327 253 164
is_linear=0
shrinkage=0.0660907


Tree=160
num_leaves=4
num_cat=0
split_feature=117 26 117
split_gain=195.999 300.75 202.37
threshold=44.59224900000001 10.485714500000002 14.551632500000002
decision_type=2 2 2
left_child=1 2 -1
right_child=-2 -3 -4
leaf_value=-0.0031498411702049031 0.0893460406670116 0.052699650808943427 -0.15515114486796985
leaf_weight=70 72 109 76
leaf_count=70 72 109 76
internal_value=0 -0.0276172 -0.0871902
internal_weight=327 255 146
internal_count=327 255 146
is_linear=0
shrinkage=0.0660907


Tree=161
num_leaves=4
num_cat=0
split_feature=42 10 16
split_gain=194.689 233.492 260.839
threshold=0.089809500000000014 1.0101495 98.899994000000007
decision_type=2 2 2
left_child=1 2 -1
right_child=-2 -3 -4
leaf_value=-0.0074341414818510573 -0.074189052435467265 -0.044296212517848113 0.1685044215054381
leaf_weight=68 97 94 68
leaf_count=68 97 94 68
internal_value=0 0.0330346 0.0859389
internal_weight=327 230 136
internal_count=327 230 136
is_linear=0
shrinkage=0.0660907


Tree=162
num_leaves=4
num_cat=0
split_feature=14 42 52
split_gain=189.084 384.571 343.387
threshold=25.950000000000003 0.089809500000000014 166.82970450000002
decision_type=2 2 2
left_child=1 2 -1
right_child=-2 -3 -4
leaf_value=-0.054803081354670338 0.076761321791566084 -0.15267490053308502 0.12556340776730041
leaf_weight=98 90 68 71
leaf_count=98 90 68 71
internal_value=2.47264e-05 -0.0309852 0.0236725
internal_weight=327 237 169
internal_count=327 237 169
is_linear=0
shrinkage=0.0660907


Tree=163
num_leaves=4
num_cat=0
split_feature=28 127 149
split_gain=191.229 335.516 301.555
threshold=15.835000000000003 1.6789935 35.350000500000007
decision_type=2 2 2
left_child=-1 2 -2
right_child=1 -3 -4
leaf_value=0.082369430421727952 -0.14828895124247876 0.087429840773188425 0.018833110722837002
leaf_weight=81 98 68 80
leaf_count=81 98 68 80
internal_value=1.08131e-05 -0.0292072 -0.0760919
internal_weight=327 246 178
internal_count=327 246 178
is_linear=0
shrinkage=0.0660907


Tree=164
num_leaves=4
num_cat=0
split_feature=30 50 166
split_gain=187.688 274.928 335.994
threshold=1.6500000000000001 0.019386000000000004 0.91957300000000008
decision_type=2 2 2
left_child=1 2 -1
right_child=-2 -3 -4
